{"learner":{"attributes":{},"feature_names":["top_inning","top_season","top_hits_allowed","top_walks","top_strikeouts","top_batters_faced","top_runs_allowed","top_ERA_season","top_WHIP_season","top_FIP_season","top_K/9_season","top_BB/9_season","top_xFIP_season","top_CSW%_season","top_xERA_season","top_runs_rolling10_team","top_OBP_team","top_SLG_team","top_K_rate_team","top_BB_rate_team","top_is_home_team","top_pitcher_te","bot_inning","bot_season","bot_hits_allowed","bot_walks","bot_strikeouts","bot_batters_faced","bot_runs_allowed","bot_ERA_season","bot_WHIP_season","bot_FIP_season","bot_K/9_season","bot_BB/9_season","bot_xFIP_season","bot_CSW%_season","bot_xERA_season","bot_runs_rolling10_team","bot_OBP_team","bot_SLG_team","bot_K_rate_team","bot_BB_rate_team","bot_is_home_team","bot_pitcher_te"],"feature_types":["int","int","int","int","int","int","int","float","float","float","float","float","float","float","float","float","float","float","float","float","i","float","int","int","int","int","int","int","int","float","float","float","float","float","float","float","float","float","float","float","float","float","i","float"],"gradient_booster":{"model":{"gbtree_model_param":{"num_parallel_tree":"1","num_trees":"40"},"iteration_indptr":[0,1,2,3,4,5,6,7,8,9,10,11,12,13,14,15,16,17,18,19,20,21,22,23,24,25,26,27,28,29,30,31,32,33,34,35,36,37,38,39,40],"tree_info":[0,0,0,0,0,0,0,0,0,0,0,0,0,0,0,0,0,0,0,0,0,0,0,0,0,0,0,0,0,0,0,0,0,0,0,0,0,0,0,0],"trees":[{"base_weights":[-4.4767954E-3,-5.6619716E-1,3.837546E-1,-1.4310336E0,-2.2345969E-1,-7.723331E-1,4.6030322E-1,-1.9038904E0,-5.7762885E-1,-1.2471405E0,-2.371589E-2,3.5393438E-1,-1.5955167E0,5.333991E-1,-4.680619E-1,-2.7666593E0,-9.528389E-1,-1.626462E0,4.4454423E-1,-2.4331496E0,1.2665913E-1,-3.3226603E-1,4.576571E-1,-1.6358124E-2,4.150624E-2,-1.9827195E0,5.6620934E-3,2.4183004E-1,7.326697E-1,4.8303285E-1,-1.2965674E0,-1.6051671E-1,-2.0656256E-2,1.500571E-2,-8.401323E-2,2.1847328E-3,-1.4481209E-1,-2.0656256E-2,3.933847E-2,-1.5316616E-1,-5.0247833E-3,4.7075726E-2,-5.3141076E-2,1.310718E-2,-3.7419375E-2,2.8749043E-2,-3.9953183E-2,-2.0656256E-2,-1.3201384E-1,3.7243675E-2,-4.4226525E-3,-4.398432E-3,4.1676786E-2,-1.6358124E-2,4.561828E-2,1.257124E-2,-8.8633426E-2],"categories":[],"categories_nodes":[],"categories_segments":[],"categories_sizes":[],"default_left":[0,0,0,0,0,0,0,0,0,0,0,0,0,0,0,0,0,0,0,0,0,0,0,0,0,0,0,0,0,0,0,0,0,0,0,0,0,0,0,0,0,0,0,0,0,0,0,0,0,0,0,0,0,0,0,0,0],"id":0,"left_children":[1,3,5,7,9,11,13,15,17,19,21,23,25,27,29,31,33,35,37,39,41,43,45,-1,-1,47,-1,49,51,53,55,-1,-1,-1,-1,-1,-1,-1,-1,-1,-1,-1,-1,-1,-1,-1,-1,-1,-1,-1,-1,-1,-1,-1,-1,-1,-1],"loss_changes":[5.5258194E1,3.0374466E1,1.3615778E1,1.0685837E1,1.5376938E1,9.538023E0,9.828751E0,1.2426666E1,1.3425476E1,2.0320112E1,9.667468E0,1.8625598E0,4.044322E0,7.452915E0,9.164759E0,8.176071E0,9.853016E0,1.2983576E1,2.3167653E0,9.454449E0,7.4376006E0,9.996052E0,4.2111173E0,0E0,0E0,3.8227978E0,0E0,9.171995E0,6.4897346E0,2.3066807E0,4.9137936E0,0E0,0E0,0E0,0E0,0E0,0E0,0E0,0E0,0E0,0E0,0E0,0E0,0E0,0E0,0E0,0E0,0E0,0E0,0E0,0E0,0E0,0E0,0E0,0E0,0E0,0E0],"parents":[2147483647,0,0,1,1,2,2,3,3,4,4,5,5,6,6,7,7,8,8,9,9,10,10,11,11,12,12,13,13,14,14,15,15,16,16,17,17,18,18,19,19,20,20,21,21,22,22,25,25,27,27,28,28,29,29,30,30],"right_children":[2,4,6,8,10,12,14,16,18,20,22,24,26,28,30,32,34,36,38,40,42,44,46,-1,-1,48,-1,50,52,54,56,-1,-1,-1,-1,-1,-1,-1,-1,-1,-1,-1,-1,-1,-1,-1,-1,-1,-1,-1,-1,-1,-1,-1,-1,-1,-1],"split_conditions":[5E0,4E0,1.9444445E-1,4.4444445E-1,5E-1,2.26E0,1.086E1,3.77E0,1.13E0,3.1034482E-1,3.220339E-1,3.265306E-1,7.5E-1,3.0555555E-1,3.17E0,4.2857143E-1,2.7027026E-1,3.57E0,3E0,7E0,8E-1,3.77E0,5.16E0,-1.6358124E-2,4.150624E-2,6E0,5.6620934E-3,2.0454545E-1,4.8387095E-1,3.44E0,2.6190478E-1,-1.6051671E-1,-2.0656256E-2,1.500571E-2,-8.401323E-2,2.1847328E-3,-1.4481209E-1,-2.0656256E-2,3.933847E-2,-1.5316616E-1,-5.0247833E-3,4.7075726E-2,-5.3141076E-2,1.310718E-2,-3.7419375E-2,2.8749043E-2,-3.9953183E-2,-2.0656256E-2,-1.3201384E-1,3.7243675E-2,-4.4226525E-3,-4.398432E-3,4.1676786E-2,-1.6358124E-2,4.561828E-2,1.257124E-2,-8.8633426E-2],"split_indices":[2,24,38,39,43,33,10,14,30,38,16,16,15,38,7,37,38,7,2,24,37,14,31,0,0,26,0,18,21,31,39,0,0,0,0,0,0,0,0,0,0,0,0,0,0,0,0,0,0,0,0,0,0,0,0,0,0],"split_type":[0,0,0,0,0,0,0,0,0,0,0,0,0,0,0,0,0,0,0,0,0,0,0,0,0,0,0,0,0,0,0,0,0,0,0,0,0,0,0,0,0,0,0,0,0,0,0,0,0,0,0,0,0,0,0,0,0],"sum_hessian":[2.5139151E2,1.025527E2,1.4883882E2,2.8205608E1,7.434709E1,8.678648E0,1.4016017E2,1.7357296E1,1.084831E1,1.1282243E1,6.3064846E1,3.9053917E0,4.773257E0,1.3032437E2,9.835802E0,8.100072E0,9.257225E0,5.062545E0,5.7857656E0,5.6411214E0,5.6411214E0,3.8619987E1,2.444486E1,1.7357297E0,2.169662E0,3.7607477E0,1.012509E0,5.380762E1,7.6516754E1,4.773257E0,5.062545E0,6.5089865E0,1.5910856E0,3.6161036E0,5.6411214E0,2.6035945E0,2.4589505E0,1.5910856E0,4.19468E0,4.19468E0,1.4464414E0,3.4714594E0,2.169662E0,1.60555E1,2.2564486E1,2.2853775E1,1.5910856E0,1.5910856E0,2.169662E0,2.0828756E1,3.2978863E1,8.38936E0,6.812739E1,1.7357297E0,3.037527E0,1.3017973E0,3.7607477E0],"tree_param":{"num_deleted":"0","num_feature":"44","num_nodes":"57","size_leaf_vector":"1"}},{"base_weights":[3.190565E-2,-1.0325829E0,1.4948234E-1,-2.2509916E0,-4.4964325E-1,-2.1997026E-1,4.310572E-1,1.0194319E-2,-2.7182329E0,-1.1567404E0,5.702741E-1,-9.086344E-1,5.764026E-2,1.3566096E-1,7.4084884E-1,-1.6086237E-1,-1.2117049E-2,-1.3285422E-1,-5.557425E-1,8.5641414E-1,-1.2005902E-2,-4.3354663E-1,-1.6853716E0,-5.1685184E-1,4.8223224E-1,-1.9296318E-1,6.192609E-1,8.048641E-1,-5.8877295E-1,-7.750972E-2,5.648222E-4,4.9023617E-2,5.3316033E-3,-1.1856645E-1,-4.312144E-3,-2.5621194E-2,-1.1359193E-1,3.9776333E-2,-3.80919E-2,3.4806278E-2,2.5260325E-3,4.8153545E-3,-5.9226584E-2,3.550216E-2,-4.355361E-2,4.243379E-2,-4.4108666E-2,-6.924077E-2,1.5325966E-2],"categories":[],"categories_nodes":[],"categories_segments":[],"categories_sizes":[],"default_left":[0,0,0,0,0,0,0,0,0,0,0,0,0,0,0,0,0,0,0,0,0,0,0,0,0,0,0,0,0,0,0,0,0,0,0,0,0,0,0,0,0,0,0,0,0,0,0,0,0],"id":1,"left_children":[1,3,5,7,9,11,13,-1,15,17,19,21,23,25,27,-1,-1,-1,29,31,-1,33,35,37,39,41,43,45,47,-1,-1,-1,-1,-1,-1,-1,-1,-1,-1,-1,-1,-1,-1,-1,-1,-1,-1,-1,-1],"loss_changes":[3.1437422E1,1.6735756E1,2.3600973E1,9.543182E0,1.3749905E1,1.8862827E1,1.1664871E1,0E0,7.440754E0,8.486867E0,2.0842547E0,9.722645E0,1.7583445E1,1.077319E1,5.796234E0,0E0,0E0,0E0,5.179306E0,4.7274542E-1,0E0,1.2530669E1,5.9929714E0,1.0471231E1,3.7858973E0,1.17813425E1,4.3202753E0,5.1893578E0,2.883113E0,0E0,0E0,0E0,0E0,0E0,0E0,0E0,0E0,0E0,0E0,0E0,0E0,0E0,0E0,0E0,0E0,0E0,0E0,0E0,0E0],"parents":[2147483647,0,0,1,1,2,2,3,3,4,4,5,5,6,6,8,8,9,9,10,10,11,11,12,12,13,13,14,14,18,18,19,19,21,21,22,22,23,23,24,24,25,25,26,26,27,27,28,28],"right_children":[2,4,6,8,10,12,14,-1,16,18,20,22,24,26,28,-1,-1,-1,30,32,-1,34,36,38,40,42,44,46,48,-1,-1,-1,-1,-1,-1,-1,-1,-1,-1,-1,-1,-1,-1,-1,-1,-1,-1,-1,-1],"split_conditions":[2.1621622E-1,2.9411766E-1,5E0,4.516129E-1,6E0,3.5135135E-1,3.265306E-1,1.0194319E-2,9.43E0,1.06E0,5.5263156E-1,3.75E-1,3.78E0,3E0,1.141E1,-1.6086237E-1,-1.2117049E-2,-1.3285422E-1,8.12E0,6.865672E-1,-1.2005902E-2,1E0,8.18E0,2.59E-1,2.94E0,4.09E0,4.87E0,5.16E0,5.555556E-1,-7.750972E-2,5.648222E-4,4.9023617E-2,5.3316033E-3,-1.1856645E-1,-4.312144E-3,-2.5621194E-2,-1.1359193E-1,3.9776333E-2,-3.80919E-2,3.4806278E-2,2.5260325E-3,4.8153545E-3,-5.9226584E-2,3.550216E-2,-4.355361E-2,4.243379E-2,-4.4108666E-2,-6.924077E-2,1.5325966E-2],"split_indices":[16,39,24,43,24,17,38,0,32,8,39,15,14,6,10,0,0,0,10,43,0,8,10,35,11,7,12,12,43,0,0,0,0,0,0,0,0,0,0,0,0,0,0,0,0,0,0,0,0],"split_type":[0,0,0,0,0,0,0,0,0,0,0,0,0,0,0,0,0,0,0,0,0,0,0,0,0,0,0,0,0,0,0,0,0,0,0,0,0,0,0,0,0,0,0,0,0,0,0,0,0],"sum_hessian":[2.4894655E2,2.3987938E1,2.2495862E2,6.836805E0,1.7151133E1,9.739113E1,1.2756749E2,1.1833167E0,5.653488E0,1.0049664E1,7.101469E0,2.7327402E1,7.006373E1,6.6036995E1,6.153049E1,4.455962E0,1.1975262E0,1.8958077E0,8.153856E0,5.2063704E0,1.8950984E0,1.7923027E1,9.404375E0,2.9683424E1,4.0380302E1,3.9676395E1,2.6360601E1,5.908069E1,2.4498012E0,2.3313606E0,5.8224955E0,4.203232E0,1.0031389E0,1.8383152E0,1.6084711E1,3.7593453E0,5.64503E0,4.3159375E0,2.5367487E1,2.6592474E1,1.37878275E1,3.1414669E1,8.261727E0,2.534057E1,1.0200311E0,5.8069588E1,1.0111009E0,1.0073495E0,1.4424516E0],"tree_param":{"num_deleted":"0","num_feature":"44","num_nodes":"49","size_leaf_vector":"1"}},{"base_weights":[-6.6200187E-3,-7.1719027E-1,2.1831082E-1,-9.6036005E-1,5.9180486E-1,-1.15534745E-1,2.6818728E-1,-1.5770408E0,-4.340831E-1,-3.2356594E-2,9.439012E-1,4.112346E-2,5.708079E-1,-1.778824E0,2.1507546E-1,4.0289435E-1,-1.0271413E0,5.8160177E-3,5.2287813E-2,-7.181792E-1,1.2620866E-1,1.0814881E0,4.105867E-1,3.169583E-2,-9.709106E-2,-1.8226754E-2,3.290272E-2,4.778984E-2,-3.0772537E-2,-6.5942355E-2,9.800577E-3,-1.2396979E-1,-5.5611925E-3,-4.0082976E-2,9.568474E-3,5.6544878E-2,1.391042E-2,-1.8257227E-2,2.9444603E-2],"categories":[],"categories_nodes":[],"categories_segments":[],"categories_sizes":[],"default_left":[0,0,0,0,0,0,0,0,0,0,0,0,0,0,0,0,0,0,0,0,0,0,0,0,0,0,0,0,0,0,0,0,0,0,0,0,0,0,0],"id":2,"left_children":[1,3,5,7,9,-1,11,13,15,-1,17,19,21,23,25,27,29,-1,-1,31,33,35,37,-1,-1,-1,-1,-1,-1,-1,-1,-1,-1,-1,-1,-1,-1,-1,-1],"loss_changes":[3.9494118E1,1.9479275E1,2.429726E1,1.5699909E1,4.9409323E0,0E0,1.2687092E1,8.651318E0,1.4619423E1,0E0,5.6419706E-1,6.9878716E0,6.03771E0,9.355782E0,1.0630842E0,7.67521E0,6.335449E0,0E0,0E0,1.1383732E1,6.0091596E0,4.1195107E-1,8.778455E0,0E0,0E0,0E0,0E0,0E0,0E0,0E0,0E0,0E0,0E0,0E0,0E0,0E0,0E0,0E0,0E0],"parents":[2147483647,0,0,1,1,2,2,3,3,4,4,6,6,7,7,8,8,10,10,11,11,12,12,13,13,14,14,15,15,16,16,19,19,20,20,21,21,22,22],"right_children":[2,4,6,8,10,-1,12,14,16,-1,18,20,22,24,26,28,30,-1,-1,32,34,36,38,-1,-1,-1,-1,-1,-1,-1,-1,-1,-1,-1,-1,-1,-1,-1,-1],"split_conditions":[4E0,6.515151E-1,1.4705883E-1,3.888889E-1,3.35E0,-1.15534745E-1,3.265306E-1,4.36E0,2.74E-1,-3.2356594E-2,2.09E0,2.195122E-1,7.48E0,1.5625E-1,3E0,5.5E-1,1.24E0,5.8160177E-3,5.2287813E-2,2.3529412E-1,4.2857143E-1,3.68E0,3E-1,3.169583E-2,-9.709106E-2,-1.8226754E-2,3.290272E-2,4.778984E-2,-3.0772537E-2,-6.5942355E-2,9.800577E-3,-1.2396979E-1,-5.5611925E-3,-4.0082976E-2,9.568474E-3,5.6544878E-2,1.391042E-2,-1.8257227E-2,2.9444603E-2],"split_indices":[2,21,16,39,36,0,38,7,35,0,33,16,32,17,25,39,30,0,0,39,21,33,17,0,0,0,0,0,0,0,0,0,0,0,0,0,0,0,0],"split_type":[0,0,0,0,0,0,0,0,0,0,0,0,0,0,0,0,0,0,0,0,0,0,0,0,0,0,0,0,0,0,0,0,0,0,0,0,0,0,0],"sum_hessian":[2.451225E2,5.841078E1,1.8671172E2,4.9484474E1,8.926308E0,2.7344027E0,1.8397731E2,2.1865877E1,2.7618595E1,1.7899593E0,7.1363487E0,1.0575932E2,7.821799E1,1.965971E1,2.2061675E0,1.15868435E1,1.6031752E1,1.0167985E0,6.11955E0,9.907128E0,9.5852196E1,1.730643E1,6.0911556E1,1.0612708E0,1.859844E1,1.0324081E0,1.1737592E0,7.5493855E0,4.0374575E0,1.288146E1,3.1502926E0,1.7484982E0,8.15863E0,5.5479827E0,9.030421E1,1.5919385E1,1.3870454E0,1.1188269E1,4.972329E1],"tree_param":{"num_deleted":"0","num_feature":"44","num_nodes":"39","size_leaf_vector":"1"}},{"base_weights":[2.5168965E-2,-6.7404807E-1,2.4133314E-1,-8.883438E-1,5.579585E-1,-6.235678E-1,3.5143256E-1,-1.0357013E0,6.057961E-1,-6.29225E-1,5.1982325E-2,-1.6546304E0,-2.0202576E-1,1.8422778E-1,6.630582E-1,4.06996E-1,-1.1412376E0,4.569896E-2,-1.1516242E-2,-6.876107E-2,1.3908768E-2,3.1112028E-2,-2.2199028E0,-1.3573794E0,9.679984E-2,-2.7211645E-1,3.424203E-1,3.693106E-1,1.0367719E0,-1.7711869E-2,4.0035836E-2,-6.2224597E-2,9.133703E-3,-1.481931E-1,-3.800651E-2,-9.1120645E-2,-1.212848E-2,3.5385184E-2,-3.0840402E-2,3.6337234E-2,-2.6703168E-2,2.7707622E-3,2.8811887E-2,-1.4681309E-2,2.85278E-2,5.5521972E-2,-1.5686778E-2],"categories":[],"categories_nodes":[],"categories_segments":[],"categories_sizes":[],"default_left":[0,0,0,0,0,0,0,0,0,0,0,0,0,0,0,0,0,0,0,0,0,0,0,0,0,0,0,0,0,0,0,0,0,0,0,0,0,0,0,0,0,0,0,0,0,0,0],"id":3,"left_children":[1,3,5,7,9,11,13,15,17,19,-1,21,23,25,27,29,31,-1,-1,-1,-1,-1,33,35,37,39,41,43,45,-1,-1,-1,-1,-1,-1,-1,-1,-1,-1,-1,-1,-1,-1,-1,-1,-1,-1],"loss_changes":[3.8346287E1,1.6315588E1,1.8664915E1,1.1950527E1,6.0825195E0,9.329563E0,8.8645935E0,7.6480637E0,1.5627239E0,2.6589E0,0E0,9.506813E0,5.9733763E0,8.296229E0,6.1863823E0,1.4684768E0,6.2732086E0,0E0,0E0,0E0,0E0,0E0,3.477478E0,1.3951015E0,6.7042446E0,8.187298E0,5.6602793E0,4.844838E0,2.9134846E0,0E0,0E0,0E0,0E0,0E0,0E0,0E0,0E0,0E0,0E0,0E0,0E0,0E0,0E0,0E0,0E0,0E0,0E0],"parents":[2147483647,0,0,1,1,2,2,3,3,4,4,5,5,6,6,7,7,8,8,9,9,11,11,12,12,13,13,14,14,15,15,16,16,22,22,23,23,24,24,25,25,26,26,27,27,28,28],"right_children":[2,4,6,8,10,12,14,16,18,20,-1,22,24,26,28,30,32,-1,-1,-1,-1,-1,34,36,38,40,42,44,46,-1,-1,-1,-1,-1,-1,-1,-1,-1,-1,-1,-1,-1,-1,-1,-1,-1,-1],"split_conditions":[4E0,8E0,2.195122E-1,6.818182E-1,3.34E0,2.244898E-1,7E0,1.4583333E-1,2.820513E-1,8.66E0,5.1982325E-2,1.4814815E-1,1.99E0,5.3846157E-1,3.96E0,5.833333E-1,4.76E0,4.569896E-2,-1.1516242E-2,-6.876107E-2,1.3908768E-2,3.1112028E-2,5E0,1.3E0,3.99E0,2.5714287E-1,3.255814E-1,1.88E0,3.409091E-1,-1.7711869E-2,4.0035836E-2,-6.2224597E-2,9.133703E-3,-1.481931E-1,-3.800651E-2,-9.1120645E-2,-1.212848E-2,3.5385184E-2,-3.0840402E-2,3.6337234E-2,-2.6703168E-2,2.7707622E-3,2.8811887E-2,-1.4681309E-2,2.85278E-2,5.5521972E-2,-1.5686778E-2],"split_indices":[2,24,16,21,31,18,2,18,40,32,0,18,11,21,9,43,34,0,0,0,0,0,24,30,9,16,16,11,18,0,0,0,0,0,0,0,0,0,0,0,0,0,0,0,0,0,0],"split_type":[0,0,0,0,0,0,0,0,0,0,0,0,0,0,0,0,0,0,0,0,0,0,0,0,0,0,0,0,0,0,0,0,0,0,0,0,0,0,0,0,0,0,0,0,0,0,0],"sum_hessian":[2.5162791E2,5.8920868E1,1.9270705E2,5.0428295E1,8.492574E0,2.123432E1,1.7147273E2,4.6180622E1,4.2476735E0,2.3628147E0,6.129759E0,5.3132625E0,1.5921057E1,1.12631004E2,5.884172E1,2.9532208E0,4.3227398E1,3.0356536E0,1.2120202E0,1.0137905E0,1.349024E0,1.0367078E0,4.2765546E0,2.543748E0,1.3377309E1,2.8807812E1,8.382319E1,3.4058872E1,2.4782848E1,1.040931E0,1.9122899E0,4.015558E1,3.0718203E0,2.1503105E0,2.126244E0,1.3470905E0,1.1966574E0,7.2117577E0,6.1655507E0,5.6164923E0,2.319132E1,3.8186817E1,4.563637E1,7.824519E0,2.6234354E1,2.3669485E1,1.1133631E0],"tree_param":{"num_deleted":"0","num_feature":"44","num_nodes":"47","size_leaf_vector":"1"}},{"base_weights":[-1.3696026E-2,-4.2074624E-1,2.978572E-1,-6.2530106E-1,3.2840532E-1,-2.8162792E-1,4.7158802E-1,-1.5357065E0,-4.079668E-1,-4.6470714E-1,6.7141E-1,-5.109583E-1,5.408972E-1,5.44572E-1,-4.8357177E-1,-2.1474543E0,-4.688462E-1,-1.1625592E0,-2.3461612E-1,6.2636197E-1,-1.1783713E0,7.98109E-1,-9.864133E-3,-1.6866563E-1,-1.2774638E0,8.7026787E-1,-3.467792E-2,2.2819534E-1,7.5294846E-1,1.7537403E-1,-1.0923129E-1,-5.0878385E-3,-1.3419731E-1,-6.3932255E-2,2.2190897E-2,-7.1011364E-2,1.9165052E-2,1.6647901E-2,-2.3843763E-2,5.370821E-3,3.8814776E-2,-8.85143E-3,-1.1363589E-1,-2.0245395E-3,4.7710583E-2,-2.663206E-2,2.9596547E-2,-8.638178E-2,3.3269774E-2,4.9342424E-2,7.496152E-3,-2.8901491E-2,2.0898236E-2,4.518309E-2,1.5953528E-2,-2.4683315E-2,3.4938153E-2],"categories":[],"categories_nodes":[],"categories_segments":[],"categories_sizes":[],"default_left":[0,0,0,0,0,0,0,0,0,0,0,0,0,0,0,0,0,0,0,0,0,0,0,0,0,0,0,0,0,0,0,0,0,0,0,0,0,0,0,0,0,0,0,0,0,0,0,0,0,0,0,0,0,0,0,0,0],"id":4,"left_children":[1,3,5,7,9,11,13,15,17,19,21,23,25,27,29,31,33,35,37,39,41,43,-1,45,47,49,-1,51,53,55,-1,-1,-1,-1,-1,-1,-1,-1,-1,-1,-1,-1,-1,-1,-1,-1,-1,-1,-1,-1,-1,-1,-1,-1,-1,-1,-1],"loss_changes":[3.1933094E1,1.693272E1,1.4494883E1,1.64071E1,6.859474E0,6.6012526E0,7.940504E0,9.584942E0,8.996296E0,6.85623E0,2.0516944E0,6.798802E0,3.7734919E0,6.6040497E0,9.73955E0,1.0740486E1,5.88418E0,5.7163544E0,8.254071E0,2.0917094E-1,5.183339E0,2.0308075E0,0E0,5.7505665E0,8.234802E0,4.061141E-1,0E0,6.7054853E0,3.7353287E0,2.7759116E0,0E0,0E0,0E0,0E0,0E0,0E0,0E0,0E0,0E0,0E0,0E0,0E0,0E0,0E0,0E0,0E0,0E0,0E0,0E0,0E0,0E0,0E0,0E0,0E0,0E0,0E0,0E0],"parents":[2147483647,0,0,1,1,2,2,3,3,4,4,5,5,6,6,7,7,8,8,9,9,10,10,11,11,12,12,13,13,14,14,15,15,16,16,17,17,18,18,19,19,20,20,21,21,23,23,24,24,25,25,27,27,28,28,29,29],"right_children":[2,4,6,8,10,12,14,16,18,20,22,24,26,28,30,32,34,36,38,40,42,44,-1,46,48,50,-1,52,54,56,-1,-1,-1,-1,-1,-1,-1,-1,-1,-1,-1,-1,-1,-1,-1,-1,-1,-1,-1,-1,-1,-1,-1,-1,-1,-1,-1],"split_conditions":[5E0,7E0,2.5581396E-1,4.857143E-1,3.41E0,8E0,1.086E1,4.117647E-1,4.9019608E-1,2.0454545E-1,2.97E-1,1.28E0,9.69E0,5E0,4E0,2.94E0,6E0,6E0,2.29E0,6E0,6E0,3.0555555E-1,-9.864133E-3,2.9411766E-1,4.53E0,3.478261E-1,-3.467792E-2,1.08E0,8E-1,2E0,-1.0923129E-1,-5.0878385E-3,-1.3419731E-1,-6.3932255E-2,2.2190897E-2,-7.1011364E-2,1.9165052E-2,1.6647901E-2,-2.3843763E-2,5.370821E-3,3.8814776E-2,-8.85143E-3,-1.1363589E-1,-2.0245395E-3,4.7710583E-2,-2.663206E-2,2.9596547E-2,-8.638178E-2,3.3269774E-2,4.9342424E-2,7.496152E-3,-2.8901491E-2,2.0898236E-2,4.518309E-2,1.5953528E-2,-2.4683315E-2,3.4938153E-2],"split_indices":[2,24,38,43,29,2,10,39,21,40,13,8,10,24,25,29,26,24,11,4,26,39,0,39,9,39,0,8,37,3,0,0,0,0,0,0,0,0,0,0,0,0,0,0,0,0,0,0,0,0,0,0,0,0,0,0,0],"split_type":[0,0,0,0,0,0,0,0,0,0,0,0,0,0,0,0,0,0,0,0,0,0,0,0,0,0,0,0,0,0,0,0,0,0,0,0,0,0,0,0,0,0,0,0,0,0,0,0,0,0,0,0,0,0,0,0,0],"sum_hessian":[2.4981471E2,1.0815615E2,1.4165855E2,8.508825E1,2.3067907E1,3.253059E1,1.0912796E2,1.5228885E1,6.985936E1,6.857302E0,1.6210604E1,2.5734327E1,6.796263E0,1.0178074E2,7.347224E0,9.035164E0,6.193721E0,1.1984528E1,5.7874832E1,2.7600274E0,4.097275E0,1.421814E1,1.9924649E0,1.8633394E1,7.1009336E0,5.5977273E0,1.1985359E0,4.1248512E1,6.0532227E1,5.9422483E0,1.4049757E0,2.124376E0,6.9107876E0,3.0693293E0,3.1243916E0,1.0341971E1,1.6425565E0,1.7201084E1,4.067375E1,1.003426E0,1.7566013E0,2.746215E0,1.3510597E0,2.3475373E0,1.1870603E1,1.2805272E1,5.828123E0,5.855059E0,1.2458743E0,4.4995527E0,1.0981745E0,7.469362E0,3.3779152E1,4.4122818E1,1.640941E1,2.6331375E0,3.3091109E0],"tree_param":{"num_deleted":"0","num_feature":"44","num_nodes":"57","size_leaf_vector":"1"}},{"base_weights":[-3.5659768E-2,-3.929641E-1,2.494042E-1,-7.719171E-1,2.4428032E-1,-5.7628844E-3,5.5601144E-1,-7.606834E-2,-9.7547513E-1,-1.0242525E0,4.0220279E-1,4.5693487E-1,-2.8030574E-1,2.1842381E-1,8.5699666E-1,-6.990561E-1,3.1201735E-1,-1.338888E0,-4.9186355E-1,-1.6117843E0,1.42969815E-2,7.5120974E-1,1.2272522E-2,-8.2129925E-2,6.280342E-1,-4.604662E-1,6.8417996E-1,6.0358125E-1,-4.242682E-1,-2.525009E-1,9.8522496E-1,-7.266733E-2,9.083966E-3,-4.0739544E-2,3.667788E-2,-7.264199E-2,8.3456375E-3,-6.236279E-2,-7.433511E-3,-1.14948355E-1,-2.1666728E-2,-1.4248732E-2,4.3396067E-2,-1.4194441E-2,4.0301267E-2,3.8784128E-2,-7.469818E-3,-3.8625296E-2,5.929015E-3,4.9135648E-2,1.2754714E-3,-9.399233E-3,4.0939074E-2,-9.439897E-2,1.5052441E-2,-6.1211344E-2,2.4543932E-2,5.395025E-2,-2.2608278E-2],"categories":[],"categories_nodes":[],"categories_segments":[],"categories_sizes":[],"default_left":[0,0,0,0,0,0,0,0,0,0,0,0,0,0,0,0,0,0,0,0,0,0,0,0,0,0,0,0,0,0,0,0,0,0,0,0,0,0,0,0,0,0,0,0,0,0,0,0,0,0,0,0,0,0,0,0,0,0,0],"id":5,"left_children":[1,3,5,7,9,11,13,15,17,19,21,23,25,27,29,31,33,35,37,39,-1,41,43,-1,45,47,49,51,53,55,57,-1,-1,-1,-1,-1,-1,-1,-1,-1,-1,-1,-1,-1,-1,-1,-1,-1,-1,-1,-1,-1,-1,-1,-1,-1,-1,-1,-1],"loss_changes":[2.5829287E1,2.7354948E1,1.1044718E1,9.952286E0,8.968271E0,1.0038554E1,6.3273773E0,4.353673E0,8.951599E0,4.317851E0,5.257488E0,1.1604785E1,8.930793E0,8.06877E0,5.022249E0,4.8307543E0,5.932356E0,5.4998703E0,6.3063955E0,1.9271374E0,0E0,2.7150497E0,4.764735E0,0E0,3.3228464E0,7.748536E0,1.5886037E0,3.5859609E0,1.3747809E1,3.6868973E0,4.569647E0,0E0,0E0,0E0,0E0,0E0,0E0,0E0,0E0,0E0,0E0,0E0,0E0,0E0,0E0,0E0,0E0,0E0,0E0,0E0,0E0,0E0,0E0,0E0,0E0,0E0,0E0,0E0,0E0],"parents":[2147483647,0,0,1,1,2,2,3,3,4,4,5,5,6,6,7,7,8,8,9,9,10,10,11,11,12,12,13,13,14,14,15,15,16,16,17,17,18,18,19,19,21,21,22,22,24,24,25,25,26,26,27,27,28,28,29,29,30,30],"right_children":[2,4,6,8,10,12,14,16,18,20,22,24,26,28,30,32,34,36,38,40,-1,42,44,-1,46,48,50,52,54,56,58,-1,-1,-1,-1,-1,-1,-1,-1,-1,-1,-1,-1,-1,-1,-1,-1,-1,-1,-1,-1,-1,-1,-1,-1,-1,-1,-1,-1],"split_conditions":[3.846154E-1,6E0,4.02E0,7.65E0,1.59E0,6E-1,3E0,4E0,2.69E0,2.7659574E-1,2.3684211E-1,1.9512194E-1,8E0,2E0,2.8E-1,1E0,4.09E0,3.5E-1,2.972973E-1,2.73E-1,1.42969815E-2,2.53E-1,4.34E0,-8.2129925E-2,4E0,3.888889E-1,8.5714287E-1,4E0,2.75E-1,4.2857143E-1,5.35E0,-7.266733E-2,9.083966E-3,-4.0739544E-2,3.667788E-2,-7.264199E-2,8.3456375E-3,-6.236279E-2,-7.433511E-3,-1.14948355E-1,-2.1666728E-2,-1.4248732E-2,4.3396067E-2,-1.4194441E-2,4.0301267E-2,3.8784128E-2,-7.469818E-3,-3.8625296E-2,5.929015E-3,4.9135648E-2,1.2754714E-3,-9.399233E-3,4.0939074E-2,-9.439897E-2,1.5052441E-2,-6.1211344E-2,2.4543932E-2,5.395025E-2,-2.2608278E-2],"split_indices":[17,24,14,10,33,15,6,4,33,18,40,38,24,6,16,20,12,16,39,13,0,13,31,0,25,16,15,24,38,17,29,0,0,0,0,0,0,0,0,0,0,0,0,0,0,0,0,0,0,0,0,0,0,0,0,0,0,0,0],"split_type":[0,0,0,0,0,0,0,0,0,0,0,0,0,0,0,0,0,0,0,0,0,0,0,0,0,0,0,0,0,0,0,0,0,0,0,0,0,0,0,0,0,0,0,0,0,0,0,0,0,0,0,0,0,0,0,0,0,0,0],"sum_hessian":[2.5162756E2,1.1149687E2,1.4013069E2,6.9785736E1,4.1711132E1,7.701656E1,6.3114132E1,1.610514E1,5.3680595E1,4.010497E0,3.7700638E1,2.8432991E1,4.8583576E1,3.0561632E1,3.2552498E1,5.8741574E0,1.0230984E1,2.9639378E1,2.404122E1,2.6099317E0,1.4005654E0,1.9405355E1,1.829528E1,1.4944587E0,2.6938534E1,4.1377136E1,7.206437E0,1.914758E1,1.1414053E1,3.272033E0,2.9280466E1,2.8140025E0,3.060155E0,2.5314202E0,7.6995635E0,2.7586905E1,2.0524728E0,6.687439E0,1.7353779E1,1.0479857E0,1.5619462E0,1.8185215E0,1.7586834E1,1.3791723E1,4.503557E0,2.2640865E1,4.2976685E0,2.6670628E1,1.47065115E1,4.6203604E0,2.5860765E0,4.119903E0,1.5027676E1,3.2508237E0,8.16323E0,1.1378397E0,2.1341932E0,2.7721178E1,1.5592885E0],"tree_param":{"num_deleted":"0","num_feature":"44","num_nodes":"59","size_leaf_vector":"1"}},{"base_weights":[1.4189781E-3,-5.510014E-1,1.8745624E-1,-1.0294346E0,-1.08746506E-1,-5.4469484E-1,3.0465662E-1,-1.4170804E0,8.3154105E-2,7.2300524E-1,-2.9823336E-1,1.2957072E-1,-1.2155697E0,-4.7593947E-2,5.313199E-1,-1.6665132E0,3.3287078E-1,-6.999237E-1,5.462103E-1,4.914523E-2,-9.717476E-3,-8.0720854E-1,1.4675069E-1,-6.271475E-1,8.017354E-1,4.2741604E-2,-1.7416105E0,-4.082371E-1,3.583051E-1,-3.0793104E-1,6.189679E-1,9.475614E-3,-8.939933E-2,-1.8608198E-2,3.762917E-2,-6.833238E-2,1.431794E-2,4.9630895E-2,-3.6871642E-2,-1.5759178E-2,-8.556449E-2,3.1138182E-2,-3.0489871E-2,8.914559E-3,-8.521039E-2,-1.8354904E-2,5.159503E-2,-1.06245294E-1,-1.5013757E-2,-1.256446E-2,-8.803267E-2,-4.9566057E-2,2.7472494E-2,-4.816361E-2,2.7837375E-2,3.6327694E-2,-5.5414806E-3],"categories":[],"categories_nodes":[],"categories_segments":[],"categories_sizes":[],"default_left":[0,0,0,0,0,0,0,0,0,0,0,0,0,0,0,0,0,0,0,0,0,0,0,0,0,0,0,0,0,0,0,0,0,0,0,0,0,0,0,0,0,0,0,0,0,0,0,0,0,0,0,0,0,0,0,0,0],"id":6,"left_children":[1,3,5,7,9,11,13,15,17,19,21,23,25,27,29,31,33,35,37,-1,-1,39,41,43,45,-1,47,49,51,53,55,-1,-1,-1,-1,-1,-1,-1,-1,-1,-1,-1,-1,-1,-1,-1,-1,-1,-1,-1,-1,-1,-1,-1,-1,-1,-1],"loss_changes":[2.5665922E1,1.320056E1,1.6196474E1,1.310144E1,5.5446963E0,1.19806595E1,1.293422E1,1.0323906E1,3.5454073E0,1.7564516E0,6.515957E0,7.592928E0,1.5862856E1,9.547224E0,7.4331512E0,4.7928276E0,1.3529553E0,2.8111105E0,4.195009E0,0E0,0E0,5.3901463E0,6.1118784E0,6.479065E0,2.48286E0,0E0,5.357895E0,6.874899E0,8.4766655E0,6.190521E0,7.106247E0,0E0,0E0,0E0,0E0,0E0,0E0,0E0,0E0,0E0,0E0,0E0,0E0,0E0,0E0,0E0,0E0,0E0,0E0,0E0,0E0,0E0,0E0,0E0,0E0,0E0,0E0],"parents":[2147483647,0,0,1,1,2,2,3,3,4,4,5,5,6,6,7,7,8,8,9,9,10,10,11,11,12,12,13,13,14,14,15,15,16,16,17,17,18,18,21,21,22,22,23,23,24,24,26,26,27,27,28,28,29,29,30,30],"right_children":[2,4,6,8,10,12,14,16,18,20,22,24,26,28,30,32,34,36,38,-1,-1,40,42,44,46,-1,48,50,52,54,56,-1,-1,-1,-1,-1,-1,-1,-1,-1,-1,-1,-1,-1,-1,-1,-1,-1,-1,-1,-1,-1,-1,-1,-1,-1,-1],"split_conditions":[4E0,3.939394E-1,4.9019608E-1,4.6341464E-1,7.24E0,9.05E0,3.846154E-1,6.571429E-1,3.32E0,4.48E0,1E0,8.82353E-2,3.23E0,3.64E0,2.1621622E-1,2.5641026E-2,2.1052632E-1,5E0,2.99E0,4.914523E-2,-9.717476E-3,2.6666668E-1,5.263158E-1,9.51E0,1.92E0,4.2741604E-2,3.6363637E-1,1.6E-1,3E0,5.714286E-1,4E0,9.475614E-3,-8.939933E-2,-1.8608198E-2,3.762917E-2,-6.833238E-2,1.431794E-2,4.9630895E-2,-3.6871642E-2,-1.5759178E-2,-8.556449E-2,3.1138182E-2,-3.0489871E-2,8.914559E-3,-8.521039E-2,-1.8354904E-2,5.159503E-2,-1.06245294E-1,-1.5013757E-2,-1.256446E-2,-8.803267E-2,-4.9566057E-2,2.7472494E-2,-4.816361E-2,2.7837375E-2,3.6327694E-2,-5.5414806E-3],"split_indices":[2,39,21,17,32,32,17,21,7,14,6,41,36,29,38,41,18,26,11,0,0,18,39,10,33,0,16,19,4,43,25,0,0,0,0,0,0,0,0,0,0,0,0,0,0,0,0,0,0,0,0,0,0,0,0,0,0],"split_type":[0,0,0,0,0,0,0,0,0,0,0,0,0,0,0,0,0,0,0,0,0,0,0,0,0,0,0,0,0,0,0,0,0,0,0,0,0,0,0,0,0,0,0,0,0,0,0,0,0,0,0,0,0,0,0,0,0],"sum_hessian":[2.4773445E2,6.1916714E1,1.8581773E2,2.9104097E1,3.281262E1,2.5137318E1,1.6068042E2,2.1380922E1,7.723175E0,5.5658307E0,2.7246788E1,1.2939391E1,1.2197926E1,6.322084E1,9.745958E1,1.875528E1,2.625642E0,2.6798053E0,5.04337E0,4.2813964E0,1.2844342E0,1.2329836E1,1.4916951E1,6.118359E0,6.821032E0,2.344675E0,9.8532505E0,3.3473618E1,2.9747223E1,8.978165E0,8.8481415E1,1.1176897E0,1.763759E1,1.022064E0,1.6035781E0,1.3688271E0,1.3109783E0,3.9102392E0,1.1331306E0,8.857805E0,3.4720306E0,9.264592E0,5.652359E0,3.978016E0,2.1403434E0,1.0243261E0,5.7967057E0,7.4087696E0,2.4444807E0,3.105544E1,2.418177E0,3.1710422E0,2.6576181E1,5.042456E0,3.935709E0,7.71173E1,1.1364106E1],"tree_param":{"num_deleted":"0","num_feature":"44","num_nodes":"57","size_leaf_vector":"1"}},{"base_weights":[-3.7801396E-2,-3.8950977E-1,2.3059198E-1,-6.746409E-1,9.339691E-2,-3.132808E-1,3.9352667E-1,-1.4317609E0,-3.7194815E-1,-4.7262657E-1,3.9746943E-1,-7.6233745E-1,2.2402127E-1,-5.4530835E-1,4.517349E-1,-2.062979E0,-5.0192364E-2,-1.1366982E0,-1.4571911E-1,-5.6054275E-2,-2.0075555E0,-9.14895E-2,7.095799E-1,-1.1033473E0,6.7984635E-1,-5.5159366E-1,6.5139335E-1,-8.463406E-2,7.241024E-2,2.6003823E-1,6.8408483E-1,-1.4919604E-1,-5.540165E-2,-4.0409233E-2,4.4249423E-2,-1.23174405E-2,-1.01655185E-1,-7.3373996E-2,4.1703405E-3,-6.5122806E-2,2.3157503E-2,-1.3164043E-1,-1.8207034E-2,-5.3846665E-2,1.539011E-2,4.0142905E-2,-1.680321E-2,7.951245E-3,-7.690029E-2,4.1318096E-2,5.61081E-3,1.4783233E-2,-8.55528E-2,4.4602856E-2,-3.8526006E-2,-3.2967225E-2,3.0277941E-2,3.2326303E-2,2.614263E-3,3.9637443E-2,-1.0123202E-2],"categories":[],"categories_nodes":[],"categories_segments":[],"categories_sizes":[],"default_left":[0,0,0,0,0,0,0,0,0,0,0,0,0,0,0,0,0,0,0,0,0,0,0,0,0,0,0,0,0,0,0,0,0,0,0,0,0,0,0,0,0,0,0,0,0,0,0,0,0,0,0,0,0,0,0,0,0,0,0,0,0],"id":7,"left_children":[1,3,5,7,9,11,13,15,17,19,21,23,25,27,29,31,33,35,37,39,41,43,45,47,49,51,53,-1,55,57,59,-1,-1,-1,-1,-1,-1,-1,-1,-1,-1,-1,-1,-1,-1,-1,-1,-1,-1,-1,-1,-1,-1,-1,-1,-1,-1,-1,-1,-1,-1],"loss_changes":[2.376764E1,1.5062935E1,1.2786127E1,1.5192751E1,7.299767E0,8.253016E0,6.2793903E0,1.6680973E1,8.548864E0,9.412994E0,4.2500706E0,9.835739E0,5.6706047E0,5.0117188E0,4.476633E0,8.290092E0,5.7203455E0,8.55927E0,1.2241958E1,8.851698E0,2.27942E0,4.884295E0,1.9136162E0,8.652107E0,2.5255084E-1,6.6298165E0,4.3794827E0,0E0,2.522802E0,4.6933146E0,4.6524315E0,0E0,0E0,0E0,0E0,0E0,0E0,0E0,0E0,0E0,0E0,0E0,0E0,0E0,0E0,0E0,0E0,0E0,0E0,0E0,0E0,0E0,0E0,0E0,0E0,0E0,0E0,0E0,0E0,0E0,0E0],"parents":[2147483647,0,0,1,1,2,2,3,3,4,4,5,5,6,6,7,7,8,8,9,9,10,10,11,11,12,12,13,13,14,14,15,15,16,16,17,17,18,18,19,19,20,20,21,21,22,22,23,23,24,24,25,25,26,26,28,28,29,29,30,30],"right_children":[2,4,6,8,10,12,14,16,18,20,22,24,26,28,30,32,34,36,38,40,42,44,46,48,50,52,54,-1,56,58,60,-1,-1,-1,-1,-1,-1,-1,-1,-1,-1,-1,-1,-1,-1,-1,-1,-1,-1,-1,-1,-1,-1,-1,-1,-1,-1,-1,-1,-1,-1],"split_conditions":[3.846154E-1,6E0,4E0,5.25E-1,2.2E0,5.833333E-1,4.2857143E-1,6.2E-1,2.5E-1,3.5135135E-1,2.9411766E-1,4E0,1.13E0,2.972973E-1,3.265306E-1,3.7E0,5E0,2.79E-1,1.9354838E-1,3E-1,3.93E0,8.01E0,1.6363636E-1,2.69E-1,3.86E0,3.65E0,1.4E0,-8.463406E-2,2E0,2.72E-1,1.764706E-1,-1.4919604E-1,-5.540165E-2,-4.0409233E-2,4.4249423E-2,-1.23174405E-2,-1.01655185E-1,-7.3373996E-2,4.1703405E-3,-6.5122806E-2,2.3157503E-2,-1.3164043E-1,-1.8207034E-2,-5.3846665E-2,1.539011E-2,4.0142905E-2,-1.680321E-2,7.951245E-3,-7.690029E-2,4.1318096E-2,5.61081E-3,1.4783233E-2,-8.55528E-2,4.4602856E-2,-3.8526006E-2,-3.2967225E-2,3.0277941E-2,3.2326303E-2,2.614263E-3,3.9637443E-2,-1.0123202E-2],"split_indices":[17,24,2,21,33,21,21,43,38,17,38,28,30,39,38,14,2,13,17,39,9,10,19,35,7,31,30,0,25,35,41,0,0,0,0,0,0,0,0,0,0,0,0,0,0,0,0,0,0,0,0,0,0,0,0,0,0,0,0,0,0],"split_type":[0,0,0,0,0,0,0,0,0,0,0,0,0,0,0,0,0,0,0,0,0,0,0,0,0,0,0,0,0,0,0,0,0,0,0,0,0,0,0,0,0,0,0,0,0,0,0,0,0,0,0,0,0,0,0,0,0,0,0,0,0],"sum_hessian":[2.498345E2,1.0793843E2,1.4189607E2,6.761705E1,4.0321373E1,3.249746E1,1.0939861E2,1.8246737E1,4.937032E1,1.3897395E1,2.6423979E1,1.7474289E1,1.5023172E1,5.898239E0,1.03500374E2,1.21859455E1,6.060791E0,1.0351913E1,3.9018406E1,1.1746084E1,2.1513114E0,1.0570646E1,1.5853333E1,1.4322602E1,3.1516862E0,5.2338576E0,9.789314E0,1.4551597E0,4.4430795E0,5.7872627E1,4.5627747E1,5.121812E0,7.064133E0,3.4225276E0,2.6382635E0,5.83307E0,4.5188437E0,4.966045E0,3.405236E1,3.010505E0,8.7355795E0,1.1222898E0,1.0290216E0,2.5587049E0,8.011941E0,1.4768109E1,1.0852237E0,3.8308523E0,1.049175E1,2.1427844E0,1.0089018E0,3.4545207E0,1.7793369E0,8.690973E0,1.0983409E0,1.772962E0,2.6701174E0,1.9494516E1,3.8378113E1,4.074005E1,4.887692E0],"tree_param":{"num_deleted":"0","num_feature":"44","num_nodes":"61","size_leaf_vector":"1"}},{"base_weights":[2.3387656E-2,-3.4364405E-1,3.0294487E-1,-1.1035678E0,-1.5476334E-1,-1.12632535E-1,5.3767776E-1,-4.2055947E-1,-1.639001E0,5.0649774E-1,-2.7803817E-1,-4.1159943E-1,3.1953403E-1,-2.8215808E-1,6.5571094E-1,-9.4193333E-1,6.934806E-1,-1.8256412E0,-1.694092E-2,7.957139E-1,-1.339348E-1,-6.259753E-1,5.0082136E-2,-2.4850307E-1,-9.52259E-2,-1.6849619E-1,6.1054784E-1,-7.8130805E-1,4.458869E-2,3.427018E-1,8.6180425E-1,1.6162977E-2,-6.384548E-2,7.3488117E-3,4.138641E-2,-4.961554E-2,-1.2046286E-1,6.2182928E-3,5.2329518E-2,-3.1721145E-2,3.6434468E-2,-4.394077E-2,1.4692262E-2,3.0172622E-2,-2.0130625E-2,-4.1677296E-2,-8.327761E-4,-3.8288254E-2,2.5984896E-2,-3.551509E-2,4.2553242E-2,-7.262357E-2,4.5464697E-4,2.595651E-2,-3.2308936E-2,-2.1109117E-2,4.5755252E-2],"categories":[],"categories_nodes":[],"categories_segments":[],"categories_sizes":[],"default_left":[0,0,0,0,0,0,0,0,0,0,0,0,0,0,0,0,0,0,0,0,0,0,0,0,0,0,0,0,0,0,0,0,0,0,0,0,0,0,0,0,0,0,0,0,0,0,0,0,0,0,0,0,0,0,0,0,0],"id":8,"left_children":[1,3,5,7,9,11,13,15,17,19,21,23,25,27,29,31,33,35,-1,37,39,41,43,45,-1,47,49,51,-1,53,55,-1,-1,-1,-1,-1,-1,-1,-1,-1,-1,-1,-1,-1,-1,-1,-1,-1,-1,-1,-1,-1,-1,-1,-1,-1,-1],"loss_changes":[2.565345E1,1.5349201E1,1.3900571E1,7.1228848E0,7.295148E0,6.8549967E0,8.975277E0,6.8869753E0,2.2035198E0,2.7265565E0,8.550358E0,7.122666E0,3.2049117E0,7.8053803E0,4.8465004E0,3.6909308E0,1.71628E-1,2.4443893E0,0E0,1.535317E0,2.7316902E0,8.69821E0,1.0095317E1,3.9568384E0,0E0,4.0737624E0,5.020033E0,4.8115425E0,0E0,6.146139E0,3.6304016E0,0E0,0E0,0E0,0E0,0E0,0E0,0E0,0E0,0E0,0E0,0E0,0E0,0E0,0E0,0E0,0E0,0E0,0E0,0E0,0E0,0E0,0E0,0E0,0E0,0E0,0E0],"parents":[2147483647,0,0,1,1,2,2,3,3,4,4,5,5,6,6,7,7,8,8,9,9,10,10,11,11,12,12,13,13,14,14,15,15,16,16,17,17,19,19,20,20,21,21,22,22,23,23,25,25,26,26,27,27,29,29,30,30],"right_children":[2,4,6,8,10,12,14,16,18,20,22,24,26,28,30,32,34,36,-1,38,40,42,44,46,-1,48,50,52,-1,54,56,-1,-1,-1,-1,-1,-1,-1,-1,-1,-1,-1,-1,-1,-1,-1,-1,-1,-1,-1,-1,-1,-1,-1,-1,-1,-1],"split_conditions":[5E0,2.820513E-1,2.8301886E-1,1E0,4E0,4.390244E-1,1.07E0,4.13E0,4E0,2.5531915E-1,3.1914893E-1,3.07E-1,5E0,3E0,2.024E3,3.31E0,5.4285717E-1,2.5531915E-1,-1.694092E-2,3.2E0,3.26E0,2.93E-1,1.0526316E-1,5.4285717E-1,-9.52259E-2,2E0,1.8421052E-1,2E0,4.458869E-2,3.1707317E-1,1.5151516E-1,1.6162977E-2,-6.384548E-2,7.3488117E-3,4.138641E-2,-4.961554E-2,-1.2046286E-1,6.2182928E-3,5.2329518E-2,-3.1721145E-2,3.6434468E-2,-4.394077E-2,1.4692262E-2,3.0172622E-2,-2.0130625E-2,-4.1677296E-2,-8.327761E-4,-3.8288254E-2,2.5984896E-2,-3.551509E-2,4.2553242E-2,-7.262357E-2,4.5464697E-4,2.595651E-2,-3.2308936E-2,-2.1109117E-2,4.5755252E-2],"split_indices":[2,39,38,42,4,17,8,31,28,18,38,13,4,28,1,31,21,18,0,29,11,13,41,21,0,25,38,3,0,18,17,0,0,0,0,0,0,0,0,0,0,0,0,0,0,0,0,0,0,0,0,0,0,0,0,0,0],"split_type":[0,0,0,0,0,0,0,0,0,0,0,0,0,0,0,0,0,0,0,0,0,0,0,0,0,0,0,0,0,0,0,0,0,0,0,0,0,0,0,0,0,0,0,0,0,0,0,0,0,0,0,0,0,0,0,0,0],"sum_hessian":[2.480035E2,1.0712692E2,1.4087657E2,2.0361961E1,8.676496E1,5.1037888E1,8.983869E1,9.732483E0,1.0629479E1,1.3144984E1,7.361997E1,3.0196177E1,2.084171E1,1.113143E1,7.870726E1,6.7349815E0,2.9975014E0,8.941755E0,1.6877239E0,8.888513E0,4.2564716E0,3.529042E1,3.8329556E1,2.8273811E1,1.9223647E0,7.942738E0,1.2898972E1,8.045132E0,3.0862982E0,3.2305443E1,4.6401817E1,1.4172095E0,5.317772E0,1.0042297E0,1.9932716E0,4.7951555E0,4.1466002E0,2.824866E0,6.0636463E0,2.861053E0,1.3954188E0,2.771634E1,7.574082E0,1.7097134E1,2.1232422E1,7.288023E0,2.0985788E1,4.1919327E0,3.7508051E0,1.6861115E0,1.121286E1,3.8977482E0,4.1473837E0,2.7817493E1,4.4879494E0,1.5736125E0,4.4828205E1],"tree_param":{"num_deleted":"0","num_feature":"44","num_nodes":"57","size_leaf_vector":"1"}},{"base_weights":[2.1181015E-2,-5.167498E-1,2.1345511E-1,-6.30301E-1,8.0902606E-1,-7.8406475E-2,4.4925398E-1,-4.978364E-1,-2.218982E0,5.887408E-3,4.6838265E-2,-2.894428E-1,2.9867086E-1,-1.6346104E-1,5.412668E-1,-1.2513225E0,-2.900674E-1,-3.3047877E-2,-1.3106841E-1,-8.3071923E-1,-7.612438E-2,-8.5239637E-1,4.3346903E-1,-8.335508E-1,5.119238E-1,8.809242E-1,3.495744E-1,-1.07718565E-1,-2.1384276E-2,2.35182E-2,-2.2183234E-2,-1.8790508E-2,-1.09295204E-1,-4.9085923E-2,5.4627857E-3,-9.197902E-2,1.5067132E-2,2.9526904E-2,-3.9078888E-2,2.2474816E-2,-6.7893974E-2,4.7587134E-2,-1.0971005E-2,4.8406623E-2,-2.7915979E-2,1.0888994E-3,3.7259333E-2],"categories":[],"categories_nodes":[],"categories_segments":[],"categories_sizes":[],"default_left":[0,0,0,0,0,0,0,0,0,0,0,0,0,0,0,0,0,0,0,0,0,0,0,0,0,0,0,0,0,0,0,0,0,0,0,0,0,0,0,0,0,0,0,0,0,0,0],"id":9,"left_children":[1,3,5,7,9,11,13,15,17,-1,-1,19,21,23,25,27,29,-1,-1,31,33,35,37,39,41,43,45,-1,-1,-1,-1,-1,-1,-1,-1,-1,-1,-1,-1,-1,-1,-1,-1,-1,-1,-1,-1],"loss_changes":[2.5515797E1,1.0290787E1,1.2537122E1,1.1607552E1,3.8097692E-1,6.614195E0,5.7616806E0,8.567791E0,1.0006924E0,0E0,0E0,6.068246E0,5.013118E0,6.720417E0,5.4036064E0,8.025259E0,5.5836377E0,0E0,0E0,8.370885E0,6.6867704E0,4.511568E0,5.7008967E0,5.5624967E0,2.6358986E0,4.430092E0,7.470584E0,0E0,0E0,0E0,0E0,0E0,0E0,0E0,0E0,0E0,0E0,0E0,0E0,0E0,0E0,0E0,0E0,0E0,0E0,0E0,0E0],"parents":[2147483647,0,0,1,1,2,2,3,3,4,4,5,5,6,6,7,7,8,8,11,11,12,12,13,13,14,14,15,15,16,16,19,19,20,20,21,21,22,22,23,23,24,24,25,25,26,26],"right_children":[2,4,6,8,10,12,14,16,18,-1,-1,20,22,24,26,28,30,-1,-1,32,34,36,38,40,42,44,46,-1,-1,-1,-1,-1,-1,-1,-1,-1,-1,-1,-1,-1,-1,-1,-1,-1,-1,-1,-1],"split_conditions":[4E0,6.818182E-1,3.888889E-1,1E1,5.4545455E-2,3E0,4.9019608E-1,2.777778E-1,8.06E0,5.887408E-3,4.6838265E-2,5E0,2.3809524E-2,3.55E0,1.9444445E-1,7.317073E-2,7.25E0,-3.3047877E-2,-1.3106841E-1,1.3043478E-1,2.1052632E-1,7.8431375E-2,3.6585367E-1,3.46E0,3.78E0,5.35E0,4.5454547E-1,-1.07718565E-1,-2.1384276E-2,2.35182E-2,-2.2183234E-2,-1.8790508E-2,-1.09295204E-1,-4.9085923E-2,5.4627857E-3,-9.197902E-2,1.5067132E-2,2.9526904E-2,-3.9078888E-2,2.2474816E-2,-6.7893974E-2,4.7587134E-2,-1.0971005E-2,4.8406623E-2,-2.7915979E-2,1.0888994E-3,3.7259333E-2],"split_indices":[2,21,17,27,41,28,21,39,32,0,0,2,19,12,18,19,32,0,0,19,39,41,17,34,7,29,39,0,0,0,0,0,0,0,0,0,0,0,0,0,0,0,0,0,0,0,0],"split_type":[0,0,0,0,0,0,0,0,0,0,0,0,0,0,0,0,0,0,0,0,0,0,0,0,0,0,0,0,0,0,0,0,0,0,0,0,0,0,0,0,0,0,0,0,0,0,0],"sum_hessian":[2.4462947E2,6.3970314E1,1.8065915E2,5.940677E1,4.5635448E0,8.103055E1,9.962861E1,5.604693E1,3.3598416E0,1.011494E0,3.5520506E0,5.210288E1,2.8927666E1,1.29066305E1,8.672198E1,1.1028561E1,4.5018364E1,1.2320365E0,2.127805E0,1.3910914E1,3.8191967E1,2.4744413E0,2.6453224E1,6.361158E0,6.545472E0,2.9989117E1,5.673286E1,4.4899874E0,6.5385737E0,7.2185173E0,3.7799847E1,1.1371153E1,2.5397615E0,5.7597075E0,3.243226E1,1.013123E0,1.4613184E0,2.3880209E1,2.5730147E0,1.8868073E0,4.4743505E0,3.8991954E0,2.646277E0,2.858443E1,1.4046862E0,3.1602613E1,2.5130247E1],"tree_param":{"num_deleted":"0","num_feature":"44","num_nodes":"47","size_leaf_vector":"1"}},{"base_weights":[1.3403917E-2,-2.0594613E-1,3.8874215E-1,-6.009242E-1,1.3114384E-1,-3.5805506E-1,4.913338E-1,-1.1122379E0,-3.543354E-1,-4.38915E-1,2.8203148E-1,-9.700489E-1,2.5884455E-1,5.5215263E-1,-1.7641236E-1,-1.644525E0,-3.8491186E-1,-6.7605555E-1,6.8412244E-2,1.3125034E-1,-1.3882706E0,9.0557873E-1,1.6000545E-1,-1.4080786E0,3.0410314E-2,6.1975586E-1,-4.185044E-2,8.3032817E-1,3.4241682E-1,-1.0072131E0,4.329259E-2,-3.18474E-2,-9.6034475E-2,-5.2212574E-2,2.9888907E-2,2.4984902E-2,-4.6013515E-2,1.8173268E-2,-4.0259738E-2,2.279478E-2,-7.255384E-2,-5.2095745E-3,-9.727119E-2,-1.00736385E-2,5.345961E-2,2.4610655E-2,-9.828246E-3,-9.1703445E-2,5.5642035E-3,-7.897236E-3,4.557887E-2,4.818885E-2,-7.7337525E-3,3.4928408E-2,-2.8892243E-3,1.362742E-2,-8.1581615E-2],"categories":[],"categories_nodes":[],"categories_segments":[],"categories_sizes":[],"default_left":[0,0,0,0,0,0,0,0,0,0,0,0,0,0,0,0,0,0,0,0,0,0,0,0,0,0,0,0,0,0,0,0,0,0,0,0,0,0,0,0,0,0,0,0,0,0,0,0,0,0,0,0,0,0,0,0,0],"id":10,"left_children":[1,3,5,7,9,11,13,15,17,19,21,23,25,27,29,31,33,35,37,39,41,43,45,47,-1,49,-1,51,53,55,-1,-1,-1,-1,-1,-1,-1,-1,-1,-1,-1,-1,-1,-1,-1,-1,-1,-1,-1,-1,-1,-1,-1,-1,-1,-1,-1],"loss_changes":[2.0239904E1,2.0742691E1,7.1221943E0,8.638971E0,7.396973E0,4.603801E0,3.3518238E0,8.210224E0,6.8195186E0,9.973213E0,4.9887547E0,5.003114E0,3.1017663E0,4.014885E0,7.3208704E0,2.3616524E0,7.724324E0,8.606361E0,6.074108E0,6.936168E0,4.7148685E0,2.17665E0,6.9246593E0,3.4381924E0,0E0,1.3893604E0,0E0,4.2205315E0,6.271003E0,4.1256595E0,0E0,0E0,0E0,0E0,0E0,0E0,0E0,0E0,0E0,0E0,0E0,0E0,0E0,0E0,0E0,0E0,0E0,0E0,0E0,0E0,0E0,0E0,0E0,0E0,0E0,0E0,0E0],"parents":[2147483647,0,0,1,1,2,2,3,3,4,4,5,5,6,6,7,7,8,8,9,9,10,10,11,11,12,12,13,13,14,14,15,15,16,16,17,17,18,18,19,19,20,20,21,21,22,22,23,23,25,25,27,27,28,28,29,29],"right_children":[2,4,6,8,10,12,14,16,18,20,22,24,26,28,30,32,34,36,38,40,42,44,46,48,-1,50,-1,52,54,56,-1,-1,-1,-1,-1,-1,-1,-1,-1,-1,-1,-1,-1,-1,-1,-1,-1,-1,-1,-1,-1,-1,-1,-1,-1,-1,-1],"split_conditions":[6E0,3.809524E-1,1.74E0,1.11E0,3E0,3E0,3.68E0,2E0,2.68E0,7E0,2.83E0,8E0,2.94E-1,3.57E0,3.6E0,7.8431375E-2,5.555556E-1,1.14E0,4.21E0,5E0,7.272727E-2,4.8387095E-1,2.78E-1,3.02E-1,3.0410314E-2,2.037037E-1,-4.185044E-2,4E0,6E0,3.3333334E-1,4.329259E-2,-3.18474E-2,-9.6034475E-2,-5.2212574E-2,2.9888907E-2,2.4984902E-2,-4.6013515E-2,1.8173268E-2,-4.0259738E-2,2.279478E-2,-7.255384E-2,-5.2095745E-3,-9.727119E-2,-1.00736385E-2,5.345961E-2,2.4610655E-2,-9.828246E-3,-9.1703445E-2,5.5642035E-3,-7.897236E-3,4.557887E-2,4.818885E-2,-7.7337525E-3,3.4928408E-2,-2.8892243E-3,1.362742E-2,-8.1581615E-2],"split_indices":[24,17,33,8,24,28,33,3,33,4,29,4,13,7,7,41,21,8,29,25,41,21,35,35,0,18,0,3,4,15,0,0,0,0,0,0,0,0,0,0,0,0,0,0,0,0,0,0,0,0,0,0,0,0,0,0,0],"split_type":[0,0,0,0,0,0,0,0,0,0,0,0,0,0,0,0,0,0,0,0,0,0,0,0,0,0,0,0,0,0,0,0,0,0,0,0,0,0,0,0,0,0,0,0,0,0,0,0,0,0,0,0,0,0,0,0,0],"sum_hessian":[2.4386494E2,1.542005E2,8.9664444E1,7.064317E1,8.355733E1,1.0529171E1,7.913528E1,2.1842075E1,4.8801094E1,1.7088287E1,6.646904E1,4.99823E0,5.5309405E0,7.268791E1,6.4473624E0,1.1883897E1,9.9581785E0,2.7371555E1,2.142954E1,1.1214697E1,5.873591E0,9.827874E0,5.6641167E1,3.996786E0,1.001444E0,4.4874763E0,1.0434641E0,2.9974028E1,4.2713886E1,3.6063383E0,2.841024E0,3.2678084E0,8.616089E0,5.9220867E0,4.0360923E0,4.5276036E0,2.2843952E1,1.6455715E1,4.973825E0,9.896185E0,1.3185121E0,2.1365228E0,3.7370682E0,1.2356627E0,8.592212E0,2.9125378E1,2.751579E1,2.9598026E0,1.0369834E0,1.3495923E0,3.1378841E0,2.6416634E1,3.5573933E0,2.2206291E1,2.0507593E1,1.3673795E0,2.2389588E0],"tree_param":{"num_deleted":"0","num_feature":"44","num_nodes":"57","size_leaf_vector":"1"}},{"base_weights":[-1.9466128E-2,-4.741907E-1,1.4565842E-1,-3.1823295E-1,-1.1273606E-1,-6.63654E-1,2.4390948E-1,-9.7921467E-1,-1.384279E-1,-1.8959597E0,-2.91357E-1,-1.3073842E-1,3.899068E-1,-1.3998828E0,4.1514403E-1,-2.4941857E-1,6.86381E-1,-1.5171087E-2,-1.1531019E-1,-6.825451E-1,6.248265E-1,-5.2201945E-1,3.3046278E-1,-1.8418102E-2,5.319709E-1,-8.689692E-2,1.8810706E-2,-1.33293765E-2,3.931575E-2,4.3878432E-2,-1.681304E-2,-1.4430473E-2,4.793264E-2,-5.164334E-2,2.6663331E-2,-1.6414888E-2,4.6633173E-2,-5.1526405E-2,8.052144E-3,-2.524187E-2,2.9973334E-2,-1.6664509E-2,3.3782896E-2,1.9142723E-2,4.680156E-2],"categories":[],"categories_nodes":[],"categories_segments":[],"categories_sizes":[],"default_left":[0,0,0,0,0,0,0,0,0,0,0,0,0,0,0,0,0,0,0,0,0,0,0,0,0,0,0,0,0,0,0,0,0,0,0,0,0,0,0,0,0,0,0,0,0],"id":11,"left_children":[1,3,5,7,-1,9,11,13,15,17,19,21,23,25,27,29,31,-1,-1,33,35,37,39,41,43,-1,-1,-1,-1,-1,-1,-1,-1,-1,-1,-1,-1,-1,-1,-1,-1,-1,-1,-1,-1],"loss_changes":[1.8469234E1,1.7475464E1,1.4517485E1,7.162178E0,0E0,8.537675E0,8.89691E0,8.186989E0,4.696975E0,2.1850243E0,6.3034906E0,8.491505E0,6.7750435E0,6.7722435E0,1.1652448E0,4.631434E0,1.9039695E0,0E0,0E0,5.6488247E0,1.8989847E0,8.96335E0,5.1946344E0,7.015257E0,4.8568134E0,0E0,0E0,0E0,0E0,0E0,0E0,0E0,0E0,0E0,0E0,0E0,0E0,0E0,0E0,0E0,0E0,0E0,0E0,0E0,0E0],"parents":[2147483647,0,0,1,1,2,2,3,3,5,5,6,6,7,7,8,8,9,9,10,10,11,11,12,12,13,13,14,14,15,15,16,16,19,19,20,20,21,21,22,22,23,23,24,24],"right_children":[2,4,6,8,-1,10,12,14,16,18,20,22,24,26,28,30,32,-1,-1,34,36,38,40,42,44,-1,-1,-1,-1,-1,-1,-1,-1,-1,-1,-1,-1,-1,-1,-1,-1,-1,-1,-1,-1],"split_conditions":[4E0,1E1,2.1621622E-1,2.7027026E-1,-1.1273606E-1,2.6190478E-1,5.411765E-1,4.28E0,6.571429E-1,1.13E0,6.2857145E-1,1E0,4E0,3.5555556E-1,4.49E0,1.64E0,3.48E0,-1.5171087E-2,-1.1531019E-1,7E0,3.5E0,5.897436E-1,1.07E0,1.23E0,5.277778E-1,-8.689692E-2,1.8810706E-2,-1.33293765E-2,3.931575E-2,4.3878432E-2,-1.681304E-2,-1.4430473E-2,4.793264E-2,-5.164334E-2,2.6663331E-2,-1.6414888E-2,4.6633173E-2,-5.1526405E-2,8.052144E-3,-2.524187E-2,2.9973334E-2,-1.6664509E-2,3.3782896E-2,1.9142723E-2,4.680156E-2],"split_indices":[2,27,16,39,0,39,21,31,21,30,43,42,24,40,34,11,36,0,0,24,14,43,8,30,39,0,0,0,0,0,0,0,0,0,0,0,0,0,0,0,0,0,0,0,0],"split_type":[0,0,0,0,0,0,0,0,0,0,0,0,0,0,0,0,0,0,0,0,0,0,0,0,0,0,0,0,0,0,0,0,0,0,0,0,0,0,0,0,0,0,0,0,0],"sum_hessian":[2.440539E2,6.451606E1,1.7953784E2,6.040397E1,4.1120925E0,1.8813425E1,1.6072441E2,1.1966802E1,4.843717E1,3.4154994E0,1.5397925E1,4.5099022E1,1.1562539E2,9.190217E0,2.7765849E0,4.3307133E1,5.130034E0,1.055958E0,2.3595414E0,1.0969309E1,4.4286165E0,2.432767E1,2.0771355E1,3.0069403E1,8.5555984E1,7.738739E0,1.4514782E0,1.078135E0,1.69845E0,2.4469342E0,4.08602E1,1.1067648E0,4.023269E0,8.632444E0,2.336865E0,1.0649265E0,3.36369E0,1.3654117E1,1.0673552E1,4.8462577E0,1.59250965E1,2.1042942E1,9.026461E0,6.3915714E1,2.1640274E1],"tree_param":{"num_deleted":"0","num_feature":"44","num_nodes":"45","size_leaf_vector":"1"}},{"base_weights":[-4.440538E-2,-1.651492E-1,7.069314E-1,-6.4542735E-1,3.0208355E-2,3.049137E-1,9.6079326E-1,-7.810432E-1,6.8439823E-1,-4.8040268E-1,2.1928443E-1,-2.4605401E-1,6.360981E-1,1.214878E-3,1.0459119E0,-1.4457747E0,-5.2318877E-1,-1.7818868E-2,4.797314E-2,-1.2380075E0,-1.3054828E-1,-8.646894E-2,5.415061E-1,3.5175198E-1,-6.547382E-2,-1.2010384E-1,4.9618628E-2,9.291324E-3,5.4721296E-2,-1.0483786E-1,-1.8107133E-2,-6.53149E-2,-1.56382E-2,3.2833405E-2,-7.4544445E-2,-1.7411882E-2,3.1467084E-2,-3.0774463E-2,6.7811324E-3,3.0821184E-2,-2.6592467E-2,4.291196E-2,-2.6740123E-2,-5.350681E-2,3.740753E-2],"categories":[],"categories_nodes":[],"categories_segments":[],"categories_sizes":[],"default_left":[0,0,0,0,0,0,0,0,0,0,0,0,0,0,0,0,0,0,0,0,0,0,0,0,0,0,0,0,0,0,0,0,0,0,0,0,0,0,0,0,0,0,0,0,0],"id":12,"left_children":[1,3,5,7,9,11,13,15,17,19,21,23,25,-1,27,29,31,-1,-1,33,35,37,39,41,-1,43,-1,-1,-1,-1,-1,-1,-1,-1,-1,-1,-1,-1,-1,-1,-1,-1,-1,-1,-1],"loss_changes":[2.2399868E1,1.9950907E1,3.197153E0,1.1620005E1,1.4776379E1,2.8390865E0,1.6084175E0,8.884468E0,2.1229908E0,1.08056555E1,1.1040091E1,4.4277263E0,2.6681123E0,0E0,5.7961273E-1,9.930204E0,6.527794E0,0E0,0E0,7.185499E0,5.0865135E0,6.9117284E0,4.7076626E0,2.606677E0,0E0,4.0357122E0,0E0,0E0,0E0,0E0,0E0,0E0,0E0,0E0,0E0,0E0,0E0,0E0,0E0,0E0,0E0,0E0,0E0,0E0,0E0],"parents":[2147483647,0,0,1,1,2,2,3,3,4,4,5,5,6,6,7,7,8,8,9,9,10,10,11,11,12,12,14,14,15,15,16,16,19,19,20,20,21,21,22,22,23,23,25,25],"right_children":[2,4,6,8,10,12,14,16,18,20,22,24,26,-1,28,30,32,-1,-1,34,36,38,40,42,-1,44,-1,-1,-1,-1,-1,-1,-1,-1,-1,-1,-1,-1,-1,-1,-1,-1,-1,-1,-1],"split_conditions":[8E0,4E0,5E0,7E0,2.6415095E-1,3.4285715E-1,2.195122E-1,5.102041E-1,2.5581396E-1,5E0,3.181818E-1,3.030303E-1,3.39E0,1.214878E-3,2.96E0,3.181818E-1,1E0,-1.7818868E-2,4.797314E-2,3.05E0,4.42E0,2.13E0,1.113E1,2.3076923E-1,-6.547382E-2,2.024E3,4.9618628E-2,9.291324E-3,5.4721296E-2,-1.0483786E-1,-1.8107133E-2,-6.53149E-2,-1.56382E-2,3.2833405E-2,-7.4544445E-2,-1.7411882E-2,3.1467084E-2,-3.0774463E-2,6.7811324E-3,3.0821184E-2,-2.6592467E-2,4.291196E-2,-2.6740123E-2,-5.350681E-2,3.740753E-2],"split_indices":[2,24,24,2,38,17,16,21,16,4,16,16,7,0,31,38,3,0,0,34,31,33,10,40,0,1,0,0,0,0,0,0,0,0,0,0,0,0,0,0,0,0,0,0,0],"split_type":[0,0,0,0,0,0,0,0,0,0,0,0,0,0,0,0,0,0,0,0,0,0,0,0,0,0,0,0,0,0,0,0,0,0,0,0,0,0,0,0,0,0,0,0,0],"sum_hessian":[2.4462723E2,2.1142957E2,3.3197662E1,6.0467926E1,1.5096164E2,1.3701289E1,1.9496372E1,5.5246548E1,5.22138E0,4.037792E1,1.1058372E2,5.2403474E0,8.460941E0,1.7314962E0,1.7764875E1,1.4153312E1,4.1093235E1,1.0296874E0,4.191693E0,1.1953702E1,2.8424215E1,5.711727E1,5.3466446E1,3.7829676E0,1.4573798E0,2.9219391E0,5.5390024E0,1.2064553E0,1.655842E1,8.25766E0,5.8956523E0,7.600305E0,3.3492928E1,1.2195628E0,1.07341385E1,2.2515745E1,5.9084687E0,1.6364897E1,4.0752377E1,5.0376026E1,3.0904183E0,2.4278684E0,1.3550992E0,1.2842335E0,1.6377057E0],"tree_param":{"num_deleted":"0","num_feature":"44","num_nodes":"45","size_leaf_vector":"1"}},{"base_weights":[-4.234992E-2,-3.1636843E-1,1.9163516E-1,7.78388E-2,-5.8504045E-1,-2.2017871E-1,4.8812267E-1,-1.1751702E0,2.6142132E-1,6.965916E-2,-8.7645257E-1,-3.0455058E-2,-9.267536E-1,-3.0748256E-2,6.286387E-1,1.7096872E-2,-1.6674302E0,-7.142077E-1,3.7334356E-1,-6.1786836E-1,7.063681E-1,1.4969815E-1,-1.0803349E0,-4.474745E-1,3.1938303E-1,-1.6186293E0,2.8546747E-2,6.682145E-1,-3.5267442E-1,6.668951E-1,-3.8609184E-2,-1.12312816E-1,-6.6610673E-3,-8.5300736E-2,2.4051048E-2,-2.158646E-2,2.546434E-2,-6.118392E-2,2.110617E-2,5.2998424E-2,5.963048E-3,-3.5318024E-2,3.3138625E-2,-6.286516E-2,-1.579953E-3,1.9422878E-2,-4.13013E-2,2.562714E-2,-4.7564242E-2,-1.2360665E-2,-1.033172E-1,-2.9756192E-2,4.031588E-2,-1.5985543E-2,4.772851E-2,-5.7165105E-2,7.655176E-3,4.2090905E-3,3.8939882E-2],"categories":[],"categories_nodes":[],"categories_segments":[],"categories_sizes":[],"default_left":[0,0,0,0,0,0,0,0,0,0,0,0,0,0,0,0,0,0,0,0,0,0,0,0,0,0,0,0,0,0,0,0,0,0,0,0,0,0,0,0,0,0,0,0,0,0,0,0,0,0,0,0,0,0,0,0,0,0,0],"id":13,"left_children":[1,3,5,7,9,11,13,15,17,19,21,23,25,27,29,-1,31,33,35,37,39,41,43,45,47,49,51,53,55,57,-1,-1,-1,-1,-1,-1,-1,-1,-1,-1,-1,-1,-1,-1,-1,-1,-1,-1,-1,-1,-1,-1,-1,-1,-1,-1,-1,-1,-1],"loss_changes":[1.5867813E1,1.2112425E1,1.6420559E1,1.1132613E1,1.301017E1,7.5613165E0,5.7056465E0,5.1973076E0,4.8380556E0,9.993348E0,1.0003223E1,6.805018E0,7.9446135E0,4.189927E0,3.8063812E0,0E0,4.006118E0,6.3349056E0,4.402079E0,7.4660635E0,2.323554E0,4.2785807E0,7.266121E0,7.044957E0,6.7258577E0,3.75523E0,3.3913434E0,1.9706166E0,5.248088E0,3.8678436E0,0E0,0E0,0E0,0E0,0E0,0E0,0E0,0E0,0E0,0E0,0E0,0E0,0E0,0E0,0E0,0E0,0E0,0E0,0E0,0E0,0E0,0E0,0E0,0E0,0E0,0E0,0E0,0E0,0E0],"parents":[2147483647,0,0,1,1,2,2,3,3,4,4,5,5,6,6,7,7,8,8,9,9,10,10,11,11,12,12,13,13,14,14,16,16,17,17,18,18,19,19,20,20,21,21,22,22,23,23,24,24,25,25,26,26,27,27,28,28,29,29],"right_children":[2,4,6,8,10,12,14,16,18,20,22,24,26,28,30,-1,32,34,36,38,40,42,44,46,48,50,52,54,56,58,-1,-1,-1,-1,-1,-1,-1,-1,-1,-1,-1,-1,-1,-1,-1,-1,-1,-1,-1,-1,-1,-1,-1,-1,-1,-1,-1,-1,-1],"split_conditions":[5.714286E-1,2.1568628E-1,5E0,4.516129E-1,3.54E0,1.388889E-1,2.6415095E-1,1E0,2.5E-1,4.8387095E-1,4E0,7.317073E-2,3.5E-1,2.2580644E-1,4.1666666E-1,1.7096872E-2,7E0,1.8367347E-1,3E0,9.42E0,7E0,1.12E0,3.8E-1,4.6511628E-2,3.478261E-1,8.35E0,4E0,2.62E-1,2.6E-1,3.13E0,-3.8609184E-2,-1.12312816E-1,-6.6610673E-3,-8.5300736E-2,2.4051048E-2,-2.158646E-2,2.546434E-2,-6.118392E-2,2.110617E-2,5.2998424E-2,5.963048E-3,-3.5318024E-2,3.3138625E-2,-6.286516E-2,-1.579953E-3,1.9422878E-2,-4.13013E-2,2.562714E-2,-4.7564242E-2,-1.2360665E-2,-1.033172E-1,-2.9756192E-2,4.031588E-2,-1.5985543E-2,4.772851E-2,-5.7165105E-2,7.655176E-3,4.2090905E-3,3.8939882E-2],"split_indices":[43,18,24,21,36,19,38,28,17,43,26,19,16,40,18,0,24,18,24,10,26,8,38,19,40,10,24,13,40,9,0,0,0,0,0,0,0,0,0,0,0,0,0,0,0,0,0,0,0,0,0,0,0,0,0,0,0,0,0],"split_type":[0,0,0,0,0,0,0,0,0,0,0,0,0,0,0,0,0,0,0,0,0,0,0,0,0,0,0,0,0,0,0,0,0,0,0,0,0,0,0,0,0,0,0,0,0,0,0,0,0,0,0,0,0,0,0,0,0,0,0],"sum_hessian":[2.455395E2,1.1293266E2,1.3260684E2,4.60607E1,6.687197E1,5.5615562E1,7.699128E1,5.1958766E0,4.0864822E1,2.0831636E1,4.6040333E1,4.4665462E1,1.09501E1,1.6573383E1,6.0417892E1,1.3477099E0,3.8481667E0,3.6516867E0,3.7213135E1,1.0030331E1,1.0801306E1,7.675401E0,3.836493E1,2.0248928E1,2.4416534E1,5.94794E0,5.0021596E0,4.887033E0,1.1686351E1,5.9321743E1,1.0961502E0,2.4570553E0,1.3911114E0,1.7621179E0,1.8895687E0,5.061644E0,3.2151493E1,6.2266154E0,3.8037148E0,6.2385616E0,4.562744E0,2.7351363E0,4.940265E0,3.265561E1,5.7093225E0,6.303383E0,1.3945545E1,2.171255E1,2.703985E0,1.845886E0,4.102054E0,2.9064226E0,2.095737E0,1.0720354E0,3.8149974E0,4.0675344E0,7.618817E0,9.839016E0,4.9482727E1],"tree_param":{"num_deleted":"0","num_feature":"44","num_nodes":"59","size_leaf_vector":"1"}},{"base_weights":[-5.5866122E-2,-2.0235533E-1,4.0671724E-1,-6.2636936E-1,-1.8372007E-2,-5.9743416E-2,4.5826268E-1,3.100976E-1,-8.267861E-1,-4.303933E-1,2.6634756E-1,2.517359E-1,7.651575E-1,-6.3444525E-2,6.059617E-1,-1.126699E0,-3.4659278E-1,-6.410487E-1,3.593574E-1,3.290464E-1,-1.356282E0,3.9502785E-1,-5.757389E-1,-2.908346E-1,9.071445E-1,-3.4245484E-2,4.2805236E-2,-8.025252E-2,-3.0707855E-2,-5.6243945E-2,1.1377695E-2,1.4786511E-2,-4.3020695E-2,-1.9985875E-2,3.2119483E-2,-2.0202158E-2,2.3662847E-2,-1.0800222E-1,7.560437E-3,3.0944604E-2,-8.102107E-3,-6.3781716E-2,3.588235E-2,3.5414297E-2,-6.798794E-2,4.936182E-2,7.5080246E-3],"categories":[],"categories_nodes":[],"categories_segments":[],"categories_sizes":[],"default_left":[0,0,0,0,0,0,0,0,0,0,0,0,0,0,0,0,0,0,0,0,0,0,0,0,0,0,0,0,0,0,0,0,0,0,0,0,0,0,0,0,0,0,0,0,0,0,0],"id":14,"left_children":[1,3,5,7,9,-1,11,13,15,17,19,21,23,-1,25,27,29,31,33,35,37,39,41,43,45,-1,-1,-1,-1,-1,-1,-1,-1,-1,-1,-1,-1,-1,-1,-1,-1,-1,-1,-1,-1,-1,-1],"loss_changes":[1.672684E1,1.4593696E1,5.4519978E0,1.0883625E1,1.5552163E1,0E0,3.5012121E0,5.771829E0,6.3658714E0,9.240389E0,8.42626E0,4.534643E0,3.7052908E0,0E0,3.7171972E0,5.9854507E0,8.960818E0,9.114073E0,2.844521E0,8.260134E0,4.098924E0,4.0357285E0,6.1376815E0,4.677152E0,1.0931244E0,0E0,0E0,0E0,0E0,0E0,0E0,0E0,0E0,0E0,0E0,0E0,0E0,0E0,0E0,0E0,0E0,0E0,0E0,0E0,0E0,0E0,0E0],"parents":[2147483647,0,0,1,1,2,2,3,3,4,4,6,6,7,7,8,8,9,9,10,10,11,11,12,12,14,14,15,15,16,16,17,17,18,18,19,19,20,20,21,21,22,22,23,23,24,24],"right_children":[2,4,6,8,10,-1,12,14,16,18,20,22,24,-1,26,28,30,32,34,36,38,40,42,44,46,-1,-1,-1,-1,-1,-1,-1,-1,-1,-1,-1,-1,-1,-1,-1,-1,-1,-1,-1,-1,-1,-1],"split_conditions":[7E0,4E0,1.5789473E-1,4.918033E-2,5.625E-1,-5.9743416E-2,4.21E0,1.9354838E-1,3.1914893E-1,5.3488374E-1,3.846154E-1,4.05E0,2.3255815E-1,-6.3444525E-2,2E0,3.77E0,3.3E0,4E0,3.5E0,1E0,6E0,6.666667E-1,3.653846E-1,4.62E0,4.71E0,-3.4245484E-2,4.2805236E-2,-8.025252E-2,-3.0707855E-2,-5.6243945E-2,1.1377695E-2,1.4786511E-2,-4.3020695E-2,-1.9985875E-2,3.2119483E-2,-2.0202158E-2,2.3662847E-2,-1.0800222E-1,7.560437E-3,3.0944604E-2,-8.102107E-3,-6.3781716E-2,3.588235E-2,3.5414297E-2,-6.798794E-2,4.936182E-2,7.5080246E-3],"split_indices":[2,24,16,41,43,0,14,17,38,17,40,14,38,0,2,14,29,26,36,25,4,15,16,14,31,0,0,0,0,0,0,0,0,0,0,0,0,0,0,0,0,0,0,0,0,0,0],"split_type":[0,0,0,0,0,0,0,0,0,0,0,0,0,0,0,0,0,0,0,0,0,0,0,0,0,0,0,0,0,0,0,0,0,0,0,0,0,0,0,0,0,0,0,0,0,0,0],"sum_hessian":[2.4462703E2,1.8621857E2,5.840846E1,5.5623142E1,1.3059543E2,1.1295943E0,5.7278862E1,9.70911E0,4.5914032E1,5.315807E1,7.743736E1,3.5326164E1,2.1952698E1,1.0131732E0,8.695936E0,2.7433582E1,1.8480452E1,4.211322E1,1.1044847E1,7.5324036E1,2.1133265E0,3.0557247E1,4.768919E0,2.4776309E0,1.9475067E1,1.1294261E0,7.5665107E0,1.3087538E1,1.4346044E1,7.4382677E0,1.1042183E1,7.9244533E0,3.418877E1,2.887767E0,8.15708E0,1.2085587E1,6.323845E1,1.0960577E0,1.0172691E0,2.171848E1,8.838768E0,3.103327E0,1.6655917E0,1.4550159E0,1.022615E0,1.7336615E1,2.1384518E0],"tree_param":{"num_deleted":"0","num_feature":"44","num_nodes":"47","size_leaf_vector":"1"}},{"base_weights":[3.685565E-2,-2.3758224E-1,2.7566996E-1,-3.148305E-1,8.963809E-1,-4.0743165E-2,4.6530473E-1,3.4055468E-1,-4.3053275E-1,5.004107E-2,6.1967946E-3,7.972211E-2,-9.59133E-1,-2.847986E-1,6.01821E-1,-5.2269127E-2,5.208799E-1,-5.096108E-1,4.543243E-1,-1.0280702E-1,7.1339E-1,-8.571482E-2,-1.1443992E-1,4.9289927E-1,-1.0221791E0,-6.930451E-1,6.759043E-1,3.561129E-2,-2.9694453E-2,-4.5991693E-2,-1.492318E-2,3.7744623E-2,-3.621605E-2,1.8514208E-2,-2.1707457E-2,-1.3845886E-2,4.3102127E-2,-3.7950065E-2,3.463009E-2,-2.6876224E-2,4.1292347E-2,-8.777665E-2,-3.201245E-3,-7.281246E-2,1.7453918E-2,-3.0068193E-2,3.6612008E-2],"categories":[],"categories_nodes":[],"categories_segments":[],"categories_sizes":[],"default_left":[0,0,0,0,0,0,0,0,0,0,0,0,0,0,0,0,0,0,0,0,0,0,0,0,0,0,0,0,0,0,0,0,0,0,0,0,0,0,0,0,0,0,0,0,0,0,0],"id":15,"left_children":[1,3,5,7,9,11,13,15,17,-1,-1,19,21,23,25,-1,27,29,31,33,35,-1,37,39,41,43,45,-1,-1,-1,-1,-1,-1,-1,-1,-1,-1,-1,-1,-1,-1,-1,-1,-1,-1,-1,-1],"loss_changes":[1.6231287E1,1.0382584E1,7.960408E0,8.388655E0,4.902048E-1,5.665288E0,8.6537895E0,4.7600603E0,6.726675E0,0E0,0E0,5.3454523E0,3.5893822E0,8.207211E0,7.2219086E0,0E0,3.7490835E0,7.1468773E0,3.431779E0,5.845032E0,1.7578754E0,0E0,2.5402563E0,2.9183655E0,4.961308E0,3.9312677E0,5.268442E0,0E0,0E0,0E0,0E0,0E0,0E0,0E0,0E0,0E0,0E0,0E0,0E0,0E0,0E0,0E0,0E0,0E0,0E0,0E0,0E0],"parents":[2147483647,0,0,1,1,2,2,3,3,4,4,5,5,6,6,7,7,8,8,11,11,12,12,13,13,14,14,16,16,17,17,18,18,19,19,20,20,22,22,23,23,24,24,25,25,26,26],"right_children":[2,4,6,8,10,12,14,16,18,-1,-1,20,22,24,26,-1,28,30,32,34,36,-1,38,40,42,44,46,-1,-1,-1,-1,-1,-1,-1,-1,-1,-1,-1,-1,-1,-1,-1,-1,-1,-1,-1,-1],"split_conditions":[5E0,9E0,2.8301886E-1,4E0,3.773585E-1,2.99E-1,4.9019608E-1,1.9512194E-1,6.818182E-1,5.004107E-2,6.1967946E-3,7E0,3E0,4.4444445E-1,2E0,-5.2269127E-2,5.03E0,1.13E0,4.7E0,2E0,2.0754717E-1,-8.571482E-2,2.5714287E-1,1.74E0,3.55E0,3.74E0,1.7142858E-1,3.561129E-2,-2.9694453E-2,-4.5991693E-2,-1.492318E-2,3.7744623E-2,-3.621605E-2,1.8514208E-2,-2.1707457E-2,-1.3845886E-2,4.3102127E-2,-3.7950065E-2,3.463009E-2,-2.6876224E-2,4.1292347E-2,-8.777665E-2,-3.201245E-3,-7.281246E-2,1.7453918E-2,-3.0068193E-2,3.6612008E-2],"split_indices":[2,24,38,4,16,13,21,38,21,0,0,4,6,15,24,0,31,30,29,28,40,0,18,11,12,31,17,0,0,0,0,0,0,0,0,0,0,0,0,0,0,0,0,0,0,0,0],"split_type":[0,0,0,0,0,0,0,0,0,0,0,0,0,0,0,0,0,0,0,0,0,0,0,0,0,0,0,0,0,0,0,0,0,0,0,0,0,0,0,0,0,0,0,0,0,0,0],"sum_hessian":[2.4565651E2,1.1430545E2,1.3135106E2,1.07691605E2,6.613845E0,4.9516296E1,8.183476E1,1.5867603E1,9.1824005E1,5.56567E0,1.0481751E0,4.4581707E1,4.9345922E0,1.2433175E1,6.940159E1,1.274545E0,1.4593059E1,8.468036E1,7.1436462E0,3.5262142E1,9.319562E0,2.061818E0,2.8727744E0,6.2125254E0,6.2206497E0,3.3036528E0,6.609794E1,1.2763373E1,1.829685E0,2.7634617E1,5.704574E1,5.978568E0,1.1650785E0,1.4475893E1,2.078625E1,1.1037358E0,8.215826E0,1.630259E0,1.2425152E0,1.3671027E0,4.8454223E0,3.0522842E0,3.1683657E0,1.6776392E0,1.6260134E0,2.3835096E0,6.3714428E1],"tree_param":{"num_deleted":"0","num_feature":"44","num_nodes":"47","size_leaf_vector":"1"}},{"base_weights":[-3.4710597E-2,-4.127303E-1,1.13902986E-1,-2.9481038E-1,-1.5269603E0,-1.9521698E-1,2.596797E-1,-4.1704965E-1,5.7060707E-1,-7.074679E-3,-1.8651627E0,-5.727267E-1,2.4209742E-1,5.0682258E-2,5.3039134E-1,-6.874216E-1,1.4795455E-2,8.8237786E-1,-3.4845658E-2,-2.1394378E-2,-1.14905454E-1,6.173033E-1,-7.873848E-1,7.2049105E-1,-7.089846E-2,-1.9840239E-1,4.2029285E-1,7.333273E-1,-1.273023E-1,-4.157478E-2,1.3722639E-2,2.6707223E-2,-1.9440733E-2,6.204316E-3,4.991014E-2,4.6798583E-2,-1.6758047E-2,-5.3335782E-2,4.2656944E-3,-3.901903E-2,5.2729726E-2,-3.870559E-2,1.9023268E-2,1.9926615E-2,-2.1904623E-2,-1.1576347E-2,3.8701702E-2,4.3300297E-2,-3.4008939E-3,4.4327464E-2,-2.5241656E-2],"categories":[],"categories_nodes":[],"categories_segments":[],"categories_sizes":[],"default_left":[0,0,0,0,0,0,0,0,0,0,0,0,0,0,0,0,0,0,0,0,0,0,0,0,0,0,0,0,0,0,0,0,0,0,0,0,0,0,0,0,0,0,0,0,0,0,0,0,0,0,0],"id":16,"left_children":[1,3,5,7,9,11,13,15,17,-1,19,21,23,25,27,29,31,33,-1,-1,-1,35,37,39,41,43,45,47,49,-1,-1,-1,-1,-1,-1,-1,-1,-1,-1,-1,-1,-1,-1,-1,-1,-1,-1,-1,-1,-1,-1],"loss_changes":[1.362162E1,8.537401E0,7.901851E0,6.912834E0,2.6914215E0,9.450454E0,6.6959457E0,6.5329075E0,3.8678443E0,0E0,2.120224E0,8.29493E0,4.0692387E0,6.3585787E0,6.988805E0,4.992155E0,4.921587E0,4.9514008E-1,0E0,0E0,0E0,1.9017122E0,6.511257E0,6.18992E0,5.7323604E0,6.097919E0,6.5804567E0,4.272295E0,5.4365306E0,0E0,0E0,0E0,0E0,0E0,0E0,0E0,0E0,0E0,0E0,0E0,0E0,0E0,0E0,0E0,0E0,0E0,0E0,0E0,0E0,0E0,0E0],"parents":[2147483647,0,0,1,1,2,2,3,3,4,4,5,5,6,6,7,7,8,8,10,10,11,11,12,12,13,13,14,14,15,15,16,16,17,17,21,21,22,22,23,23,24,24,25,25,26,26,27,27,28,28],"right_children":[2,4,6,8,10,12,14,16,18,-1,20,22,24,26,28,30,32,34,-1,-1,-1,36,38,40,42,44,46,48,50,-1,-1,-1,-1,-1,-1,-1,-1,-1,-1,-1,-1,-1,-1,-1,-1,-1,-1,-1,-1,-1,-1],"split_conditions":[4E0,1E1,5.4285717E-1,8E0,8.06E0,5.777778E-1,3.265306E-1,3.2E-1,7E0,-7.074679E-3,6E0,3.34E0,8.98E0,3.2352942E-1,2.9268292E-1,4.5E0,2.74E-1,1.6216215E-1,-3.4845658E-2,-2.1394378E-2,-1.14905454E-1,3.617021E-1,7E0,6.42E0,3.67E0,3.63E0,2.972973E-1,4E0,3.55E0,-4.157478E-2,1.3722639E-2,2.6707223E-2,-1.9440733E-2,6.204316E-3,4.991014E-2,4.6798583E-2,-1.6758047E-2,-5.3335782E-2,4.2656944E-3,-3.901903E-2,5.2729726E-2,-3.870559E-2,1.9023268E-2,1.9926615E-2,-2.1904623E-2,-1.1576347E-2,3.8701702E-2,4.3300297E-2,-3.4008939E-3,4.4327464E-2,-2.5241656E-2],"split_indices":[2,27,21,24,32,43,16,38,26,0,4,36,10,38,40,14,35,40,0,0,0,38,24,32,31,36,17,25,14,0,0,0,0,0,0,0,0,0,0,0,0,0,0,0,0,0,0,0,0,0,0],"split_type":[0,0,0,0,0,0,0,0,0,0,0,0,0,0,0,0,0,0,0,0,0,0,0,0,0,0,0,0,0,0,0,0,0,0,0,0,0,0,0,0,0,0,0,0,0,0,0,0,0,0,0],"sum_hessian":[2.4063194E2,6.740375E1,1.732282E2,6.2096596E1,5.3071513E0,5.540422E1,1.1782397E2,5.486506E1,7.231536E0,1.3196198E0,3.9875317E0,2.9569143E1,2.5835077E1,6.716094E1,5.066303E1,3.3376617E1,2.1488441E1,6.0478153E0,1.1837207E0,1.3833766E0,2.604155E0,4.2319794E0,2.5337164E1,9.702906E0,1.6132172E1,4.0398895E1,2.6762047E1,3.8628834E1,1.2034195E1,2.9146471E1,4.2301474E0,9.255467E0,1.2232974E1,1.0758278E0,4.9719872E0,3.1840127E0,1.047967E0,1.902529E1,6.311875E0,1.5234529E0,8.179453E0,6.027081E0,1.010509E1,1.138428E1,2.9014614E1,9.536022E0,1.7226025E1,3.3072357E1,5.556476E0,2.899462E0,9.134732E0],"tree_param":{"num_deleted":"0","num_feature":"44","num_nodes":"51","size_leaf_vector":"1"}},{"base_weights":[-8.37271E-3,-1.450006E-1,4.623679E-1,-4.8896945E-1,4.839402E-3,5.505146E-1,-7.124414E-1,4.3955866E-1,-6.9918853E-1,-8.45707E-1,1.04248725E-1,-3.0052087E-1,6.50957E-1,3.205816E-2,-7.337376E-2,-5.189998E-1,5.3198047E-2,-1.0178224E0,-2.1273932E-1,-1.1403595E0,3.560258E-1,-1.6757877E-1,3.173684E-1,4.6574432E-1,-7.117583E-2,-5.5155724E-1,7.3076075E-1,-6.649955E-2,2.6680488E-2,-2.9294942E-2,-7.899801E-2,1.7900093E-2,-4.308783E-2,-6.473758E-2,8.796721E-3,3.8175996E-2,-1.5984034E-2,1.7966403E-2,-2.6885489E-2,3.978318E-2,5.095054E-3,-1.9512098E-2,4.2112805E-2,3.0563593E-2,-6.615465E-2,2.6825106E-2,4.9000345E-2],"categories":[],"categories_nodes":[],"categories_segments":[],"categories_sizes":[],"default_left":[0,0,0,0,0,0,0,0,0,0,0,0,0,0,0,0,0,0,0,0,0,0,0,0,0,0,0,0,0,0,0,0,0,0,0,0,0,0,0,0,0,0,0,0,0,0,0],"id":17,"left_children":[1,3,5,7,9,11,13,15,17,19,21,23,25,-1,-1,27,-1,29,31,33,35,37,39,41,-1,43,45,-1,-1,-1,-1,-1,-1,-1,-1,-1,-1,-1,-1,-1,-1,-1,-1,-1,-1,-1,-1],"loss_changes":[1.5594365E1,9.685481E0,6.0408125E0,1.1436921E1,1.1236943E1,4.581066E0,5.2772236E0,7.219678E0,7.0495434E0,5.3307476E0,6.944092E0,5.912126E0,4.837E0,0E0,0E0,5.0345497E0,0E0,5.8874264E0,7.6493506E0,2.546054E0,1.2079886E0,1.0515624E1,6.8257847E0,1.7401103E0,0E0,3.8997827E0,1.5929241E0,0E0,0E0,0E0,0E0,0E0,0E0,0E0,0E0,0E0,0E0,0E0,0E0,0E0,0E0,0E0,0E0,0E0,0E0,0E0,0E0],"parents":[2147483647,0,0,1,1,2,2,3,3,4,4,5,5,6,6,7,7,8,8,9,9,10,10,11,11,12,12,15,15,17,17,18,18,19,19,20,20,21,21,22,22,23,23,25,25,26,26],"right_children":[2,4,6,8,10,12,14,16,18,20,22,24,26,-1,-1,28,-1,30,32,34,36,38,40,42,-1,44,46,-1,-1,-1,-1,-1,-1,-1,-1,-1,-1,-1,-1,-1,-1,-1,-1,-1,-1,-1,-1],"split_conditions":[7E0,4E0,1.078E1,5.172414E-2,2.0512821E-1,1.64E0,2.99E0,3.48E0,3.255814E-1,3.28E0,5.714286E-1,9.62E0,1.8181819E-1,3.205816E-2,-7.337376E-2,8.81E0,5.3198047E-2,3.84E0,1.19E0,5.294118E-1,1E0,2.1818182E-1,7.692308E-2,8.38E0,-7.117583E-2,2.22E0,6.1538464E-1,-6.649955E-2,2.6680488E-2,-2.9294942E-2,-7.899801E-2,1.7900093E-2,-4.308783E-2,-6.473758E-2,8.796721E-3,3.8175996E-2,-1.5984034E-2,1.7966403E-2,-2.6885489E-2,3.978318E-2,5.095054E-3,-1.9512098E-2,4.2112805E-2,3.0563593E-2,-6.615465E-2,2.6825106E-2,4.9000345E-2],"split_indices":[2,24,10,41,38,11,9,34,38,33,43,32,38,0,0,10,0,34,8,17,42,18,41,32,0,33,43,0,0,0,0,0,0,0,0,0,0,0,0,0,0,0,0,0,0,0,0],"split_type":[0,0,0,0,0,0,0,0,0,0,0,0,0,0,0,0,0,0,0,0,0,0,0,0,0,0,0,0,0,0,0,0,0,0,0,0,0,0,0,0,0,0,0,0,0,0,0],"sum_hessian":[2.4042125E2,1.8687466E2,5.354659E1,5.6017975E1,1.3085669E2,5.0303673E1,3.242916E0,1.0139835E1,4.587814E1,1.2908051E1,1.1794864E2,5.1000066E0,4.5203663E1,1.2151829E0,2.027733E0,4.0662656E0,6.07357E0,2.7060575E1,1.8817564E1,1.0407348E1,2.5007033E0,5.192878E1,6.601986E1,3.3793833E0,1.7206234E0,2.445314E0,4.275835E1,2.1478894E0,1.9183763E0,1.6457542E1,1.0603033E1,1.025116E1,8.566403E0,9.329435E0,1.0779126E0,1.4788841E0,1.0218194E0,2.1438623E1,3.0490158E1,1.9668005E1,4.6351852E1,1.0212164E0,2.358167E0,1.0581826E0,1.3871313E0,2.5801527E1,1.6956825E1],"tree_param":{"num_deleted":"0","num_feature":"44","num_nodes":"47","size_leaf_vector":"1"}},{"base_weights":[-8.217536E-3,-2.5721416E-1,2.0221886E-1,-3.3566758E-1,5.3453386E-1,5.418834E-3,4.843481E-1,-9.3389744E-1,-1.9312395E-1,4.9612887E-2,3.4242686E-2,2.2832301E-1,-6.3990724E-1,-6.9382274E-1,5.965947E-1,2.6935655E-1,-1.2090561E0,-3.600109E-1,2.5715503E-1,-4.081115E-2,5.0086534E-1,1.0620533E-1,5.0994765E-2,-8.7309813E-1,6.064463E-1,-8.1748165E-2,4.8615903E-1,-3.0576232E-1,6.886533E-1,-2.634267E-2,4.010501E-2,-4.8389548E-4,-7.5346224E-2,-6.89457E-3,-4.0456258E-2,-2.460398E-2,3.7118364E-2,4.265943E-2,-1.5379577E-2,-3.9113913E-2,1.1178358E-2,-5.7551693E-2,2.0110628E-2,5.3861137E-3,3.7405103E-2,3.2100137E-2,4.292849E-3,-4.783729E-2,3.6167264E-2,3.811164E-2,-4.341215E-3],"categories":[],"categories_nodes":[],"categories_segments":[],"categories_sizes":[],"default_left":[0,0,0,0,0,0,0,0,0,0,0,0,0,0,0,0,0,0,0,0,0,0,0,0,0,0,0,0,0,0,0,0,0,0,0,0,0,0,0,0,0,0,0,0,0,0,0,0,0,0,0],"id":18,"left_children":[1,3,5,7,9,11,13,15,17,-1,19,21,23,25,27,29,31,33,35,-1,37,39,-1,41,43,-1,45,47,49,-1,-1,-1,-1,-1,-1,-1,-1,-1,-1,-1,-1,-1,-1,-1,-1,-1,-1,-1,-1,-1,-1],"loss_changes":[1.281902E1,7.138986E0,7.3604064E0,8.564948E0,2.367491E0,1.1528764E1,7.6188393E0,6.773094E0,6.410975E0,0E0,2.8082519E0,5.6483097E0,6.5104094E0,6.5711155E0,4.3873024E0,2.3068562E0,5.7127438E0,6.049635E0,8.8429365E0,0E0,1.5510077E0,5.6710963E0,0E0,6.752779E0,1.9023848E-1,0E0,1.3693923E-1,4.274325E0,2.6870632E0,0E0,0E0,0E0,0E0,0E0,0E0,0E0,0E0,0E0,0E0,0E0,0E0,0E0,0E0,0E0,0E0,0E0,0E0,0E0,0E0,0E0,0E0],"parents":[2147483647,0,0,1,1,2,2,3,3,4,4,5,5,6,6,7,7,8,8,10,10,11,11,12,12,13,13,14,14,15,15,16,16,17,17,18,18,20,20,21,21,23,23,24,24,26,26,27,27,28,28],"right_children":[2,4,6,8,10,12,14,16,18,-1,20,22,24,26,28,30,32,34,36,-1,38,40,-1,42,44,-1,46,48,50,-1,-1,-1,-1,-1,-1,-1,-1,-1,-1,-1,-1,-1,-1,-1,-1,-1,-1,-1,-1,-1,-1],"split_conditions":[5E0,6.818182E-1,3.8E0,2.63E-1,2.87E0,4.02E0,3.12E0,4E0,4.7368422E-1,4.9612887E-2,3.64E0,4.56E0,4.28E0,1.25E0,1.06E0,3E0,1.8421052E-1,3.7E0,1.9607843E-1,-4.081115E-2,4.46E0,2.195122E-1,5.0994765E-2,2.972973E-1,3.6E0,-8.1748165E-2,3.2142857E-1,4.42E0,5.35E0,-2.634267E-2,4.010501E-2,-4.8389548E-4,-7.5346224E-2,-6.89457E-3,-4.0456258E-2,-2.460398E-2,3.7118364E-2,4.265943E-2,-1.5379577E-2,-3.9113913E-2,1.1178358E-2,-5.7551693E-2,2.0110628E-2,5.3861137E-3,3.7405103E-2,3.2100137E-2,4.292849E-3,-4.783729E-2,3.6167264E-2,3.811164E-2,-4.341215E-3],"split_indices":[2,21,29,13,11,36,12,26,17,0,34,9,34,30,8,28,18,7,18,0,29,16,0,40,12,0,16,36,29,0,0,0,0,0,0,0,0,0,0,0,0,0,0,0,0,0,0,0,0,0,0],"split_type":[0,0,0,0,0,0,0,0,0,0,0,0,0,0,0,0,0,0,0,0,0,0,0,0,0,0,0,0,0,0,0,0,0,0,0,0,0,0,0,0,0,0,0,0,0,0,0,0,0,0,0],"sum_hessian":[2.426547E2,1.1104253E2,1.3161218E2,1.0155554E2,9.486982E0,7.8130936E1,5.3481243E1,1.8473587E1,8.3081955E1,4.440731E0,5.0462513E0,5.855236E1,1.9578573E1,4.201363E0,4.927988E1,3.442185E0,1.5031403E1,6.0762142E1,2.231981E1,1.5223693E0,3.5238822E0,5.170923E1,6.843132E0,1.6745071E1,2.8335006E0,2.1227207E0,2.0786424E0,4.3472095E0,4.493267E1,1.3843164E0,2.0578685E0,3.195817E0,1.1835586E1,4.152972E1,1.9232424E1,8.767471E0,1.3552339E1,2.4157674E0,1.1081146E0,5.3723693E0,4.633686E1,1.3828744E1,2.9163284E0,1.016209E0,1.8172916E0,1.0615638E0,1.0170786E0,2.70587E0,1.6413393E0,4.1054394E1,3.8782763E0],"tree_param":{"num_deleted":"0","num_feature":"44","num_nodes":"51","size_leaf_vector":"1"}},{"base_weights":[-1.2065765E-2,-2.713878E-1,2.2371711E-1,-4.130396E-1,2.8688E-1,-9.5324986E-2,4.1712153E-1,-5.6691813E-1,2.590993E-1,4.8429647E-1,-9.373579E-1,-6.184459E-1,2.3596416E-1,-9.567478E-1,4.8700762E-1,-2.464131E-1,-9.845042E-1,-5.3055625E-2,4.861743E-1,8.332273E-1,-2.5004503E-1,-7.860943E-2,1.0833136E-2,-1.497812E0,-7.5125E-2,3.2179436E-1,-4.363425E-2,-7.334175E-2,8.906575E-3,5.81559E-1,-3.4731355E-1,-2.5514746E-2,2.1047845E-2,-6.5447755E-2,-1.1045372E-2,-1.9295048E-2,3.9131045E-2,5.0141938E-2,-9.994238E-4,2.1916484E-2,-6.9586925E-2,-9.401102E-3,-1.0810629E-1,-6.537678E-2,2.026168E-2,7.4795447E-3,4.9182203E-2,-8.052808E-3,3.44426E-2,-4.2203184E-2,2.8107388E-2],"categories":[],"categories_nodes":[],"categories_segments":[],"categories_sizes":[],"default_left":[0,0,0,0,0,0,0,0,0,0,0,0,0,0,0,0,0,0,0,0,0,0,0,0,0,0,0,0,0,0,0,0,0,0,0,0,0,0,0,0,0,0,0,0,0,0,0,0,0,0,0],"id":19,"left_children":[1,3,5,7,9,11,13,15,17,19,21,23,25,27,29,31,33,-1,35,37,39,-1,-1,41,43,45,-1,-1,-1,47,49,-1,-1,-1,-1,-1,-1,-1,-1,-1,-1,-1,-1,-1,-1,-1,-1,-1,-1,-1,-1],"loss_changes":[1.4865693E1,9.2729845E0,7.8990955E0,9.739234E0,6.2588816E0,8.618023E0,8.0977E0,9.899776E0,5.9011555E0,5.6770554E0,3.033679E0,9.075674E0,3.1977758E0,2.683863E0,6.221058E0,8.000132E0,7.7807446E0,0E0,4.4417944E0,2.1471834E0,6.617405E0,0E0,0E0,5.9379005E0,8.190085E0,3.1788597E0,0E0,0E0,0E0,5.6013393E0,4.2661724E0,0E0,0E0,0E0,0E0,0E0,0E0,0E0,0E0,0E0,0E0,0E0,0E0,0E0,0E0,0E0,0E0,0E0,0E0,0E0,0E0],"parents":[2147483647,0,0,1,1,2,2,3,3,4,4,5,5,6,6,7,7,8,8,9,9,10,10,11,11,12,12,13,13,14,14,15,15,16,16,18,18,19,19,20,20,23,23,24,24,25,25,29,29,30,30],"right_children":[2,4,6,8,10,12,14,16,18,20,22,24,26,28,30,32,34,-1,36,38,40,-1,-1,42,44,46,-1,-1,-1,48,50,-1,-1,-1,-1,-1,-1,-1,-1,-1,-1,-1,-1,-1,-1,-1,-1,-1,-1,-1,-1],"split_conditions":[5E0,7E0,2.8301886E-1,3.0555555E-1,1E1,3E0,2E0,3.66E0,3.22E0,2.86E-1,3.29E0,5E0,4.92E0,3.74E0,1.077E1,3.39E0,1.28E0,-5.3055625E-2,2.5714287E-1,2.972973E-1,4.11E0,-7.860943E-2,1.0833136E-2,3.3333334E-1,2E-1,1.28E0,-4.363425E-2,-7.334175E-2,8.906575E-3,1.07E0,3.88E0,-2.5514746E-2,2.1047845E-2,-6.5447755E-2,-1.1045372E-2,-1.9295048E-2,3.9131045E-2,5.0141938E-2,-9.994238E-4,2.1916484E-2,-6.9586925E-2,-9.401102E-3,-1.0810629E-1,-6.537678E-2,2.026168E-2,7.4795447E-3,4.9182203E-2,-8.052808E-3,3.44426E-2,-4.2203184E-2,2.8107388E-2],"split_indices":[2,24,38,40,27,6,24,7,14,35,7,4,29,31,10,7,8,0,39,40,14,0,0,15,15,30,0,0,0,8,31,0,0,0,0,0,0,0,0,0,0,0,0,0,0,0,0,0,0,0,0],"split_type":[0,0,0,0,0,0,0,0,0,0,0,0,0,0,0,0,0,0,0,0,0,0,0,0,0,0,0,0,0,0,0,0,0,0,0,0,0,0,0,0,0,0,0,0,0,0,0,0,0,0,0],"sum_hessian":[2.4113419E2,1.1476296E2,1.2637122E2,9.174439E1,2.3018578E1,4.7885647E1,7.848557E1,7.478074E1,1.696365E1,2.0342607E1,2.67597E0,1.8231104E1,2.9654543E1,3.1848798E0,7.53007E1,4.3207935E1,3.1572802E1,1.9505E0,1.501315E1,1.3698803E1,6.6438036E0,1.4925537E0,1.1834164E0,6.291509E0,1.1939594E1,2.8182436E1,1.472106E0,1.9954807E0,1.1893992E0,6.790784E1,7.3928595E0,3.1133099E1,1.2074838E1,2.165671E1,9.916093E0,3.7321882E0,1.1280962E1,1.1280901E1,2.4179027E0,4.529094E0,2.1147096E0,2.5489402E0,3.742569E0,2.865599E0,9.073996E0,2.3336615E1,4.845821E0,8.50947E0,5.9398365E1,4.827807E0,2.5650523E0],"tree_param":{"num_deleted":"0","num_feature":"44","num_nodes":"51","size_leaf_vector":"1"}},{"base_weights":[1.9121912E-3,-1.9383503E-1,2.5779453E-1,-7.478998E-1,-8.8197686E-2,-1.5216453E-1,4.240044E-1,2.8728172E-2,-9.0543187E-1,1.1638244E-2,-7.236573E-1,-1.0636845E0,1.5405189E-1,8.423374E-2,6.4876986E-1,-3.2434174E-1,-1.3510476E0,-1.1018022E0,8.2309306E-2,-1.0637819E0,3.2729954E-1,-1.4930038E0,1.9200353E-2,5.0801873E-2,-1.04260616E-1,-7.449846E-1,2.9608524E-1,8.81531E-1,1.7076847E-1,1.6512446E-2,-4.367442E-2,-9.267017E-2,-2.2027472E-2,-2.6454404E-3,-8.190744E-2,-2.9911278E-2,8.436955E-3,-6.641955E-2,2.1002606E-2,4.122412E-2,-2.283329E-2,-8.778484E-2,-9.355762E-3,-4.126317E-2,1.3223797E-2,1.865276E-2,-8.266223E-2,2.2631897E-2,-2.394588E-2,-7.923468E-3,4.827748E-2,3.4577306E-2,-2.045068E-2],"categories":[],"categories_nodes":[],"categories_segments":[],"categories_sizes":[],"default_left":[0,0,0,0,0,0,0,0,0,0,0,0,0,0,0,0,0,0,0,0,0,0,0,0,0,0,0,0,0,0,0,0,0,0,0,0,0,0,0,0,0,0,0,0,0,0,0,0,0,0,0,0,0],"id":20,"left_children":[1,3,5,7,9,11,13,-1,15,17,19,21,23,25,27,29,31,33,35,37,39,41,-1,-1,43,45,47,49,51,-1,-1,-1,-1,-1,-1,-1,-1,-1,-1,-1,-1,-1,-1,-1,-1,-1,-1,-1,-1,-1,-1,-1,-1],"loss_changes":[1.2260986E1,8.051924E0,7.2936625E0,5.1192446E0,7.4704814E0,8.911891E0,5.7304745E0,0E0,4.770191E0,8.166815E0,6.06246E0,5.550272E0,5.5240736E0,5.720747E0,4.905464E0,3.8996336E0,4.2459946E0,3.3984742E0,5.8321996E0,5.392372E0,2.1980615E0,1.8603697E0,0E0,0E0,5.4370317E0,7.375412E0,3.3293161E0,2.8024426E0,5.1506863E0,0E0,0E0,0E0,0E0,0E0,0E0,0E0,0E0,0E0,0E0,0E0,0E0,0E0,0E0,0E0,0E0,0E0,0E0,0E0,0E0,0E0,0E0,0E0,0E0],"parents":[2147483647,0,0,1,1,2,2,3,3,4,4,5,5,6,6,8,8,9,9,10,10,11,11,12,12,13,13,14,14,15,15,16,16,17,17,18,18,19,19,20,20,21,21,24,24,25,25,26,26,27,27,28,28],"right_children":[2,4,6,8,10,12,14,-1,16,18,20,22,24,26,28,30,32,34,36,38,40,42,-1,-1,44,46,48,50,52,-1,-1,-1,-1,-1,-1,-1,-1,-1,-1,-1,-1,-1,-1,-1,-1,-1,-1,-1,-1,-1,-1,-1,-1],"split_conditions":[3.2352942E-1,2.4324325E-1,5.411765E-1,2.55E-1,1.2244898E-1,2.5714287E-1,5E0,2.8728172E-2,1.16E0,1.5789473E-1,1.27E0,6.2E-1,3.0232558E-1,7.5E-2,2.682927E-1,2.3913044E-1,5.833333E-1,9.615385E-2,1.64E0,3.0769232E-1,6E0,3.7777779E-1,1.9200353E-2,5.0801873E-2,8.82353E-2,3.5555556E-1,4.56E0,3.265306E-1,2.1052632E-1,1.6512446E-2,-4.367442E-2,-9.267017E-2,-2.2027472E-2,-2.6454404E-3,-8.190744E-2,-2.9911278E-2,8.436955E-3,-6.641955E-2,2.1002606E-2,4.122412E-2,-2.283329E-2,-8.778484E-2,-9.355762E-3,-4.126317E-2,1.3223797E-2,1.865276E-2,-8.266223E-2,2.2631897E-2,-2.394588E-2,-7.923468E-3,4.827748E-2,3.4577306E-2,-2.045068E-2],"split_indices":[16,39,21,13,19,38,2,0,8,16,30,43,38,19,40,18,43,41,33,40,26,40,0,0,41,16,9,16,18,0,0,0,0,0,0,0,0,0,0,0,0,0,0,0,0,0,0,0,0,0,0,0,0],"split_type":[0,0,0,0,0,0,0,0,0,0,0,0,0,0,0,0,0,0,0,0,0,0,0,0,0,0,0,0,0,0,0,0,0,0,0,0,0,0,0,0,0,0,0,0,0,0,0,0,0,0,0,0,0],"sum_hessian":[2.4279002E2,1.3769632E2,1.05093704E2,2.1075588E1,1.1662073E2,3.0341196E1,7.475251E1,1.9615265E0,1.9114063E1,1.0163476E2,1.49859705E1,7.007678E0,2.3333519E1,3.0309454E1,4.4443054E1,9.045907E0,1.0068156E1,5.195039E0,9.643972E1,1.1312626E1,3.6733444E0,5.380706E0,1.6269721E0,4.703761E0,1.8629757E1,5.6556916E0,2.4653763E1,2.932106E1,1.5121991E1,4.308604E0,4.737303E0,5.820936E0,4.2472196E0,2.1293921E0,3.065647E0,1.0200559E1,8.623916E1,9.689479E0,1.6231474E0,2.216182E0,1.4571624E0,4.192829E0,1.1878765E0,5.884844E0,1.2744913E1,2.7992122E0,2.8564794E0,2.085662E1,3.7971418E0,2.1254637E0,2.7195597E1,7.8648124E0,7.2571793E0],"tree_param":{"num_deleted":"0","num_feature":"44","num_nodes":"53","size_leaf_vector":"1"}},{"base_weights":[-3.916629E-2,-1.6262612E-1,3.866189E-1,-4.7432E-1,-2.3808375E-3,4.646567E-1,-5.8521396E-1,-6.05068E-1,8.326483E-1,-1.7011507E-1,3.4396523E-1,-7.7228816E-3,5.900134E-1,-7.075386E-2,2.0652182E-2,-9.662019E-1,-1.523795E-1,4.805578E-2,4.7963113E-3,5.174145E-1,-2.9863617E-1,-4.8815414E-2,4.275175E-1,3.078434E-1,-6.705757E-2,1.7545193E-1,8.496315E-1,-6.1350513E-2,-8.353083E-3,7.732878E-3,-5.3708818E-2,6.282888E-3,5.2228447E-2,-1.0254965E-2,-5.729863E-2,-1.9565122E-2,3.0052317E-2,-1.9087309E-2,3.6046952E-2,-3.0567145E-2,3.1603806E-2,4.60258E-2,-1.7416738E-2],"categories":[],"categories_nodes":[],"categories_segments":[],"categories_sizes":[],"default_left":[0,0,0,0,0,0,0,0,0,0,0,0,0,0,0,0,0,0,0,0,0,0,0,0,0,0,0,0,0,0,0,0,0,0,0,0,0,0,0,0,0,0,0],"id":21,"left_children":[1,3,5,7,9,11,13,15,17,19,21,23,25,-1,-1,27,29,-1,-1,31,33,-1,35,37,-1,39,41,-1,-1,-1,-1,-1,-1,-1,-1,-1,-1,-1,-1,-1,-1,-1,-1],"loss_changes":[1.2747441E1,9.377266E0,4.407917E0,1.1397631E1,7.3211594E0,3.0269203E0,4.309295E0,9.421583E0,4.9633884E-1,7.6559544E0,4.953513E0,5.3322954E0,4.1935606E0,0E0,0E0,6.541849E0,7.853292E0,0E0,0E0,2.7054682E0,5.48402E0,0E0,5.8290772E0,3.199964E0,0E0,6.4214234E0,2.4054184E0,0E0,0E0,0E0,0E0,0E0,0E0,0E0,0E0,0E0,0E0,0E0,0E0,0E0,0E0,0E0,0E0],"parents":[2147483647,0,0,1,1,2,2,3,3,4,4,5,5,6,6,7,7,8,8,9,9,10,10,11,11,12,12,15,15,16,16,19,19,20,20,22,22,23,23,25,25,26,26],"right_children":[2,4,6,8,10,12,14,16,18,20,22,24,26,-1,-1,28,30,-1,-1,32,34,-1,36,38,-1,40,42,-1,-1,-1,-1,-1,-1,-1,-1,-1,-1,-1,-1,-1,-1,-1,-1],"split_conditions":[7E0,5.411765E-1,1.086E1,5E0,4.7368422E-1,1.88E0,3.67E0,5.897436E-1,6.2222224E-1,3.33E0,1.4285715E-1,8.5714287E-1,3.7142858E-1,-7.075386E-2,2.0652182E-2,6E0,5.106383E-1,4.805578E-2,4.7963113E-3,2.81E-1,1E1,-4.8815414E-2,1E0,3.63E0,-6.705757E-2,7.98E0,4.86E0,-6.1350513E-2,-8.353083E-3,7.732878E-3,-5.3708818E-2,6.282888E-3,5.2228447E-2,-1.0254965E-2,-5.729863E-2,-1.9565122E-2,3.0052317E-2,-1.9087309E-2,3.6046952E-2,-3.0567145E-2,3.1603806E-2,4.60258E-2,-1.7416738E-2],"split_indices":[2,21,10,28,39,11,31,43,43,12,17,15,17,0,0,24,39,0,0,35,27,0,28,34,0,32,12,0,0,0,0,0,0,0,0,0,0,0,0,0,0,0,0],"split_type":[0,0,0,0,0,0,0,0,0,0,0,0,0,0,0,0,0,0,0,0,0,0,0,0,0,0,0,0,0,0,0,0,0,0,0,0,0,0,0,0,0,0,0],"sum_hessian":[2.4030118E2,1.8676518E2,5.3536E1,6.2749958E1,1.2401521E2,5.0039707E1,3.4962935E0,5.753159E1,5.2183695E0,8.389431E1,4.0120903E1,1.0691079E1,3.934863E1,1.6811702E0,1.8151233E0,3.1370945E1,2.6160643E1,4.1841645E0,1.0342052E0,1.2736091E1,7.115822E1,1.7519534E0,3.836895E1,9.267085E0,1.4239941E0,1.57979965E1,2.355063E1,2.3248217E1,8.122728E0,2.0248413E1,5.912229E0,8.016769E0,4.7193213E0,6.520261E1,5.955617E0,6.4900002E0,3.187895E1,3.5001304E0,5.7669544E0,5.6771116E0,1.0120885E1,2.2453636E1,1.0969957E0],"tree_param":{"num_deleted":"0","num_feature":"44","num_nodes":"43","size_leaf_vector":"1"}},{"base_weights":[-4.1799564E-2,-2.4452333E-1,2.3915619E-1,-3.5834688E-1,2.1529052E-1,1.6183207E-2,6.4246607E-1,-4.0749502E-1,6.3257533E-1,7.3087204E-1,-2.5515795E-1,-1.9948614E-1,6.1569613E-1,8.1198764E-1,1.5294807E-2,-4.4109708E-1,4.181246E-2,-2.0640965E-3,4.4987928E-2,-2.961926E-2,9.1611487E-1,-5.582018E-1,4.261159E-2,-6.7074335E-1,1.4374882E-1,-1.720227E-1,9.3135625E-1,4.76727E-2,9.190318E-1,-6.869797E-1,5.733229E-1,-5.7017524E-2,-1.7554022E-2,6.816403E-3,4.88404E-2,-8.0164514E-2,-7.4855387E-3,1.489044E-3,-7.5273655E-2,1.6593715E-2,-3.224505E-2,-5.853496E-2,3.179988E-2,-1.6324332E-2,5.3766795E-2,3.850715E-2,-3.9431278E-2,1.179154E-2,5.0919123E-2,-8.96164E-2,1.0665479E-2,-1.8447354E-2,4.3830454E-2],"categories":[],"categories_nodes":[],"categories_segments":[],"categories_sizes":[],"default_left":[0,0,0,0,0,0,0,0,0,0,0,0,0,0,0,0,0,0,0,0,0,0,0,0,0,0,0,0,0,0,0,0,0,0,0,0,0,0,0,0,0,0,0,0,0,0,0,0,0,0,0,0,0],"id":22,"left_children":[1,3,5,7,9,11,13,15,17,19,21,23,25,27,29,31,-1,-1,-1,-1,33,35,-1,37,39,41,43,45,47,49,51,-1,-1,-1,-1,-1,-1,-1,-1,-1,-1,-1,-1,-1,-1,-1,-1,-1,-1,-1,-1,-1,-1],"loss_changes":[1.3762599E1,7.4178343E0,9.103798E0,5.7514267E0,7.088364E0,8.694297E0,3.8211985E0,4.8857536E0,1.0673852E0,3.9339876E0,5.717572E0,8.104679E0,4.582134E0,2.2769718E0,3.8000064E0,6.2648754E0,0E0,0E0,0E0,0E0,4.597931E-1,5.253476E0,0E0,1.2348107E1,4.586233E0,5.5311666E0,2.678607E0,3.350067E0,1.4449787E0,4.6646957E0,1.8632742E0,0E0,0E0,0E0,0E0,0E0,0E0,0E0,0E0,0E0,0E0,0E0,0E0,0E0,0E0,0E0,0E0,0E0,0E0,0E0,0E0,0E0,0E0],"parents":[2147483647,0,0,1,1,2,2,3,3,4,4,5,5,6,6,7,7,8,8,9,9,10,10,11,11,12,12,13,13,14,14,15,15,20,20,21,21,23,23,24,24,25,25,26,26,27,27,28,28,29,29,30,30],"right_children":[2,4,6,8,10,12,14,16,18,20,22,24,26,28,30,32,-1,-1,-1,-1,34,36,-1,38,40,42,44,46,48,50,52,-1,-1,-1,-1,-1,-1,-1,-1,-1,-1,-1,-1,-1,-1,-1,-1,-1,-1,-1,-1,-1,-1],"split_conditions":[4.3243244E-1,7E0,6.1538464E-1,7.2727275E-1,2.3913044E-1,1.2727273E-1,2.81E-1,3.21E-1,2.2E0,1.33E0,4.61E0,5E0,3.5E0,1E0,2E0,3.16E0,4.181246E-2,-2.0640965E-3,4.4987928E-2,-2.961926E-2,3E0,7.76E0,4.261159E-2,7E0,3.28E0,2.88E-1,2.34E0,8.928572E-2,3E0,2.83E-1,3.38E0,-5.7017524E-2,-1.7554022E-2,6.816403E-3,4.88404E-2,-8.0164514E-2,-7.4855387E-3,1.489044E-3,-7.5273655E-2,1.6593715E-2,-3.224505E-2,-5.853496E-2,3.179988E-2,-1.6324332E-2,5.3766795E-2,3.850715E-2,-3.9431278E-2,1.179154E-2,5.0919123E-2,-8.96164E-2,1.0665479E-2,-1.8447354E-2,4.3830454E-2],"split_indices":[39,24,21,21,40,41,13,35,33,33,36,24,34,25,28,34,0,0,0,0,29,10,0,4,33,35,7,41,26,13,36,0,0,0,0,0,0,0,0,0,0,0,0,0,0,0,0,0,0,0,0,0,0],"split_type":[0,0,0,0,0,0,0,0,0,0,0,0,0,0,0,0,0,0,0,0,0,0,0,0,0,0,0,0,0,0,0,0,0,0,0,0,0,0,0,0,0,0,0,0,0,0,0,0,0,0,0,0,0],"sum_hessian":[2.3960716E2,1.3925635E2,1.00350815E2,1.118014E2,2.745495E1,6.529313E1,3.5057682E1,1.0707921E2,4.722184E0,1.2835021E1,1.4619928E1,4.8509525E1,1.6783607E1,2.7366076E1,7.6916084E0,1.0489074E2,2.1884696E0,1.5807924E0,3.1413918E0,1.3062334E0,1.1528788E1,1.1868086E1,2.7518427E0,2.0040287E1,2.8469238E1,4.9317164E0,1.1851891E1,3.5394075E0,2.3826668E1,3.3033192E0,4.3882895E0,1.0632074E1,9.425867E1,1.0669379E0,1.0461849E1,2.5132487E0,9.354837E0,1.1420372E1,8.619914E0,2.3453741E1,5.0154977E0,2.004901E0,2.9268157E0,1.0871015E0,1.076479E1,1.9413759E0,1.5980315E0,3.4532862E0,2.037338E1,1.0380261E0,2.2652931E0,1.0158087E0,3.3724806E0],"tree_param":{"num_deleted":"0","num_feature":"44","num_nodes":"53","size_leaf_vector":"1"}},{"base_weights":[1.9403351E-2,-1.8880393E-1,3.0053198E-1,-2.7936104E-1,5.0765616E-1,-2.5223106E-1,4.142626E-1,-3.747216E-1,4.7401604E-1,-1.161976E-1,9.4259435E-1,3.6956754E-1,-7.4096817E-1,1.2627463E-1,6.294369E-1,-4.64927E-1,4.8543796E-1,-5.436003E-1,8.06248E-1,-9.186167E-1,5.367456E-1,6.845376E-3,5.1087063E-2,-2.6979154E-2,7.13894E-1,3.7148777E-2,-1.0555458E0,-1.2593092E-1,7.335755E-1,-1.0354348E-1,7.343212E-1,-1.6069664E-2,-4.5847174E-2,-7.40978E-3,4.4234186E-2,1.7131343E-2,-6.453827E-2,7.4585252E-3,5.1476758E-2,2.5449472E-3,-8.656426E-2,-1.2038522E-2,4.2625513E-2,4.916005E-2,-1.8458467E-2,-8.168098E-2,1.4725699E-2,4.7094937E-2,-1.42840715E-2,4.8495844E-2,-4.203218E-2,-4.666308E-2,3.2470617E-2,4.010441E-2,-8.50256E-3],"categories":[],"categories_nodes":[],"categories_segments":[],"categories_sizes":[],"default_left":[0,0,0,0,0,0,0,0,0,0,0,0,0,0,0,0,0,0,0,0,0,0,0,0,0,0,0,0,0,0,0,0,0,0,0,0,0,0,0,0,0,0,0,0,0,0,0,0,0,0,0,0,0,0,0],"id":23,"left_children":[1,3,5,7,9,11,13,15,17,19,21,23,25,27,29,31,33,35,37,39,41,-1,-1,-1,43,-1,45,47,49,51,53,-1,-1,-1,-1,-1,-1,-1,-1,-1,-1,-1,-1,-1,-1,-1,-1,-1,-1,-1,-1,-1,-1,-1,-1],"loss_changes":[1.4210498E1,8.942234E0,6.5968323E0,9.09507E0,4.562295E0,5.8181214E0,5.251504E0,8.81792E0,5.3025255E0,4.4914384E0,4.836979E-1,3.1075187E0,5.7081027E0,5.9188504E0,3.842142E0,6.2410946E0,2.9138422E0,3.1825633E0,1.4968724E0,3.0763113E0,1.3932476E0,0E0,0E0,0E0,2.3282502E0,0E0,7.595541E0,4.999746E0,5.0228233E0,4.984735E0,2.7704487E0,0E0,0E0,0E0,0E0,0E0,0E0,0E0,0E0,0E0,0E0,0E0,0E0,0E0,0E0,0E0,0E0,0E0,0E0,0E0,0E0,0E0,0E0,0E0,0E0],"parents":[2147483647,0,0,1,1,2,2,3,3,4,4,5,5,6,6,7,7,8,8,9,9,10,10,11,11,12,12,13,13,14,14,15,15,16,16,17,17,18,18,19,19,20,20,24,24,26,26,27,27,28,28,29,29,30,30],"right_children":[2,4,6,8,10,12,14,16,18,20,22,24,26,28,30,32,34,36,38,40,42,-1,-1,-1,44,-1,46,48,50,52,54,-1,-1,-1,-1,-1,-1,-1,-1,-1,-1,-1,-1,-1,-1,-1,-1,-1,-1,-1,-1,-1,-1,-1,-1],"split_conditions":[3.2352942E-1,8E0,3.3E0,8E0,1.19E0,2.1428572E-1,5E0,6.818182E-1,7.89E0,5.6603774E-2,2.4324325E-1,3.29E0,3.22E0,3.488372E-1,1.86E0,1.0714286E-1,6.896552E-2,2.76E-1,1E0,5.1282054E-1,3.3333334E-1,6.845376E-3,5.1087063E-2,-2.6979154E-2,8E0,3.7148777E-2,1.26E0,3.13E0,1.8867925E-1,2.5641027E-1,2.9787233E-1,-1.6069664E-2,-4.5847174E-2,-7.40978E-3,4.4234186E-2,1.7131343E-2,-6.453827E-2,7.4585252E-3,5.1476758E-2,2.5449472E-3,-8.656426E-2,-1.2038522E-2,4.2625513E-2,4.916005E-2,-1.8458467E-2,-8.168098E-2,1.4725699E-2,4.7094937E-2,-1.42840715E-2,4.8495844E-2,-4.203218E-2,-4.666308E-2,3.2470617E-2,4.010441E-2,-8.50256E-3],"split_indices":[16,2,12,24,30,18,2,21,10,19,38,31,36,38,11,19,19,35,6,39,37,0,0,0,2,0,30,31,41,38,18,0,0,0,0,0,0,0,0,0,0,0,0,0,0,0,0,0,0,0,0,0,0,0,0],"split_type":[0,0,0,0,0,0,0,0,0,0,0,0,0,0,0,0,0,0,0,0,0,0,0,0,0,0,0,0,0,0,0,0,0,0,0,0,0,0,0,0,0,0,0,0,0,0,0,0,0,0,0,0,0,0,0],"sum_hessian":[2.4080803E2,1.3853542E2,1.02272606E2,1.23125E2,1.5410422E1,1.7244013E1,8.5028595E1,1.09737335E2,1.3387663E1,6.6314464E0,8.7789755E0,7.696249E0,9.547765E0,3.704057E1,4.7988026E1,9.973731E1,1.0000019E1,3.1384575E0,1.0249205E1,2.792627E0,3.8388193E0,1.0294402E0,7.7495356E0,1.9583648E0,5.737884E0,1.4317956E0,8.11597E0,2.6731783E1,1.03087845E1,6.008765E0,4.197926E1,7.6998245E1,2.2739069E1,4.1084332E0,5.8915863E0,1.6832969E0,1.4551606E0,3.0225809E0,7.2266245E0,1.700862E0,1.0917652E0,1.177335E0,2.6614842E0,4.669101E0,1.0687826E0,5.5356555E0,2.580314E0,2.8415804E0,2.3890203E1,9.296893E0,1.0118914E0,2.7447405E0,3.2640247E0,3.915814E1,2.821123E0],"tree_param":{"num_deleted":"0","num_feature":"44","num_nodes":"55","size_leaf_vector":"1"}},{"base_weights":[3.322839E-2,-3.2896549E-1,1.4128213E-1,-1.1040192E0,-1.377613E-1,5.302803E-1,3.958593E-2,-1.3775667E0,9.872133E-3,-6.070661E-1,1.0892696E-1,2.1581805E-1,6.883492E-1,-9.850668E-1,7.887719E-2,-9.359721E-3,-1.5249951E0,-9.9723434E-1,3.2736886E-1,4.472789E-1,-6.7707044E-1,-2.4933212E-1,8.4323764E-1,8.5851014E-1,3.5462834E-2,-1.5010718E0,1.4714802E-2,-1.7365633E-3,6.555783E-1,-9.13002E-2,-2.5657369E-2,-6.349075E-2,3.3913985E-2,-3.9869342E-2,4.6573427E-2,-3.8011514E-3,3.989012E-2,-7.158645E-2,2.160687E-3,2.630434E-2,-4.516843E-2,4.8692632E-2,4.6830466E-3,4.426623E-3,4.8946857E-2,-2.993159E-2,4.0256824E-2,-1.5005951E-2,-9.291091E-2,4.570413E-3,-3.0708043E-2,-8.2950005E-3,4.623943E-2],"categories":[],"categories_nodes":[],"categories_segments":[],"categories_sizes":[],"default_left":[0,0,0,0,0,0,0,0,0,0,0,0,0,0,0,0,0,0,0,0,0,0,0,0,0,0,0,0,0,0,0,0,0,0,0,0,0,0,0,0,0,0,0,0,0,0,0,0,0,0,0,0,0],"id":24,"left_children":[1,3,5,7,9,11,13,15,-1,17,19,21,23,25,27,-1,29,31,33,35,37,39,41,43,45,47,-1,49,51,-1,-1,-1,-1,-1,-1,-1,-1,-1,-1,-1,-1,-1,-1,-1,-1,-1,-1,-1,-1,-1,-1,-1,-1],"loss_changes":[9.445943E0,8.070762E0,7.3246255E0,4.1301994E0,5.3511114E0,1.7602978E0,6.047527E0,1.3080997E0,0E0,6.116238E0,8.485817E0,4.38447E0,2.7579994E0,4.105748E0,6.6832495E0,0E0,1.4812679E0,6.0905924E0,4.4325695E0,4.116692E0,5.3112984E0,5.032211E0,5.273113E-1,1.7555399E0,3.5236187E0,1.2089863E0,0E0,7.306564E0,4.0523214E0,0E0,0E0,0E0,0E0,0E0,0E0,0E0,0E0,0E0,0E0,0E0,0E0,0E0,0E0,0E0,0E0,0E0,0E0,0E0,0E0,0E0,0E0,0E0,0E0],"parents":[2147483647,0,0,1,1,2,2,3,3,4,4,5,5,6,6,7,7,9,9,10,10,11,11,12,12,13,13,14,14,16,16,17,17,18,18,19,19,20,20,21,21,22,22,23,23,24,24,25,25,27,27,28,28],"right_children":[2,4,6,8,10,12,14,16,-1,18,20,22,24,26,28,-1,30,32,34,36,38,40,42,44,46,48,-1,50,52,-1,-1,-1,-1,-1,-1,-1,-1,-1,-1,-1,-1,-1,-1,-1,-1,-1,-1,-1,-1,-1,-1,-1,-1],"split_conditions":[2.820513E-1,2.195122E-1,7.49E0,3E0,5.3846157E-1,4E-1,7.75E0,4.6341464E-1,9.872133E-3,5.9574467E-1,4.19E0,6E0,7.25E0,2.8E0,4.64E0,-9.359721E-3,5.9574467E-1,8E0,2.11E0,5E0,1.23E0,2.41E0,3.488372E-1,1.78E0,1E0,2.244898E-1,1.4714802E-2,4.42E0,3.75E-1,-9.13002E-2,-2.5657369E-2,-6.349075E-2,3.3913985E-2,-3.9869342E-2,4.6573427E-2,-3.8011514E-3,3.989012E-2,-7.158645E-2,2.160687E-3,2.630434E-2,-4.516843E-2,4.8692632E-2,4.6830466E-3,4.426623E-3,4.8946857E-2,-2.993159E-2,4.0256824E-2,-1.5005951E-2,-9.291091E-2,4.570413E-3,-3.0708043E-2,-8.2950005E-3,4.623943E-2],"split_indices":[39,16,32,3,21,39,32,43,0,43,34,4,32,11,14,0,43,2,33,4,30,33,16,33,20,18,0,14,39,0,0,0,0,0,0,0,0,0,0,0,0,0,0,0,0,0,0,0,0,0,0,0,0],"split_type":[0,0,0,0,0,0,0,0,0,0,0,0,0,0,0,0,0,0,0,0,0,0,0,0,0,0,0,0,0,0,0,0,0,0,0,0,0,0,0,0,0,0,0,0,0,0,0,0,0,0,0,0,0],"sum_hessian":[2.391719E2,5.4487263E1,1.8468463E2,9.837311E0,4.4649952E1,3.7402386E1,1.4728224E2,8.080447E0,1.7568638E0,1.488037E1,2.9769583E1,1.3302913E1,2.4099474E1,4.5501733E0,1.4273207E2,1.140611E0,6.939836E0,1.0449875E1,4.4304943E0,2.111224E1,8.657343E0,7.9853897E0,5.317523E0,1.8867195E1,5.232279E0,3.1189227E0,1.4312505E0,1.2610199E2,1.6630085E1,4.728545E0,2.2112906E0,9.195966E0,1.2539096E0,1.4363105E0,2.9941838E0,8.783032E0,1.2329208E1,3.745435E0,4.9119077E0,3.743164E0,4.242226E0,4.273632E0,1.043891E0,2.786462E0,1.6080734E1,2.9906569E0,2.241622E0,1.1367553E0,1.9821672E0,1.1019323E2,1.5908762E1,4.199456E0,1.243063E1],"tree_param":{"num_deleted":"0","num_feature":"44","num_nodes":"53","size_leaf_vector":"1"}},{"base_weights":[-1.6375957E-2,-1.6464439E-1,2.3527838E-1,-3.5913205E-1,1.7144087E-1,7.3711336E-1,5.4048598E-2,-9.3871427E-1,-2.1919695E-1,2.5667092E-1,-1.3722601E0,8.973186E-1,1.4162985E-2,8.2157093E-1,-7.092053E-2,-1.3392184E0,9.028899E-2,-8.7753266E-2,-9.841364E-1,1.2469858E-1,8.5803556E-1,-1.4064741E-2,-9.078528E-2,-1.83221E-1,1.0349431E0,-8.177544E-1,4.0278997E-2,-1.9106906E-2,5.0749242E-2,5.6890875E-1,-3.0619067E-1,-7.4652135E-2,1.1451516E-2,-6.360527E-2,3.0952072E-2,2.4139064E-3,-3.0656442E-2,-6.6021815E-2,2.4968604E-2,3.6583032E-2,-2.9290717E-3,-4.4128206E-3,5.1966865E-2,-4.229131E-2,2.8826488E-2,7.7221403E-3,5.4311037E-2,-6.822363E-2,5.0840895E-3,-3.844578E-2,4.3845218E-2,5.1885596E-3,-3.741092E-2],"categories":[],"categories_nodes":[],"categories_segments":[],"categories_sizes":[],"default_left":[0,0,0,0,0,0,0,0,0,0,0,0,0,0,0,0,0,0,0,0,0,0,0,0,0,0,0,0,0,0,0,0,0,0,0,0,0,0,0,0,0,0,0,0,0,0,0,0,0,0,0,0,0],"id":25,"left_children":[1,3,5,7,9,11,13,15,17,19,21,23,25,27,29,31,33,35,37,39,41,-1,-1,43,45,47,-1,-1,-1,49,51,-1,-1,-1,-1,-1,-1,-1,-1,-1,-1,-1,-1,-1,-1,-1,-1,-1,-1,-1,-1,-1,-1],"loss_changes":[9.050072E0,1.0033602E1,8.140877E0,7.6581383E0,7.7990265E0,2.7422266E0,6.5003757E0,7.766878E0,7.8978376E0,4.2167826E0,9.981818E-1,3.0828075E0,4.168587E0,2.595851E0,9.007418E0,3.5788403E0,5.2067733E0,4.9509826E0,6.419896E0,5.1429896E0,1.7446427E0,0E0,0E0,2.0218518E0,6.182003E-1,1.6946106E0,0E0,0E0,0E0,7.3188553E0,7.9702296E0,0E0,0E0,0E0,0E0,0E0,0E0,0E0,0E0,0E0,0E0,0E0,0E0,0E0,0E0,0E0,0E0,0E0,0E0,0E0,0E0,0E0,0E0],"parents":[2147483647,0,0,1,1,2,2,3,3,4,4,5,5,6,6,7,7,8,8,9,9,10,10,11,11,12,12,13,13,14,14,15,15,16,16,17,17,18,18,19,19,20,20,23,23,24,24,25,25,29,29,30,30],"right_children":[2,4,6,8,10,12,14,16,18,20,22,24,26,28,30,32,34,36,38,40,42,-1,-1,44,46,48,-1,-1,-1,50,52,-1,-1,-1,-1,-1,-1,-1,-1,-1,-1,-1,-1,-1,-1,-1,-1,-1,-1,-1,-1,-1,-1],"split_conditions":[3.265306E-1,3E0,7.96E0,4.857143E-1,1.43E0,1E0,7.19E0,4.2857143E-1,3.125E-1,1.3E0,2E0,1.7E0,2.63E-1,6.557377E-2,8.571429E-2,7E0,3.15E0,4.08E0,9.73E0,3E0,3E0,-1.4064741E-2,-9.078528E-2,3.0232558E-1,3.1578946E-1,1.0714286E-1,4.0278997E-2,-1.9106906E-2,5.0749242E-2,1.07E0,8E-1,-7.4652135E-2,1.1451516E-2,-6.360527E-2,3.0952072E-2,2.4139064E-3,-3.0656442E-2,-6.6021815E-2,2.4968604E-2,3.6583032E-2,-2.9290717E-3,-4.4128206E-3,5.1966865E-2,-4.229131E-2,2.8826488E-2,7.7221403E-3,5.4311037E-2,-6.822363E-2,5.0840895E-3,-3.844578E-2,4.3845218E-2,5.1885596E-3,-3.741092E-2],"split_indices":[38,6,10,43,30,37,32,37,38,30,28,11,13,41,41,24,7,7,32,29,4,0,0,16,39,41,0,0,0,30,37,0,0,0,0,0,0,0,0,0,0,0,0,0,0,0,0,0,0,0,0,0,0],"split_type":[0,0,0,0,0,0,0,0,0,0,0,0,0,0,0,0,0,0,0,0,0,0,0,0,0,0,0,0,0,0,0,0,0,0,0,0,0,0,0,0,0,0,0,0,0,0,0,0,0,0,0,0,0],"sum_hessian":[2.4051047E2,1.5156053E2,8.894993E1,9.596083E1,5.5599712E1,2.278626E1,6.6163666E1,1.7552753E1,7.840807E1,5.3480694E1,2.119019E0,1.8455374E1,4.3308864E0,8.483906E0,5.767976E1,1.2418001E1,5.1347513E0,6.786175E1,1.054633E1,4.4846313E1,8.6343775E0,1.0847223E0,1.0342968E0,2.0476022E0,1.6407772E1,2.0951934E0,2.235693E0,1.0394083E0,7.4444976E0,1.5125922E1,4.2553837E1,1.1352434E1,1.0655673E0,1.0425732E0,4.092178E0,5.4625973E1,1.3235769E1,8.686982E0,1.8593479E0,9.707218E0,3.5139095E1,1.470807E0,7.163571E0,1.0332097E0,1.0143925E0,1.1237355E0,1.5284037E1,1.0103712E0,1.0848222E0,2.5505815E0,1.257534E1,2.2474726E1,2.0079111E1],"tree_param":{"num_deleted":"0","num_feature":"44","num_nodes":"53","size_leaf_vector":"1"}},{"base_weights":[1.9543726E-2,-1.4161061E-1,3.17981E-1,-5.853075E-1,6.615442E-2,4.1364262E-1,-6.195809E-1,2.4196824E-1,-7.6667464E-1,1.1096346E-1,-1.2640514E0,-4.1350402E-2,4.4889355E-1,-1.1816156E0,5.318378E-1,5.651165E-1,-5.2390177E-2,6.769612E-1,-8.907285E-1,9.6345646E-4,6.865767E-1,1.0256905E-2,-9.928523E-2,4.4197954E-2,5.6291914E-1,-1.7202266E0,4.1499417E-3,3.4008335E-2,4.744855E-3,-3.154113E-2,4.141475E-2,4.1493706E-2,7.164241E-3,-5.8313828E-2,-1.7239949E-2,-6.7158737E-3,2.1422435E-2,4.186649E-2,-3.8024355E-2,-4.6413254E-2,1.8944731E-2,3.1956155E-2,-1.5444102E-2,-1.0272739E-1,-2.9520845E-2],"categories":[],"categories_nodes":[],"categories_segments":[],"categories_sizes":[],"default_left":[0,0,0,0,0,0,0,0,0,0,0,0,0,0,0,0,0,0,0,0,0,0,0,0,0,0,0,0,0,0,0,0,0,0,0,0,0,0,0,0,0,0,0,0,0],"id":26,"left_children":[1,3,5,7,9,11,13,15,17,19,21,-1,23,25,27,29,-1,31,33,35,37,-1,-1,39,41,43,-1,-1,-1,-1,-1,-1,-1,-1,-1,-1,-1,-1,-1,-1,-1,-1,-1,-1,-1],"loss_changes":[1.1345836E1,1.4167969E1,7.6735363E0,7.5349426E0,6.415989E0,3.6794071E0,5.84252E0,4.5799046E0,7.84087E0,6.506872E0,4.130748E0,0E0,3.3991776E0,4.042076E0,1.5143424E-1,3.135079E0,0E0,1.8844342E-1,5.261368E0,5.10548E0,4.233636E0,0E0,0E0,6.013811E0,4.03767E0,3.2080364E-1,0E0,0E0,0E0,0E0,0E0,0E0,0E0,0E0,0E0,0E0,0E0,0E0,0E0,0E0,0E0,0E0,0E0,0E0,0E0],"parents":[2147483647,0,0,1,1,2,2,3,3,4,4,5,5,6,6,7,7,8,8,9,9,10,10,12,12,13,13,14,14,15,15,17,17,18,18,19,19,20,20,23,23,24,24,25,25],"right_children":[2,4,6,8,10,12,14,16,18,20,22,-1,24,26,28,30,-1,32,34,36,38,-1,-1,40,42,44,-1,-1,-1,-1,-1,-1,-1,-1,-1,-1,-1,-1,-1,-1,-1,-1,-1,-1,-1],"split_conditions":[6E0,4E0,1.086E1,5.172414E-2,4.1666666E-1,1.4285715E-1,2.6E-1,4.39E0,1.6E0,3.9130434E-1,2.8E0,-4.1350402E-2,3.28E0,3.13E-1,3.1111112E-1,2.1621622E-1,-5.2390177E-2,1.26E0,3.255814E-1,2.025E3,1.144E1,1.0256905E-2,-9.928523E-2,3.02E0,3.5714287E-1,3.64E0,4.1499417E-3,3.4008335E-2,4.744855E-3,-3.154113E-2,4.141475E-2,4.1493706E-2,7.164241E-3,-5.8313828E-2,-1.7239949E-2,-6.7158737E-3,2.1422435E-2,4.186649E-2,-3.8024355E-2,-4.6413254E-2,1.8944731E-2,3.1956155E-2,-1.5444102E-2,-1.0272739E-1,-2.9520845E-2],"split_indices":[2,24,10,41,18,16,40,9,11,38,11,0,9,13,16,16,0,11,38,1,10,0,0,31,40,34,0,0,0,0,0,0,0,0,0,0,0,0,0,0,0,0,0,0,0],"split_type":[0,0,0,0,0,0,0,0,0,0,0,0,0,0,0,0,0,0,0,0,0,0,0,0,0,0,0,0,0,0,0,0,0,0,0,0,0,0,0,0,0,0,0,0,0],"sum_hessian":[2.3397107E2,1.5227109E2,8.1699974E1,4.7982952E1,1.0428814E2,7.464281E1,7.0571675E0,8.56788E0,3.9415073E1,1.01776306E2,2.5118332E0,1.4417022E0,7.32011E1,4.7247033E0,2.3324645E0,7.3005877E0,1.2672918E0,2.7662895E0,3.664878E1,8.6288246E1,1.5488056E1,1.0631467E0,1.4486866E0,1.6396135E1,5.680497E1,3.0608013E0,1.6639018E0,1.325753E0,1.0067116E0,1.0648305E0,6.235757E0,1.7187943E0,1.0474951E0,2.3600527E1,1.3048256E1,6.606673E1,2.022152E1,1.4408372E1,1.079684E0,3.7441204E0,1.2652016E1,5.2484226E1,4.320743E0,1.7302996E0,1.3305018E0],"tree_param":{"num_deleted":"0","num_feature":"44","num_nodes":"45","size_leaf_vector":"1"}},{"base_weights":[8.561623E-3,-1.4816953E-1,2.8245386E-1,-4.9019647E-1,8.700954E-4,5.4979914E-1,-2.4238838E-2,-7.3760897E-1,1.8830384E-1,-6.6354686E-1,1.0189181E-1,-3.9340484E-1,6.3276154E-1,2.936429E-1,-5.906066E-1,-8.812119E-1,6.712434E-1,-2.9276928E-1,8.862268E-1,-9.715012E-1,3.2354906E-1,-8.180122E-3,5.1503366E-1,3.6047485E-2,-5.9574347E-2,8.5419697E-1,2.1821572E-1,-6.4731234E-1,4.2384887E-1,-1.101283E0,3.4717682E-1,-6.0998213E-2,-8.968619E-3,4.1509252E-2,5.9195636E-3,4.056928E-2,-3.4583434E-2,7.234854E-3,5.071689E-2,-6.624672E-2,-4.7156494E-3,-2.7335156E-2,4.2486455E-2,-1.2046262E-2,1.1705825E-2,-1.5798328E-2,3.4346938E-2,4.563123E-2,-1.2605461E-2,-4.436353E-2,2.7862867E-2,1.51491165E-2,-7.0157394E-2,-3.3805642E-2,2.6953382E-2,-7.146689E-2,1.915413E-2,4.4578906E-2,-3.396509E-2],"categories":[],"categories_nodes":[],"categories_segments":[],"categories_sizes":[],"default_left":[0,0,0,0,0,0,0,0,0,0,0,0,0,0,0,0,0,0,0,0,0,0,0,0,0,0,0,0,0,0,0,0,0,0,0,0,0,0,0,0,0,0,0,0,0,0,0,0,0,0,0,0,0,0,0,0,0,0,0],"id":27,"left_children":[1,3,5,7,9,11,13,15,17,19,21,23,25,27,29,31,33,35,37,39,41,43,45,-1,-1,47,49,51,53,55,57,-1,-1,-1,-1,-1,-1,-1,-1,-1,-1,-1,-1,-1,-1,-1,-1,-1,-1,-1,-1,-1,-1,-1,-1,-1,-1,-1,-1],"loss_changes":[1.0427763E1,7.878154E0,7.261639E0,8.012767E0,7.3592196E0,3.9480553E0,7.75823E0,7.586506E0,4.7350373E0,4.7131004E0,4.3318253E0,4.8063607E0,3.8373833E0,3.6622021E0,7.7944026E0,7.3437347E0,2.3261893E-1,4.367799E0,3.935256E-1,3.3719654E0,2.383726E0,4.349521E0,3.0792422E0,0E0,0E0,2.0547733E0,6.718214E0,3.123603E0,3.519548E0,5.5437584E0,4.0798182E0,0E0,0E0,0E0,0E0,0E0,0E0,0E0,0E0,0E0,0E0,0E0,0E0,0E0,0E0,0E0,0E0,0E0,0E0,0E0,0E0,0E0,0E0,0E0,0E0,0E0,0E0,0E0,0E0],"parents":[2147483647,0,0,1,1,2,2,3,3,4,4,5,5,6,6,7,7,8,8,9,9,10,10,11,11,12,12,13,13,14,14,15,15,16,16,17,17,18,18,19,19,20,20,21,21,22,22,25,25,26,26,27,27,28,28,29,29,30,30],"right_children":[2,4,6,8,10,12,14,16,18,20,22,24,26,28,30,32,34,36,38,40,42,44,46,-1,-1,48,50,52,54,56,58,-1,-1,-1,-1,-1,-1,-1,-1,-1,-1,-1,-1,-1,-1,-1,-1,-1,-1,-1,-1,-1,-1,-1,-1,-1,-1,-1,-1],"split_conditions":[3.265306E-1,4E0,8E-1,4.6341464E-1,2.1621622E-1,9.7E-1,3E0,3.58E0,9.17E0,9.51E0,7E0,2.0833333E-1,2.94E0,2.79E0,4.33E0,6E0,3.25E-1,5.121951E-1,4.6511628E-2,4.12E0,2.244898E-1,3E0,2.61E-1,3.6047485E-2,-5.9574347E-2,4.46E0,2.682927E-1,2.1428572E-1,2.51E-1,2.025E3,2.8947368E-1,-6.0998213E-2,-8.968619E-3,4.1509252E-2,5.9195636E-3,4.056928E-2,-3.4583434E-2,7.234854E-3,5.071689E-2,-6.624672E-2,-4.7156494E-3,-2.7335156E-2,4.2486455E-2,-1.2046262E-2,1.1705825E-2,-1.5798328E-2,3.4346938E-2,4.563123E-2,-1.2605461E-2,-4.436353E-2,2.7862867E-2,1.51491165E-2,-7.0157394E-2,-3.3805642E-2,2.6953382E-2,-7.146689E-2,1.915413E-2,4.4578906E-2,-3.396509E-2],"split_indices":[38,2,37,17,16,8,25,33,10,32,24,18,11,29,36,24,17,17,41,29,18,6,35,0,0,33,17,40,35,1,18,0,0,0,0,0,0,0,0,0,0,0,0,0,0,0,0,0,0,0,0,0,0,0,0,0,0,0,0],"split_type":[0,0,0,0,0,0,0,0,0,0,0,0,0,0,0,0,0,0,0,0,0,0,0,0,0,0,0,0,0,0,0,0,0,0,0,0,0,0,0,0,0,0,0,0,0,0,0,0,0,0,0,0,0,0,0,0,0,0,0],"sum_hessian":[2.4094106E2,1.5353929E2,8.740177E1,4.5904736E1,1.07634544E2,4.627286E1,4.112891E1,3.3574726E1,1.233001E1,1.3470578E1,9.416397E1,3.4384937E0,4.2834366E1,2.6651768E1,1.4477142E1,3.0808922E1,2.7658043E0,7.6425624E0,4.6874485E0,1.0279407E1,3.1911716E0,7.512807E1,1.9035906E1,1.4752557E0,1.963238E0,2.7229036E1,1.560533E1,2.7569268E0,2.3894842E1,9.260129E0,5.2170134E0,2.0281527E1,1.0527394E1,1.7585826E0,1.0072217E0,1.7538472E0,5.888715E0,1.0042331E0,3.6832154E0,6.963334E0,3.3160725E0,1.1877468E0,2.003425E0,3.832221E1,3.680586E1,3.1192458E0,1.591666E1,2.602941E1,1.1996266E0,3.2831683E0,1.2322162E1,1.4867777E0,1.2701491E0,1.8040441E0,2.2090797E1,7.614372E0,1.6457567E0,3.4948905E0,1.7221229E0],"tree_param":{"num_deleted":"0","num_feature":"44","num_nodes":"59","size_leaf_vector":"1"}},{"base_weights":[-5.3724784E-2,-3.855186E-1,8.439379E-2,-1.2042389E-2,-6.667803E-1,2.6475465E-2,7.1326303E-1,9.623166E-2,-7.5733714E-2,-4.4567436E-1,-1.3733865E0,-5.7707116E-2,4.9267977E-1,5.1505905E-2,-2.2800174E-1,-2.8377506E-1,6.021277E-1,-6.076042E-1,4.239767E-1,-4.2918035E-1,-1.1299615E-1,-2.3067121E-1,2.2452357E-1,7.667947E-1,-1.3143605E-1,-4.2466294E-2,3.2879617E-2,5.5628484E-3,-4.226366E-2,-3.648606E-2,3.9205622E-2,-5.84939E-2,-1.1549268E-2,-2.9621715E-2,3.9343763E-2,1.988724E-2,-5.9095588E-2,-1.7264945E-2,2.4233988E-2,4.083794E-2,3.938587E-3,5.0416805E-2,8.852107E-3,-3.5083104E-2,2.4764523E-2],"categories":[],"categories_nodes":[],"categories_segments":[],"categories_sizes":[],"default_left":[0,0,0,0,0,0,0,0,0,0,0,0,0,0,0,0,0,0,0,0,0,0,0,0,0,0,0,0,0,0,0,0,0,0,0,0,0,0,0,0,0,0,0,0,0],"id":28,"left_children":[1,3,5,7,9,11,13,15,-1,17,19,21,23,-1,25,27,29,31,33,35,-1,37,39,41,43,-1,-1,-1,-1,-1,-1,-1,-1,-1,-1,-1,-1,-1,-1,-1,-1,-1,-1,-1,-1],"loss_changes":[1.0771506E1,7.2460423E0,6.037565E0,5.137905E0,5.5393867E0,6.044743E0,4.4056E0,5.8539405E0,0E0,4.68924E0,6.483053E0,6.4341903E0,4.1300116E0,0E0,2.9469333E0,3.9892378E0,3.723269E0,5.4348297E0,2.505518E0,3.9222174E0,0E0,6.8550143E0,4.2677593E0,2.1734333E0,3.2211914E0,0E0,0E0,0E0,0E0,0E0,0E0,0E0,0E0,0E0,0E0,0E0,0E0,0E0,0E0,0E0,0E0,0E0,0E0,0E0,0E0],"parents":[2147483647,0,0,1,1,2,2,3,3,4,4,5,5,6,6,7,7,9,9,10,10,11,11,12,12,14,14,15,15,16,16,17,17,18,18,19,19,21,21,22,22,23,23,24,24],"right_children":[2,4,6,8,10,12,14,16,-1,18,20,22,24,-1,26,28,30,32,34,36,-1,38,40,42,44,-1,-1,-1,-1,-1,-1,-1,-1,-1,-1,-1,-1,-1,-1,-1,-1,-1,-1,-1,-1],"split_conditions":[4E0,2.77E-1,4.074074E-1,4E-1,1.3513513E-1,1.047E1,2.91E-1,4.054054E-1,-7.5733714E-2,1.1764706E-1,9.72E0,4.473684E-1,9.46E0,5.1505905E-2,3.65E0,7E0,4.489796E-1,1.13E0,2.4324325E-1,3.39E0,-1.1299615E-1,6.571429E-1,2.59E-1,2.71E0,1E0,-4.2466294E-2,3.2879617E-2,5.5628484E-3,-4.226366E-2,-3.648606E-2,3.9205622E-2,-5.84939E-2,-1.1549268E-2,-2.9621715E-2,3.9343763E-2,1.988724E-2,-5.9095588E-2,-1.7264945E-2,2.4233988E-2,4.083794E-2,3.938587E-3,5.0416805E-2,8.852107E-3,-3.5083104E-2,2.4764523E-2],"split_indices":[2,13,16,18,41,32,13,39,0,41,10,39,10,0,29,4,43,30,39,29,0,43,35,11,42,0,0,0,0,0,0,0,0,0,0,0,0,0,0,0,0,0,0,0,0],"split_type":[0,0,0,0,0,0,0,0,0,0,0,0,0,0,0,0,0,0,0,0,0,0,0,0,0,0,0,0,0,0,0,0,0,0,0,0,0,0,0,0,0,0,0,0,0],"sum_hessian":[2.3333775E2,6.8057106E1,1.6528064E2,2.9683878E1,3.837323E1,1.5229637E2,1.2984268E1,2.856178E1,1.1220976E0,3.0469627E1,7.9036016E0,1.297446E2,2.255178E1,9.643581E0,3.3406868E0,1.6560974E1,1.2000807E1,2.5940758E1,4.5288687E0,4.5459957E0,3.3576057E0,8.055775E1,4.9186848E1,1.5510764E1,7.0410175E0,1.9873413E0,1.3533454E0,1.0192253E1,6.368721E0,1.0808502E0,1.0919956E1,9.56075E0,1.6380007E1,1.0251393E0,3.5037296E0,2.3909628E0,2.155033E0,6.987784E1,1.0679907E1,8.805123E0,4.0381725E1,1.0500412E1,5.010352E0,3.6240845E0,3.4169333E0],"tree_param":{"num_deleted":"0","num_feature":"44","num_nodes":"45","size_leaf_vector":"1"}},{"base_weights":[2.087071E-2,-3.7809625E-2,6.1373603E-1,3.4035373E-1,-1.3339053E-1,3.367997E-1,8.671567E-1,4.3544945E-1,-6.3163996E-1,-4.2357945E-1,-1.6048413E-2,-2.7374685E-2,5.666947E-1,2.1164212E-1,5.0791442E-2,-3.3490423E-2,5.032335E-1,-7.713183E-2,1.9904688E-1,-3.1004524E-1,-1.7751591E0,5.987226E-2,-8.3188546E-1,4.898456E-2,4.7427706E-2,3.1089386E-2,-1.6084915E-2,3.1746637E-2,-1.4795458E-3,-1.7540315E-2,3.1047111E-2,-2.0467304E-2,3.4535825E-2,-1.724929E-2,-1.1129808E-1,-6.3348687E-3,1.5528356E-2,3.5028342E-2,-5.8182754E-2,-3.2909844E-2,3.968574E-2],"categories":[],"categories_nodes":[],"categories_segments":[],"categories_sizes":[],"default_left":[0,0,0,0,0,0,0,0,0,0,0,0,0,0,0,0,0,0,0,0,0,0,0,0,0,0,0,0,0,0,0,0,0,0,0,0,0,0,0,0,0],"id":29,"left_children":[1,3,5,7,9,11,13,15,17,19,21,-1,23,25,-1,-1,27,-1,29,31,33,35,37,39,-1,-1,-1,-1,-1,-1,-1,-1,-1,-1,-1,-1,-1,-1,-1,-1,-1],"loss_changes":[8.238806E0,7.846432E0,1.2046728E0,4.325955E0,5.884066E0,2.7143302E0,8.084078E-1,3.3721766E0,3.5714433E0,7.0873175E0,7.7442436E0,0E0,1.906127E0,9.010113E-1,0E0,0E0,2.7374105E0,0E0,9.467145E-1,4.966121E0,1.582344E0,5.398628E0,6.226477E0,3.2858644E0,0E0,0E0,0E0,0E0,0E0,0E0,0E0,0E0,0E0,0E0,0E0,0E0,0E0,0E0,0E0,0E0,0E0],"parents":[2147483647,0,0,1,1,2,2,3,3,4,4,5,5,6,6,7,7,8,8,9,9,10,10,12,12,13,13,16,16,