{"learner":{"attributes":{"best_iteration":"152","best_score":"0.6032237276537783"},"feature_names":["inning","pitcher","season","hits_allowed","walks","strikeouts","batters_faced","runs_allowed","ERA_season","WHIP_season","FIP_season","K/9_season","BB/9_season","xFIP_season","CSW%_season","xERA_season","runs_rolling10_team","OBP_team","SLG_team","K_rate_team","BB_rate_team","is_home_team"],"feature_types":["int","int","int","int","int","int","int","int","float","float","float","float","float","float","float","float","float","float","float","float","float","i"],"gradient_booster":{"model":{"gbtree_model_param":{"num_parallel_tree":"1","num_trees":"173"},"iteration_indptr":[0,1,2,3,4,5,6,7,8,9,10,11,12,13,14,15,16,17,18,19,20,21,22,23,24,25,26,27,28,29,30,31,32,33,34,35,36,37,38,39,40,41,42,43,44,45,46,47,48,49,50,51,52,53,54,55,56,57,58,59,60,61,62,63,64,65,66,67,68,69,70,71,72,73,74,75,76,77,78,79,80,81,82,83,84,85,86,87,88,89,90,91,92,93,94,95,96,97,98,99,100,101,102,103,104,105,106,107,108,109,110,111,112,113,114,115,116,117,118,119,120,121,122,123,124,125,126,127,128,129,130,131,132,133,134,135,136,137,138,139,140,141,142,143,144,145,146,147,148,149,150,151,152,153,154,155,156,157,158,159,160,161,162,163,164,165,166,167,168,169,170,171,172,173],"tree_info":[0,0,0,0,0,0,0,0,0,0,0,0,0,0,0,0,0,0,0,0,0,0,0,0,0,0,0,0,0,0,0,0,0,0,0,0,0,0,0,0,0,0,0,0,0,0,0,0,0,0,0,0,0,0,0,0,0,0,0,0,0,0,0,0,0,0,0,0,0,0,0,0,0,0,0,0,0,0,0,0,0,0,0,0,0,0,0,0,0,0,0,0,0,0,0,0,0,0,0,0,0,0,0,0,0,0,0,0,0,0,0,0,0,0,0,0,0,0,0,0,0,0,0,0,0,0,0,0,0,0,0,0,0,0,0,0,0,0,0,0,0,0,0,0,0,0,0,0,0,0,0,0,0,0,0,0,0,0,0,0,0,0,0,0,0,0,0,0,0,0,0,0,0],"trees":[{"base_weights":[-1.9006206E-2,-3.3850062E-1,4.412917E-1,3.0205902E-1,-4.9530733E-1,6.878052E-2,8.781257E-1,-4.3595752E-1,5.594051E-1,-9.061631E-1,-2.9973513E-1,3.3355856E-1,-1.3975717E-1,7.242638E-1,1.1738237E0,-9.534254E-1,-5.7698347E-2,1.0196453E0,1.1722145E-1,-9.9020463E-1,1.3612457E-1,8.067489E-2,-4.8572767E-1,4.643524E-1,-5.4984444E-1,2.3139693E-1,-4.2558372E-1,8.047409E-1,1.4372766E-1,4.9980792E-1,1.3495754E0,-4.0873133E-2,-7.14946E-3,2.5297437E-2,-1.2801138E-2,3.2893088E-2,-1.1832353E-2,-8.126001E-3,2.7253423E-2,-3.3320814E-2,-1.3472024E-2,-3.3502147E-2,1.8329982E-2,-1.8517425E-2,7.793885E-3,1.0227406E-2,-1.6502751E-2,8.993627E-3,3.7640143E-2,-3.6844835E-2,1.3209213E-2,9.798763E-3,-3.3502147E-2,2.3628753E-2,-1.5634151E-2,2.7081981E-2,4.899833E-3,1.6019598E-2,-1.6905112E-2,3.1441692E-2,-1.3935684E-2,1.5999136E-2,4.235779E-2],"categories":[],"categories_nodes":[],"categories_segments":[],"categories_sizes":[],"default_left":[0,0,0,0,0,0,0,0,0,0,0,0,0,0,0,0,0,0,0,0,0,0,0,0,0,0,0,0,0,0,0,0,0,0,0,0,0,0,0,0,0,0,0,0,0,0,0,0,0,0,0,0,0,0,0,0,0,0,0,0,0,0,0],"id":0,"left_children":[1,3,5,7,9,11,13,15,17,19,21,23,25,27,29,31,33,35,37,39,41,43,45,47,49,51,53,55,57,59,61,-1,-1,-1,-1,-1,-1,-1,-1,-1,-1,-1,-1,-1,-1,-1,-1,-1,-1,-1,-1,-1,-1,-1,-1,-1,-1,-1,-1,-1,-1,-1,-1],"loss_changes":[9.954301E1,4.02784E1,4.5070774E1,1.5283687E1,2.5547562E1,8.372043E0,4.953697E0,4.0624437E0,1.1918594E1,9.16877E0,1.5547842E1,7.96517E0,9.121279E0,3.926445E0,4.30653E0,2.2547073E0,4.7538266E0,3.5656605E0,9.856543E0,5.7317505E0,5.783723E0,9.265678E0,8.027859E0,7.2535753E0,6.6278934E0,5.198372E0,6.0215273E0,4.614773E0,3.5441737E0,5.9243546E0,9.145317E-1,0E0,0E0,0E0,0E0,0E0,0E0,0E0,0E0,0E0,0E0,0E0,0E0,0E0,0E0,0E0,0E0,0E0,0E0,0E0,0E0,0E0,0E0,0E0,0E0,0E0,0E0,0E0,0E0,0E0,0E0,0E0,0E0],"parents":[2147483647,0,0,1,1,2,2,3,3,4,4,5,5,6,6,7,7,8,8,9,9,10,10,11,11,12,12,13,13,14,14,15,15,16,16,17,17,18,18,19,19,20,20,21,21,22,22,23,23,24,24,25,25,26,26,27,27,28,28,29,29,30,30],"right_children":[2,4,6,8,10,12,14,16,18,20,22,24,26,28,30,32,34,36,38,40,42,44,46,48,50,52,54,56,58,60,62,-1,-1,-1,-1,-1,-1,-1,-1,-1,-1,-1,-1,-1,-1,-1,-1,-1,-1,-1,-1,-1,-1,-1,-1,-1,-1,-1,-1,-1,-1,-1,-1],"split_conditions":[4.5238096E-1,4E0,3E0,2.5641027E-1,2.75E-1,6E0,4.23E0,4.918033E-2,3.6363637E-1,5E0,8.42E0,2.91E-1,7E-1,1.509434E-1,4.888889E-1,1.17E0,1.9512194E-1,6.666667E-1,3.4146342E-1,4.26E0,1.5625E-1,2.55E-1,3.02E0,2.631579E-1,3.5714287E-1,1.2E1,7.2E0,4.13E0,4.02E0,2.3404256E-1,4.4444446E-2,-4.0873133E-2,-7.14946E-3,2.5297437E-2,-1.2801138E-2,3.2893088E-2,-1.1832353E-2,-8.126001E-3,2.7253423E-2,-3.3320814E-2,-1.3472024E-2,-3.3502147E-2,1.8329982E-2,-1.8517425E-2,7.793885E-3,1.0227406E-2,-1.6502751E-2,8.993627E-3,3.7640143E-2,-3.6844835E-2,1.3209213E-2,9.798763E-3,-3.3502147E-2,2.3628753E-2,-1.5634151E-2,2.7081981E-2,4.899833E-3,1.6019598E-2,-1.6905112E-2,3.1441692E-2,-1.3935684E-2,1.5999136E-2,4.235779E-2],"split_indices":[18,5,7,17,18,5,10,20,18,7,11,14,16,20,18,9,18,16,17,13,18,14,15,19,17,5,11,13,15,19,20,0,0,0,0,0,0,0,0,0,0,0,0,0,0,0,0,0,0,0,0,0,0,0,0,0,0,0,0,0,0,0,0],"split_type":[0,0,0,0,0,0,0,0,0,0,0,0,0,0,0,0,0,0,0,0,0,0,0,0,0,0,0,0,0,0,0,0,0,0,0,0,0,0,0,0,0,0,0,0,0,0,0,0,0,0,0,0,0,0,0,0,0,0,0,0,0,0,0],"sum_hessian":[6.7485925E2,3.9851392E2,2.7634534E2,7.81879E1,3.2032602E2,1.4977869E2,1.2656666E2,2.0035648E1,5.815225E1,1.02132935E2,2.181931E2,6.57267E1,8.405199E1,8.551801E1,4.1048645E1,7.8187895E0,1.2216859E1,2.7854437E1,3.029781E1,9.455849E1,7.5744524E0,7.183513E1,1.4635797E2,5.7663574E1,8.063127E0,3.6650578E1,4.7401413E1,7.476717E1,1.0750835E1,9.284813E0,3.1763832E1,4.398069E0,3.4207203E0,3.1763833E0,9.040475E0,2.6632751E1,1.2216859E0,2.076866E1,9.52915E0,7.647753E1,1.808095E1,1.7103602E0,5.864092E0,1.41715555E1,5.7663574E1,1.0262161E1,1.3609581E2,4.8867435E1,8.796138E0,4.6424065E0,3.4207203E0,3.4940216E1,1.7103602E0,2.932046E0,4.4469364E1,6.450501E1,1.0262161E1,7.0857778E0,3.6650577E0,5.864092E0,3.4207203E0,2.932046E0,2.8831787E1],"tree_param":{"num_deleted":"0","num_feature":"22","num_nodes":"63","size_leaf_vector":"1"}},{"base_weights":[1.2488643E-2,-6.297042E-1,4.5169866E-1,-1.2418962E0,-4.0372688E-1,-1.4744647E-1,6.3298756E-1,-1.558323E0,-7.5058156E-1,-9.964891E-1,-1.7959897E-1,-1.1745493E0,-2.6973832E-2,4.8141226E-1,1.0188371E0,-1.8425133E0,-1.0985332E0,-9.1468287E-1,2.3854728E-1,-1.5784813E0,-7.089522E-1,-4.5449635E-1,1.0069352E-1,-1.3570561E0,1.7911089E-3,-2.7957815E-1,5.427582E-1,3.3906263E-1,8.130849E-1,8.7281835E-1,4.4337656E-2,-5.8939494E-2,-1.4775928E-2,-1.32893175E-2,-5.0260887E-2,-3.1011228E-2,8.167696E-3,-2.4857441E-2,2.34776E-2,4.0559317E-3,-5.4130677E-2,1.9170049E-3,-2.7205406E-2,-2.1635197E-2,1.3294715E-3,2.6546074E-2,-2.4087736E-3,-2.1526927E-2,-5.3873733E-2,-5.082386E-3,-3.754002E-2,4.2782384E-3,2.7943874E-2,4.4868137E-3,2.0030694E-2,3.3726837E-2,1.849166E-2,2.7524231E-2,-2.5680011E-2],"categories":[],"categories_nodes":[],"categories_segments":[],"categories_sizes":[],"default_left":[0,0,0,0,0,0,0,0,0,0,0,0,0,0,0,0,0,0,0,0,0,0,0,0,0,0,0,0,0,0,0,0,0,0,0,0,0,0,0,0,0,0,0,0,0,0,0,0,0,0,0,0,0,0,0,0,0,0,0],"id":1,"left_children":[1,3,5,7,9,11,13,15,17,19,21,23,25,27,29,31,33,35,37,39,41,43,45,47,-1,49,51,53,55,57,-1,-1,-1,-1,-1,-1,-1,-1,-1,-1,-1,-1,-1,-1,-1,-1,-1,-1,-1,-1,-1,-1,-1,-1,-1,-1,-1,-1,-1],"loss_changes":[1.900802E2,3.7364594E1,4.3560608E1,1.0228088E1,2.657795E1,1.1571291E1,1.748864E1,3.6814804E0,5.193121E0,8.091179E0,1.140028E1,2.2931948E0,1.2377488E1,1.0234318E1,4.46212E0,3.2382736E0,6.501499E0,4.0245113E0,3.640915E0,6.9731216E0,5.9696865E0,9.952519E0,1.0542799E1,1.1236134E0,0E0,6.1593385E0,3.978847E0,9.706818E0,3.3544579E0,5.999832E0,0E0,0E0,0E0,0E0,0E0,0E0,0E0,0E0,0E0,0E0,0E0,0E0,0E0,0E0,0E0,0E0,0E0,0E0,0E0,0E0,0E0,0E0,0E0,0E0,0E0,0E0,0E0,0E0,0E0],"parents":[2147483647,0,0,1,1,2,2,3,3,4,4,5,5,6,6,7,7,8,8,9,9,10,10,11,11,12,12,13,13,14,14,15,15,16,16,17,17,18,18,19,19,20,20,21,21,22,22,23,23,25,25,26,26,27,27,28,28,29,29],"right_children":[2,4,6,8,10,12,14,16,18,20,22,24,26,28,30,32,34,36,38,40,42,44,46,48,-1,50,52,54,56,58,-1,-1,-1,-1,-1,-1,-1,-1,-1,-1,-1,-1,-1,-1,-1,-1,-1,-1,-1,-1,-1,-1,-1,-1,-1,-1,-1,-1,-1],"split_conditions":[5E0,2.972973E-1,2.682927E-1,4E0,3E0,1.6216215E-1,8E0,2.81E-1,6.70912E5,2E0,3.2786885E-1,4.51E0,4.14E0,3E0,1E1,3.1914893E-1,2.4390244E-1,1.4E0,1.1E0,1.75E-1,2.66E-1,9.43E0,7.65E0,3.91E0,1.7911089E-3,1.088E1,2.6E-1,5.2380955E-1,8.928572E-2,9E0,4.4337656E-2,-5.8939494E-2,-1.4775928E-2,-1.32893175E-2,-5.0260887E-2,-3.1011228E-2,8.167696E-3,-2.4857441E-2,2.34776E-2,4.0559317E-3,-5.4130677E-2,1.9170049E-3,-2.7205406E-2,-2.1635197E-2,1.3294715E-3,2.6546074E-2,-2.4087736E-3,-2.1526927E-2,-5.3873733E-2,-5.082386E-3,-3.754002E-2,4.2782384E-3,2.7943874E-2,4.4868137E-3,2.0030694E-2,3.3726837E-2,1.849166E-2,2.7524231E-2,-2.5680011E-2],"split_indices":[3,18,17,3,3,17,3,14,1,3,17,15,13,4,3,17,17,9,9,19,14,11,11,15,0,11,19,18,20,7,0,0,0,0,0,0,0,0,0,0,0,0,0,0,0,0,0,0,0,0,0,0,0,0,0,0,0,0,0],"split_type":[0,0,0,0,0,0,0,0,0,0,0,0,0,0,0,0,0,0,0,0,0,0,0,0,0,0,0,0,0,0,0,0,0,0,0,0,0,0,0,0,0,0,0,0,0,0,0,0,0,0,0,0,0,0,0,0,0,0,0],"sum_hessian":[6.718974E2,2.727139E2,3.991835E2,7.231382E1,2.0040007E2,9.277065E1,3.0641284E2,4.266443E1,2.9649393E1,5.4037727E1,1.4636235E2,8.82055E0,8.39501E1,2.2160594E2,8.4806915E1,2.4508652E1,1.8155775E1,2.5494925E1,4.154468E0,1.6384613E1,3.7653114E1,7.3578545E1,7.2783806E1,7.59761E0,1.2229403E0,5.851525E1,2.5434853E1,1.5647232E2,6.513362E1,6.65431E1,1.8263815E1,2.2057714E1,2.4509366E0,9.325489E0,8.830286E0,2.3288666E1,2.2062593E0,1.2262236E0,2.9282444E0,1.9548547E0,1.4429759E1,7.813926E0,2.983919E1,4.7655167E1,2.5923376E1,1.2919043E1,5.986476E1,4.1639075E0,3.4337025E0,5.361177E1,4.9034815E0,1.3206423E1,1.2228429E1,1.0016657E2,5.6305744E1,2.3401121E1,4.1732502E1,6.5325035E1,1.2180656E0],"tree_param":{"num_deleted":"0","num_feature":"22","num_nodes":"59","size_leaf_vector":"1"}},{"base_weights":[1.72535E-2,-5.919292E-1,4.3010342E-1,-1.1477596E0,-3.7018573E-1,-6.821041E-1,5.145501E-1,-1.2093782E0,2.4539819E-2,-9.4454205E-1,-1.8808284E-1,-9.313398E-1,6.453164E-1,4.0549794E-1,1.1566358E0,-1.6959271E0,-9.6323997E-1,-1.3413787E0,-5.7742745E-1,-3.937712E-1,1.1652763E-2,-1.0901557E0,3.6871275E-1,3.1622253E-2,-1.0992324E-2,1.7917682E-1,6.560129E-1,3.0815437E-1,1.2675278E0,-1.0980507E-2,-5.254151E-2,5.1901103E-3,-3.2706562E-2,-4.4376947E-2,-5.3258226E-3,3.0327875E-3,-2.8228493E-2,-2.258189E-2,6.7189187E-3,2.260266E-2,-4.6227607E-3,5.545869E-3,-4.115228E-2,-1.162263E-2,2.877849E-2,-1.1010015E-3,1.586829E-2,1.439587E-2,2.6884224E-2,2.230815E-2,-2.2436697E-2,3.94958E-2,-1.0125536E-3],"categories":[],"categories_nodes":[],"categories_segments":[],"categories_sizes":[],"default_left":[0,0,0,0,0,0,0,0,0,0,0,0,0,0,0,0,0,0,0,0,0,0,0,0,0,0,0,0,0,0,0,0,0,0,0,0,0,0,0,0,0,0,0,0,0,0,0,0,0,0,0,0,0],"id":2,"left_children":[1,3,5,7,9,11,13,15,-1,17,19,21,23,25,27,29,31,33,35,37,39,41,43,-1,-1,45,47,49,51,-1,-1,-1,-1,-1,-1,-1,-1,-1,-1,-1,-1,-1,-1,-1,-1,-1,-1,-1,-1,-1,-1,-1,-1],"loss_changes":[1.7062627E2,3.3354027E1,3.8328896E1,1.0398399E1,2.0467176E1,1.018378E1,2.5886139E1,7.4347916E0,0E0,6.1116486E0,6.2129574E0,5.52145E0,2.5240583E0,1.8211678E1,4.7001724E0,1.1381149E0,7.777519E0,3.2604408E0,6.5844965E0,1.6683361E1,9.661376E0,8.277483E0,1.9107065E0,0E0,0E0,1.2947591E1,6.044426E0,4.039601E0,3.0750275E0,0E0,0E0,0E0,0E0,0E0,0E0,0E0,0E0,0E0,0E0,0E0,0E0,0E0,0E0,0E0,0E0,0E0,0E0,0E0,0E0,0E0,0E0,0E0,0E0],"parents":[2147483647,0,0,1,1,2,2,3,3,4,4,5,5,6,6,7,7,9,9,10,10,11,11,12,12,13,13,14,14,15,15,16,16,17,17,18,18,19,19,20,20,21,21,22,22,25,25,26,26,27,27,28,28],"right_children":[2,4,6,8,10,12,14,16,-1,18,20,22,24,26,28,30,32,34,36,38,40,42,44,-1,-1,46,48,50,52,-1,-1,-1,-1,-1,-1,-1,-1,-1,-1,-1,-1,-1,-1,-1,-1,-1,-1,-1,-1,-1,-1,-1,-1],"split_conditions":[5E0,3E0,2.0689656E-1,7.0731705E-1,2.972973E-1,3E0,9E0,2E0,2.4539819E-2,4E0,3.2786885E-1,9E0,4E0,4.5238096E-1,3.0769232E-1,2.26E0,5.43243E5,4E0,8.42E0,9.43E0,7.49E0,5.7151E5,2.024E3,3.1622253E-2,-1.0992324E-2,7E0,3.96E0,2.92E-1,6.76974E5,-1.0980507E-2,-5.254151E-2,5.1901103E-3,-3.2706562E-2,-4.4376947E-2,-5.3258226E-3,3.0327875E-3,-2.8228493E-2,-2.258189E-2,6.7189187E-3,2.260266E-2,-4.6227607E-3,5.545869E-3,-4.115228E-2,-1.162263E-2,2.877849E-2,-1.1010015E-3,1.586829E-2,1.439587E-2,2.6884224E-2,2.230815E-2,-2.2436697E-2,3.94958E-2,-1.0125536E-3],"split_indices":[3,3,17,18,18,4,3,3,0,3,17,3,4,18,18,8,1,4,11,11,11,1,2,0,0,3,10,14,1,0,0,0,0,0,0,0,0,0,0,0,0,0,0,0,0,0,0,0,0,0,0,0,0],"split_type":[0,0,0,0,0,0,0,0,0,0,0,0,0,0,0,0,0,0,0,0,0,0,0,0,0,0,0,0,0,0,0,0,0,0,0,0,0,0,0,0,0,0,0,0,0,0,0,0,0,0,0,0,0],"sum_hessian":[6.7641943E2,2.7306433E2,4.0335513E2,7.6679794E1,1.9638452E2,2.7964912E1,3.753902E2,7.472232E1,1.9574761E0,4.6267864E1,1.5011665E2,2.3795471E1,4.1694407E0,3.2228476E2,5.310545E1,2.3123423E1,5.15989E1,2.0958593E1,2.5309269E1,7.347767E1,7.6638985E1,2.1348915E1,2.446556E0,2.9398313E0,1.2296095E0,1.7021959E2,1.5206517E2,6.575138E0,4.653031E1,1.2298677E0,2.1893555E1,5.1502757E0,4.6448624E1,1.8496756E1,2.4618378E0,9.08112E0,1.622815E1,4.6334633E1,2.7143034E1,1.3349474E1,6.3289513E1,3.9241176E0,1.7424797E1,1.2237378E0,1.2228184E0,1.0580899E2,6.44106E1,8.944755E1,6.2617626E1,4.8649693E0,1.7101692E0,4.483053E1,1.6997833E0],"tree_param":{"num_deleted":"0","num_feature":"22","num_nodes":"53","size_leaf_vector":"1"}},{"base_weights":[-4.5519415E-3,-9.208325E-1,2.8510812E-1,-1.2860171E0,-3.4247598E-1,7.01634E-2,6.8881273E-1,-1.536399E0,-9.8872924E-1,4.4869348E-1,-5.25862E-1,-1.9672398E-1,3.923986E-1,-1.8327036E-1,8.112879E-1,-1.5560645E0,-1.5408176E-2,-3.8002005E-1,-1.1189237E0,-1.7137708E-1,1.1451917E0,-1.0571721E0,-3.1817846E-2,1.19377665E-1,-3.6250463E-1,5.3216062E-2,5.5908704E-1,1.9647369E-1,-9.050201E-1,4.9201927E-1,1.0485003E0,-5.1753312E-2,-3.728217E-2,-3.0052904E-2,1.0213006E-2,-6.2645543E-3,-3.6400296E-2,1.3720759E-2,-3.190754E-2,4.2034674E-2,1.9004765E-3,-3.5683718E-2,7.3423437E-3,-3.1776235E-2,8.004818E-3,8.8614055E-5,2.7439201E-2,9.839607E-3,-1.4615579E-2,-4.6445285E-3,1.9467063E-2,1.2619118E-2,2.9013742E-2,3.1458225E-2,-2.3020464E-3,-3.802271E-2,4.640314E-3,-2.1389443E-2,1.6251413E-2,3.2292992E-2,7.2010764E-4],"categories":[],"categories_nodes":[],"categories_segments":[],"categories_sizes":[],"default_left":[0,0,0,0,0,0,0,0,0,0,0,0,0,0,0,0,0,0,0,0,0,0,0,0,0,0,0,0,0,0,0,0,0,0,0,0,0,0,0,0,0,0,0,0,0,0,0,0,0,0,0,0,0,0,0,0,0,0,0,0,0],"id":3,"left_children":[1,3,5,7,9,11,13,15,17,19,21,23,25,27,29,31,-1,33,35,37,39,41,43,45,47,49,51,53,55,57,59,-1,-1,-1,-1,-1,-1,-1,-1,-1,-1,-1,-1,-1,-1,-1,-1,-1,-1,-1,-1,-1,-1,-1,-1,-1,-1,-1,-1,-1,-1],"loss_changes":[1.8170197E2,3.4289993E1,4.509001E1,5.956604E0,9.667695E0,2.9365717E1,1.9440384E1,2.6100922E-1,3.4358978E0,5.7122555E0,1.3939869E1,9.839853E0,8.711964E0,6.4976015E0,1.1492691E1,5.692978E-1,0E0,4.864662E0,3.1513824E0,4.7646794E0,1.6130075E0,4.7032833E0,9.062598E0,6.0216393E0,1.0738581E1,6.5509844E0,5.4438286E0,3.7892284E0,3.317411E0,4.5464935E0,2.552185E0,0E0,0E0,0E0,0E0,0E0,0E0,0E0,0E0,0E0,0E0,0E0,0E0,0E0,0E0,0E0,0E0,0E0,0E0,0E0,0E0,0E0,0E0,0E0,0E0,0E0,0E0,0E0,0E0,0E0,0E0],"parents":[2147483647,0,0,1,1,2,2,3,3,4,4,5,5,6,6,7,7,8,8,9,9,10,10,11,11,12,12,13,13,14,14,15,15,17,17,18,18,19,19,20,20,21,21,22,22,23,23,24,24,25,25,26,26,27,27,28,28,29,29,30,30],"right_children":[2,4,6,8,10,12,14,16,18,20,22,24,26,28,30,32,-1,34,36,38,40,42,44,46,48,50,52,54,56,58,60,-1,-1,-1,-1,-1,-1,-1,-1,-1,-1,-1,-1,-1,-1,-1,-1,-1,-1,-1,-1,-1,-1,-1,-1,-1,-1,-1,-1,-1,-1],"split_conditions":[4E0,4.3589744E-1,7E0,3.0769232E-1,4.2857143E-1,4.390244E-1,2.2857143E-1,4.75E-1,3.409091E-1,3.265306E-1,3E0,8.14E0,5E0,2.86E-1,8E0,2.81E-1,-1.5408176E-2,6.56557E5,5.43243E5,6.64285E5,1.27E0,7.169811E-1,3.1914893E-1,3.4146342E-1,1E0,4.2E0,4E-1,3.6E0,2.972973E-1,5.02043E5,9E0,-5.1753312E-2,-3.728217E-2,-3.0052904E-2,1.0213006E-2,-6.2645543E-3,-3.6400296E-2,1.3720759E-2,-3.190754E-2,4.2034674E-2,1.9004765E-3,-3.5683718E-2,7.3423437E-3,-3.1776235E-2,8.004818E-3,8.8614055E-5,2.7439201E-2,9.839607E-3,-1.4615579E-2,-4.6445285E-3,1.9467063E-2,1.2619118E-2,2.9013742E-2,3.1458225E-2,-2.3020464E-3,-3.802271E-2,4.640314E-3,-2.1389443E-2,1.6251413E-2,3.2292992E-2,7.2010764E-4],"split_indices":[3,18,3,18,16,18,17,19,18,17,3,11,3,14,3,14,0,1,1,1,9,18,17,17,7,13,17,13,18,1,7,0,0,0,0,0,0,0,0,0,0,0,0,0,0,0,0,0,0,0,0,0,0,0,0,0,0,0,0,0,0],"split_type":[0,0,0,0,0,0,0,0,0,0,0,0,0,0,0,0,0,0,0,0,0,0,0,0,0,0,0,0,0,0,0,0,0,0,0,0,0,0,0,0,0,0,0,0,0,0,0,0,0,0,0,0,0,0,0,0,0,0,0,0,0],"sum_hessian":[6.8261975E2,1.6343799E2,5.1918176E2,9.943156E1,6.4006424E1,3.395622E2,1.7961954E2,5.1711235E1,4.7720318E1,1.1772112E1,5.2234314E1,1.85945E2,1.5361719E2,2.2058176E1,1.5756137E2,5.022418E1,1.4870559E0,9.0988E0,3.862152E1,6.626601E0,5.1455107E0,2.4618742E1,2.7615572E1,6.4066444E1,1.2187856E2,5.1052773E1,1.0256442E2,1.4930415E1,7.1277614E0,6.847446E1,8.908691E1,2.9696468E1,2.0527712E1,4.6743903E0,4.424409E0,3.9320722E0,3.4689445E1,4.1731687E0,2.4534326E0,3.9223297E0,1.2231811E0,2.2426418E1,2.192325E0,5.6459246E0,2.1969648E1,5.676059E1,7.3058543E0,1.8392021E1,1.0348654E2,3.838688E1,1.2665893E1,7.809663E1,2.4467794E1,2.9357452E0,1.199467E1,5.165276E0,1.9624857E0,2.183412E0,6.6291046E1,8.667308E1,2.4138274E0],"tree_param":{"num_deleted":"0","num_feature":"22","num_nodes":"61","size_leaf_vector":"1"}},{"base_weights":[1.4524836E-2,-5.7348186E-1,4.285447E-1,-8.2816833E-1,-2.2202821E-1,6.2362723E-2,7.1715146E-1,-1.0709003E0,-4.042319E-1,-3.9690992E-1,1.2982917E-1,-6.125007E-1,2.1316019E-1,5.6451696E-1,1.0803288E0,-5.0354105E-1,-1.2495706E0,4.159267E-1,-5.9358937E-1,-2.9662228E-1,-1.3436676E0,-2.9423937E-1,4.8769367E-1,-8.38559E-1,4.9322698E-1,1.1534844E-2,4.5672503E-1,3.7382275E-1,8.162231E-1,1.9444323E-1,1.1598302E0,4.755209E-3,-2.3173409E-2,-4.503324E-2,-3.278338E-2,-1.2798532E-2,2.6390629E-2,-2.9213456E-2,-7.571989E-3,-1.1236781E-2,2.802189E-2,-1.112146E-2,-4.7194514E-2,3.7818444E-3,-4.8441444E-2,3.56416E-2,4.942827E-3,-3.2702666E-2,1.3553568E-2,-1.1054224E-2,2.3508511E-2,8.3134025E-3,-6.753957E-3,1.7691344E-3,1.906212E-2,1.4703417E-2,-1.184497E-2,1.6259292E-2,3.557252E-2,2.9739467E-2,-6.7982906E-3,1.279008E-2,3.8181867E-2],"categories":[],"categories_nodes":[],"categories_segments":[],"categories_sizes":[],"default_left":[0,0,0,0,0,0,0,0,0,0,0,0,0,0,0,0,0,0,0,0,0,0,0,0,0,0,0,0,0,0,0,0,0,0,0,0,0,0,0,0,0,0,0,0,0,0,0,0,0,0,0,0,0,0,0,0,0,0,0,0,0,0,0],"id":4,"left_children":[1,3,5,7,9,11,13,15,17,19,21,23,25,27,29,31,33,35,37,39,41,43,45,47,49,51,53,55,57,59,61,-1,-1,-1,-1,-1,-1,-1,-1,-1,-1,-1,-1,-1,-1,-1,-1,-1,-1,-1,-1,-1,-1,-1,-1,-1,-1,-1,-1,-1,-1,-1,-1],"loss_changes":[1.6510464E2,2.489962E1,4.201248E1,1.6249435E1,7.3809304E0,1.8092596E1,1.1721703E1,9.759659E0,9.663346E0,7.179497E0,6.259368E0,8.535746E0,7.1158295E0,7.3134613E0,4.33358E0,4.790253E0,1.406868E0,5.048934E0,6.1975193E0,7.395025E0,1.0604067E0,1.0786011E1,4.832505E0,9.368799E0,1.8264513E0,5.113263E0,4.628086E0,8.430775E0,6.2052345E0,2.4163976E0,4.359848E0,0E0,0E0,0E0,0E0,0E0,0E0,0E0,0E0,0E0,0E0,0E0,0E0,0E0,0E0,0E0,0E0,0E0,0E0,0E0,0E0,0E0,0E0,0E0,0E0,0E0,0E0,0E0,0E0,0E0,0E0,0E0,0E0],"parents":[2147483647,0,0,1,1,2,2,3,3,4,4,5,5,6,6,7,7,8,8,9,9,10,10,11,11,12,12,13,13,14,14,15,15,16,16,17,17,18,18,19,19,20,20,21,21,22,22,23,23,24,24,25,25,26,26,27,27,28,28,29,29,30,30],"right_children":[2,4,6,8,10,12,14,16,18,20,22,24,26,28,30,32,34,36,38,40,42,44,46,48,50,52,54,56,58,60,62,-1,-1,-1,-1,-1,-1,-1,-1,-1,-1,-1,-1,-1,-1,-1,-1,-1,-1,-1,-1,-1,-1,-1,-1,-1,-1,-1,-1,-1,-1,-1,-1],"split_conditions":[5E0,4E0,3.0952382E-1,4.4444445E-1,4.857143E-1,2.0930232E-1,8E0,3.15E0,7.65E0,4.5945945E-1,2E-1,3E0,7E0,5.2380955E-1,3.5135135E-1,2.1621622E-1,6.21107E5,5.116279E-1,9.12E0,4.390244E-1,3.46E0,9.69E0,6.666667E-1,4.54E0,3.15E0,8.55E0,2.5641027E-1,8.5714287E-1,3.88E0,3.56E0,3.2E0,4.755209E-3,-2.3173409E-2,-4.503324E-2,-3.278338E-2,-1.2798532E-2,2.6390629E-2,-2.9213456E-2,-7.571989E-3,-1.1236781E-2,2.802189E-2,-1.112146E-2,-4.7194514E-2,3.7818444E-3,-4.8441444E-2,3.56416E-2,4.942827E-3,-3.2702666E-2,1.3553568E-2,-1.1054224E-2,2.3508511E-2,8.3134025E-3,-6.753957E-3,1.7691344E-3,1.906212E-2,1.4703417E-2,-1.184497E-2,1.6259292E-2,3.557252E-2,2.9739467E-2,-6.7982906E-3,1.279008E-2,3.8181867E-2],"split_indices":[3,3,17,18,18,17,3,8,11,18,19,4,3,18,18,19,1,18,11,18,13,11,16,10,8,11,17,16,10,13,10,0,0,0,0,0,0,0,0,0,0,0,0,0,0,0,0,0,0,0,0,0,0,0,0,0,0,0,0,0,0,0,0],"split_type":[0,0,0,0,0,0,0,0,0,0,0,0,0,0,0,0,0,0,0,0,0,0,0,0,0,0,0,0,0,0,0,0,0,0,0,0,0,0,0,0,0,0,0,0,0,0,0,0,0,0,0,0,0,0,0,0,0,0,0,0,0,0,0],"sum_hessian":[6.7618744E2,2.7922968E2,3.9695773E2,1.6111717E2,1.18112495E2,1.7550037E2,2.2145738E2,1.0148445E2,5.9632732E1,7.8812645E1,3.9299854E1,3.1493933E1,1.4400644E2,1.5772417E2,6.3733208E1,2.5219465E1,7.6264984E1,1.0961029E1,4.8671703E1,7.2451355E1,6.3612857E0,1.8067593E1,2.1232262E1,2.634874E1,5.1451926E0,7.935935E1,6.464709E1,9.115199E1,6.657218E1,5.5323086E0,5.8200897E1,7.403226E0,1.781624E1,2.5992193E1,5.027279E1,3.9197886E0,7.0412407E0,2.2143175E1,2.6528526E1,6.879062E1,3.660737E0,1.713194E0,4.648092E0,1.4391411E1,3.6761823E0,5.8550935E0,1.5377169E1,2.2180283E1,4.1684575E0,1.2290946E0,3.9160984E0,3.7314976E1,4.2044376E1,2.0451172E1,4.4195915E1,7.948843E1,1.1663567E1,3.962842E1,2.6943756E1,1.4443676E0,4.0879407E0,8.400405E0,4.9800495E1],"tree_param":{"num_deleted":"0","num_feature":"22","num_nodes":"63","size_leaf_vector":"1"}},{"base_weights":[1.3186668E-2,-5.661492E-1,4.2382044E-1,-1.0936271E0,-3.5530007E-1,-7.1301895E-1,4.9461925E-1,-1.3192031E0,-6.2055296E-1,-9.2609507E-1,-1.5412325E-1,-1.4476453E0,-1.3809632E-1,3.9708456E-1,1.0471938E0,1.28126545E-2,-1.3856609E0,5.443217E-1,-9.7410905E-1,-1.1938468E0,-6.652991E-1,-3.5470492E-1,1.556205E-1,-3.9872423E-1,-5.7378903E-2,8.9879405E-1,-5.1214284E-1,2.9014677E-1,8.5127497E-1,1.0809246E0,1.8536102E-3,-5.112534E-2,-3.0349476E-2,-9.756838E-3,3.0039664E-2,5.799228E-4,-3.6915295E-2,-6.304035E-3,-4.0718447E-2,-3.0554384E-2,-7.983519E-3,4.95439E-3,-1.4645134E-2,-1.642662E-2,9.295468E-3,8.563734E-3,-3.6013763E-2,3.5917982E-2,2.9617064E-3,-2.8091267E-2,2.587603E-2,5.547047E-3,1.6694525E-2,2.9134352E-2,1.0429942E-2,3.363462E-2,-6.814441E-3],"categories":[],"categories_nodes":[],"categories_segments":[],"categories_sizes":[],"default_left":[0,0,0,0,0,0,0,0,0,0,0,0,0,0,0,0,0,0,0,0,0,0,0,0,0,0,0,0,0,0,0,0,0,0,0,0,0,0,0,0,0,0,0,0,0,0,0,0,0,0,0,0,0,0,0,0,0],"id":5,"left_children":[1,3,5,7,9,11,13,15,17,19,21,23,25,27,29,-1,31,33,35,37,39,41,43,45,-1,47,49,51,53,55,-1,-1,-1,-1,-1,-1,-1,-1,-1,-1,-1,-1,-1,-1,-1,-1,-1,-1,-1,-1,-1,-1,-1,-1,-1,-1,-1],"loss_changes":[1.6283047E2,3.118869E1,3.2590393E1,7.782547E0,2.3319633E1,9.89062E0,1.9937294E1,6.822563E0,1.2025712E1,2.909912E0,9.515855E0,4.3016834E0,6.0871167E0,1.5421555E1,1.7961159E0,0E0,4.4654083E0,3.1632307E0,5.5693474E0,3.7205353E0,3.835967E0,6.5143642E0,6.7358503E0,2.7850437E0,0E0,8.8692665E-1,7.3969097E0,7.258936E0,3.3425217E0,3.10318E0,0E0,0E0,0E0,0E0,0E0,0E0,0E0,0E0,0E0,0E0,0E0,0E0,0E0,0E0,0E0,0E0,0E0,0E0,0E0,0E0,0E0,0E0,0E0,0E0,0E0,0E0,0E0],"parents":[2147483647,0,0,1,1,2,2,3,3,4,4,5,5,6,6,7,7,8,8,9,9,10,10,11,11,12,12,13,13,14,14,16,16,17,17,18,18,19,19,20,20,21,21,22,22,23,23,25,25,26,26,27,27,28,28,29,29],"right_children":[2,4,6,8,10,12,14,16,18,20,22,24,26,28,30,-1,32,34,36,38,40,42,44,46,-1,48,50,52,54,56,-1,-1,-1,-1,-1,-1,-1,-1,-1,-1,-1,-1,-1,-1,-1,-1,-1,-1,-1,-1,-1,-1,-1,-1,-1,-1,-1],"split_conditions":[5E0,3E0,1.875E-1,4.5454547E-1,2.972973E-1,3.63E0,9E0,5.18876E5,4.2857143E-1,4E0,4.857143E-1,1E-1,3.84E0,5.75E-1,3.08E-1,1.28126545E-2,2.56E0,1.14E0,5E0,3.12E0,3.81E0,3.409091E-1,6.25E-2,3E0,-5.7378903E-2,2.8E-1,1.5625E-1,4.48E0,2.91E-1,9E0,1.8536102E-3,-5.112534E-2,-3.0349476E-2,-9.756838E-3,3.0039664E-2,5.799228E-4,-3.6915295E-2,-6.304035E-3,-4.0718447E-2,-3.0554384E-2,-7.983519E-3,4.95439E-3,-1.4645134E-2,-1.642662E-2,9.295468E-3,8.563734E-3,-3.6013763E-2,3.5917982E-2,2.9617064E-3,-2.8091267E-2,2.587603E-2,5.547047E-3,1.6694525E-2,2.9134352E-2,1.0429942E-2,3.363462E-2,-6.814441E-3],"split_indices":[3,3,18,18,18,13,3,1,16,3,18,16,13,18,14,0,12,9,5,10,13,18,20,7,0,14,18,15,14,5,0,0,0,0,0,0,0,0,0,0,0,0,0,0,0,0,0,0,0,0,0,0,0,0,0,0,0],"split_type":[0,0,0,0,0,0,0,0,0,0,0,0,0,0,0,0,0,0,0,0,0,0,0,0,0,0,0,0,0,0,0,0,0,0,0,0,0,0,0,0,0,0,0,0,0,0,0,0,0,0,0,0,0,0,0,0,0],"sum_hessian":[6.8245544E2,2.8292154E2,3.9953387E2,7.96002E1,2.0332133E2,2.2891214E1,3.7664267E2,5.268827E1,2.6911924E1,5.204675E1,1.512746E2,9.383348E0,1.3507865E1,3.2159644E2,5.5046234E1,1.7326794E0,5.0955593E1,6.140621E0,2.0771303E1,2.391559E1,2.8131157E1,9.172852E1,5.9546066E1,3.4525428E0,5.930806E0,3.209089E0,1.0298776E1,2.6163425E2,5.996219E1,5.313062E1,1.9156158E0,2.5598665E1,2.5356926E1,2.214797E0,3.9258244E0,4.4508476E0,1.6320456E1,3.7329197E0,2.018267E1,1.41024475E1,1.402871E1,1.869073E1,7.3037796E1,1.0252323E1,4.9293743E1,2.2102852E0,1.2422575E0,1.9756193E0,1.2334698E0,8.113688E0,2.185088E0,1.8874464E2,7.288962E1,4.7684002E1,1.2278187E1,5.1683987E1,1.4466308E0],"tree_param":{"num_deleted":"0","num_feature":"22","num_nodes":"57","size_leaf_vector":"1"}},{"base_weights":[2.1736598E-2,-5.39754E-1,4.1200662E-1,-7.937072E-1,-1.9219102E-1,-6.9704586E-1,5.080506E-1,-9.556284E-1,-3.7301707E-1,-2.5732467E-1,4.8286965E-1,-9.530826E-1,9.060837E-2,3.5550943E-1,9.373599E-1,-5.4218864E-1,-1.0658395E0,1.8838851E-1,-6.597888E-1,-4.7753528E-1,5.2860238E-2,7.395327E-1,-1.0711377E-2,-1.1155971E0,3.6381647E-1,-5.82661E-1,8.957673E-1,2.982611E-1,1.0442234E0,-1.6798426E-1,9.9521E-1,-2.5319666E-2,1.7155895E-2,-3.5957184E-2,-1.55944E-2,-1.5554827E-2,2.3639552E-2,-9.262167E-3,-3.1280544E-2,-1.12486435E-2,-5.2883577E-2,1.6618913E-2,-8.374279E-3,5.5366354E-3,3.4983106E-2,-5.3074136E-2,-2.0904765E-2,1.5366741E-2,1.535611E-3,1.5778728E-2,-3.0958695E-2,6.682245E-3,3.4615725E-2,6.064258E-3,1.669528E-2,3.5757538E-2,-7.6235156E-3,-2.4472138E-2,3.0166425E-2,3.699958E-2,2.4552844E-2],"categories":[],"categories_nodes":[],"categories_segments":[],"categories_sizes":[],"default_left":[0,0,0,0,0,0,0,0,0,0,0,0,0,0,0,0,0,0,0,0,0,0,0,0,0,0,0,0,0,0,0,0,0,0,0,0,0,0,0,0,0,0,0,0,0,0,0,0,0,0,0,0,0,0,0,0,0,0,0,0,0],"id":6,"left_children":[1,3,5,7,9,11,13,15,17,19,21,23,25,27,29,31,33,35,37,39,41,43,-1,45,47,49,51,53,55,57,59,-1,-1,-1,-1,-1,-1,-1,-1,-1,-1,-1,-1,-1,-1,-1,-1,-1,-1,-1,-1,-1,-1,-1,-1,-1,-1,-1,-1,-1,-1],"loss_changes":[1.4867091E2,2.4404114E1,4.2984703E1,1.0572273E1,5.346871E0,6.603959E0,2.3825142E1,4.6716156E0,7.5670047E0,7.4691925E0,2.5921853E0,5.6443005E0,5.314799E0,1.0483837E1,6.312378E0,9.319461E0,5.894348E0,7.3630915E0,3.8209286E0,7.754855E0,7.831948E0,1.8201413E0,0E0,4.7975864E0,1.3351947E-1,3.2429547E0,5.1083183E-1,6.197077E0,4.255533E0,5.1038527E0,2.8407822E0,0E0,0E0,0E0,0E0,0E0,0E0,0E0,0E0,0E0,0E0,0E0,0E0,0E0,0E0,0E0,0E0,0E0,0E0,0E0,0E0,0E0,0E0,0E0,0E0,0E0,0E0,0E0,0E0,0E0,0E0],"parents":[2147483647,0,0,1,1,2,2,3,3,4,4,5,5,6,6,7,7,8,8,9,9,10,10,11,11,12,12,13,13,14,14,15,15,16,16,17,17,18,18,19,19,20,20,21,21,23,23,24,24,25,25,26,26,27,27,28,28,29,29,30,30],"right_children":[2,4,6,8,10,12,14,16,18,20,22,24,26,28,30,32,34,36,38,40,42,44,-1,46,48,50,52,54,56,58,60,-1,-1,-1,-1,-1,-1,-1,-1,-1,-1,-1,-1,-1,-1,-1,-1,-1,-1,-1,-1,-1,-1,-1,-1,-1,-1,-1,-1,-1,-1],"split_conditions":[5E0,4E0,2.0930232E-1,3.4285715E-1,3.07E-1,4.49E0,8E0,5E0,8.52E0,3.265306E-1,1.4E-1,9E0,2E-1,4.2105263E-1,2.2857143E-1,4.52E0,1.047E1,1.25E0,3E0,1.5625E-1,2.72E-1,2.96E0,-1.0711377E-2,1.7073171E-1,1.16E0,1.28E0,1.29E0,3E0,2.95E-1,1.24E0,2E-1,-2.5319666E-2,1.7155895E-2,-3.5957184E-2,-1.55944E-2,-1.5554827E-2,2.3639552E-2,-9.262167E-3,-3.1280544E-2,-1.12486435E-2,-5.2883577E-2,1.6618913E-2,-8.374279E-3,5.5366354E-3,3.4983106E-2,-5.3074136E-2,-2.0904765E-2,1.5366741E-2,1.535611E-3,1.5778728E-2,-3.0958695E-2,6.682245E-3,3.4615725E-2,6.064258E-3,1.669528E-2,3.5757538E-2,-7.6235156E-3,-2.4472138E-2,3.0166425E-2,3.699958E-2,2.4552844E-2],"split_indices":[3,3,17,17,14,15,3,5,11,17,20,3,16,17,17,15,11,9,4,20,14,8,0,17,9,9,9,4,14,9,19,0,0,0,0,0,0,0,0,0,0,0,0,0,0,0,0,0,0,0,0,0,0,0,0,0,0,0,0,0,0],"split_type":[0,0,0,0,0,0,0,0,0,0,0,0,0,0,0,0,0,0,0,0,0,0,0,0,0,0,0,0,0,0,0,0,0,0,0,0,0,0,0,0,0,0,0,0,0,0,0,0,0,0,0,0,0,0,0,0,0,0,0,0,0],"sum_hessian":[6.764359E2,2.772159E2,3.9922003E2,1.5943684E2,1.1777906E2,3.1318392E1,3.6790164E2,1.1420747E2,4.5229366E1,1.07979416E2,9.799649E0,2.3476906E1,7.841486E0,2.7279932E2,9.510231E1,2.5282742E1,8.892473E1,1.5408201E1,2.9821167E1,6.2832794E1,4.5146618E1,7.597504E0,2.202145E0,2.1034021E1,2.4428835E0,4.421006E0,3.42048E0,2.5318663E2,1.9612696E1,4.635119E0,9.046719E1,2.0084263E1,5.1984773E0,7.057386E1,1.8350868E1,7.1335278E0,8.274673E0,1.649991E1,1.3321257E1,5.9384815E1,3.44798E0,1.7725042E1,2.7421576E1,3.924408E0,3.673096E0,6.9551415E0,1.407888E1,1.2235922E0,1.2192914E0,1.2257905E0,3.1952157E0,1.4645054E0,1.9559746E0,1.858111E2,6.737555E1,1.7683098E1,1.9295977E0,3.1830556E0,1.4520632E0,3.60008E1,5.4466393E1],"tree_param":{"num_deleted":"0","num_feature":"22","num_nodes":"61","size_leaf_vector":"1"}},{"base_weights":[9.958932E-3,-8.079037E-1,2.714002E-1,-1.10741E0,-3.7580565E-1,2.4337795E-2,5.7293564E-1,-6.070809E-1,-1.2031465E0,-4.7501057E-1,5.5399436E-1,-1.7106126E-1,4.0235263E-1,4.3172842E-1,1.0180023E0,3.0523706E-2,-7.917796E-1,-1.3020184E0,-5.3788334E-1,-1.0977292E0,-2.2610898E-1,-7.1879044E-2,3.7378624E-2,-8.9387275E-2,-1.1826122E0,-1.0472734E0,4.7099435E-1,9.070924E-1,3.1707698E-1,-2.052861E-2,1.0756109E0,-3.6856655E-2,-9.411959E-3,-4.230637E-2,-1.890438E-2,1.4469454E-2,-2.6430119E-2,1.1432122E-2,-3.8389366E-2,-2.2348607E-2,6.783282E-3,1.8369474E-2,-2.7868923E-2,-1.4396161E-2,1.7663081E-3,7.0622056E-3,-4.1005593E-2,-4.1439198E-2,-8.9257965E-3,1.17530385E-2,3.869499E-2,3.0281918E-2,2.2644752E-3,2.4791586E-3,1.5728919E-2,2.4485486E-2,4.2022925E-2],"categories":[],"categories_nodes":[],"categories_segments":[],"categories_sizes":[],"default_left":[0,0,0,0,0,0,0,0,0,0,0,0,0,0,0,0,0,0,0,0,0,0,0,0,0,0,0,0,0,0,0,0,0,0,0,0,0,0,0,0,0,0,0,0,0,0,0,0,0,0,0,0,0,0,0,0,0],"id":7,"left_children":[1,3,5,7,9,11,13,15,17,19,21,23,25,27,29,-1,31,33,35,37,39,41,-1,43,45,47,49,51,53,-1,55,-1,-1,-1,-1,-1,-1,-1,-1,-1,-1,-1,-1,-1,-1,-1,-1,-1,-1,-1,-1,-1,-1,-1,-1,-1,-1],"loss_changes":[1.4624913E2,2.1025826E1,3.8595764E1,3.9322128E0,6.6592493E0,2.1186995E1,1.4226219E1,6.102343E0,4.607025E0,9.546683E0,3.1846547E0,1.5523996E1,1.02174E1,9.462006E0,6.175682E0,0E0,3.0416136E0,4.1667175E0,4.6760325E0,5.272543E0,1.105721E1,3.3237965E0,0E0,1.0225281E1,3.992918E0,7.732148E-1,5.592602E0,2.8355122E0,7.0331E0,0E0,3.4153824E0,0E0,0E0,0E0,0E0,0E0,0E0,0E0,0E0,0E0,0E0,0E0,0E0,0E0,0E0,0E0,0E0,0E0,0E0,0E0,0E0,0E0,0E0,0E0,0E0,0E0,0E0],"parents":[2147483647,0,0,1,1,2,2,3,3,4,4,5,5,6,6,7,7,8,8,9,9,10,10,11,11,12,12,13,13,14,14,16,16,17,17,18,18,19,19,20,20,21,21,23,23,24,24,25,25,26,26,27,27,28,28,30,30],"right_children":[2,4,6,8,10,12,14,16,18,20,22,24,26,28,30,-1,32,34,36,38,40,42,-1,44,46,48,50,52,54,-1,56,-1,-1,-1,-1,-1,-1,-1,-1,-1,-1,-1,-1,-1,-1,-1,-1,-1,-1,-1,-1,-1,-1,-1,-1,-1,-1],"split_conditions":[4E0,3.1914893E-1,3.265306E-1,2.94E0,3.7E0,7E0,8E0,1.4285715E-1,4.5714286E-1,1.8367347E-1,8.5714287E-1,1.4545454E-1,1.5789473E-1,7.49E0,3E0,3.0523706E-2,3E0,4E0,4.2857143E-1,1.02E0,3E0,2.1428572E-1,3.7378624E-2,2.3809524E-1,2.59E-1,1.4285715E-1,5.277778E-1,6.63903E5,5.1282054E-1,-2.052861E-2,2.69E0,-3.6856655E-2,-9.411959E-3,-4.230637E-2,-1.890438E-2,1.4469454E-2,-2.6430119E-2,1.1432122E-2,-3.8389366E-2,-2.2348607E-2,6.783282E-3,1.8369474E-2,-2.7868923E-2,-1.4396161E-2,1.7663081E-3,7.0622056E-3,-4.1005593E-2,-4.1439198E-2,-8.9257965E-3,1.17530385E-2,3.869499E-2,3.0281918E-2,2.2644752E-3,2.4791586E-3,1.5728919E-2,2.4485486E-2,4.2022925E-2],"split_indices":[3,17,17,8,12,3,3,19,18,19,16,20,17,11,13,0,3,4,16,9,3,19,0,17,14,17,18,1,18,0,12,0,0,0,0,0,0,0,0,0,0,0,0,0,0,0,0,0,0,0,0,0,0,0,0,0,0],"split_type":[0,0,0,0,0,0,0,0,0,0,0,0,0,0,0,0,0,0,0,0,0,0,0,0,0,0,0,0,0,0,0,0,0,0,0,0,0,0,0,0,0,0,0,0,0,0,0,0,0,0,0,0,0,0,0,0,0],"sum_hessian":[6.8194714E2,1.646827E2,5.1726447E2,9.634136E1,6.834133E1,2.849071E2,2.3235735E2,1.6652866E1,7.96885E1,6.2194614E1,6.1467223E0,1.8818182E2,9.672529E1,1.7788835E2,5.446899E1,1.2397515E0,1.5413115E1,6.854424E1,1.1144257E1,1.6786566E1,4.5408047E1,3.698014E0,2.4487083E0,1.7512996E2,1.3051863E1,3.7284327E0,9.299686E1,3.3224075E1,1.4466428E2,1.4269058E0,5.3042084E1,7.23385E0,8.179264E0,5.8090755E1,1.0453486E1,2.7026906E0,8.441566E0,1.7188954E0,1.5067671E1,2.0844805E1,2.456324E1,2.2152252E0,1.4827888E0,4.758041E1,1.27549545E2,1.4688764E0,1.1582986E1,1.9965492E0,1.7318833E0,8.6140785E1,6.856073E0,2.9394207E1,3.8298688E0,6.853083E1,7.6133446E1,3.1455238E1,2.1586847E1],"tree_param":{"num_deleted":"0","num_feature":"22","num_nodes":"57","size_leaf_vector":"1"}},{"base_weights":[1.7917367E-3,-4.9280483E-1,3.503231E-1,-9.860834E-1,-3.115422E-1,3.7106402E-2,6.7437285E-1,-1.2602208E0,-5.327273E-1,-7.895254E-1,-1.3846903E-1,-2.2806026E-1,3.7827995E-1,5.264167E-1,1.0381618E0,-4.6762657E-1,-1.3506753E0,-1.2466952E0,-1.8337423E-1,-1.1724715E0,-4.6010268E-1,3.4257527E-2,-1.7740269E-1,-8.03282E-1,-1.0907271E-1,-1.5264593E-1,5.919732E-1,9.1834795E-1,4.336147E-1,7.475889E-1,1.3892115E0,-2.0383517E-3,-3.439548E-2,-6.483393E-4,-4.2027306E-2,-4.6013523E-2,1.3856549E-3,1.7231796E-2,-1.9556677E-2,-3.876147E-2,1.793012E-2,-1.7072557E-2,3.1065738E-2,9.937185E-3,-7.349157E-3,-3.3283893E-2,7.950109E-3,-2.968606E-2,-1.6038581E-3,-1.6090361E-2,1.9418245E-2,2.2487972E-2,-1.1233042E-2,3.2010537E-2,2.1902965E-3,-9.7487634E-4,1.5537705E-2,2.2519014E-3,2.516093E-2,4.269337E-2,1.1667406E-2],"categories":[],"categories_nodes":[],"categories_segments":[],"categories_sizes":[],"default_left":[0,0,0,0,0,0,0,0,0,0,0,0,0,0,0,0,0,0,0,0,0,0,0,0,0,0,0,0,0,0,0,0,0,0,0,0,0,0,0,0,0,0,0,0,0,0,0,0,0,0,0,0,0,0,0,0,0,0,0,0,0],"id":8,"left_children":[1,3,5,7,9,11,13,15,17,19,21,23,25,27,29,31,33,35,37,39,41,-1,43,45,47,49,51,53,55,57,59,-1,-1,-1,-1,-1,-1,-1,-1,-1,-1,-1,-1,-1,-1,-1,-1,-1,-1,-1,-1,-1,-1,-1,-1,-1,-1,-1,-1,-1,-1],"loss_changes":[1.17011604E2,2.4782013E1,4.0390377E1,8.642426E0,1.6986732E1,1.8499886E1,9.984436E0,2.6640778E0,7.247161E0,6.3640747E0,7.8263774E0,7.7937217E0,1.0231886E1,4.7343864E0,4.6266785E0,1.6148142E0,2.6891174E0,3.661847E0,7.9354343E0,5.992073E0,5.6526265E0,0E0,5.2119107E0,6.698271E0,4.675485E0,8.464773E0,1.0020725E1,3.2049732E0,4.5750027E0,1.931591E0,2.599411E-1,0E0,0E0,0E0,0E0,0E0,0E0,0E0,0E0,0E0,0E0,0E0,0E0,0E0,0E0,0E0,0E0,0E0,0E0,0E0,0E0,0E0,0E0,0E0,0E0,0E0,0E0,0E0,0E0,0E0,0E0],"parents":[2147483647,0,0,1,1,2,2,3,3,4,4,5,5,6,6,7,7,8,8,9,9,10,10,11,11,12,12,13,13,14,14,15,15,16,16,17,17,18,18,19,19,20,20,22,22,23,23,24,24,25,25,26,26,27,27,28,28,29,29,30,30],"right_children":[2,4,6,8,10,12,14,16,18,20,22,24,26,28,30,32,34,36,38,40,42,-1,44,46,48,50,52,54,56,58,60,-1,-1,-1,-1,-1,-1,-1,-1,-1,-1,-1,-1,-1,-1,-1,-1,-1,-1,-1,-1,-1,-1,-1,-1,-1,-1,-1,-1,-1,-1],"split_conditions":[5E0,2.972973E-1,4.390244E-1,4E0,3E0,7E0,8E0,3.02E0,2.2916667E-1,3.63E0,2E0,2.0930232E-1,2.3809524E-1,7.48E0,2.59E0,1E1,3E0,4.14E0,2.8E-1,2.025E3,6.923077E-1,3.4257527E-2,3.2E0,4.49E0,1.7142858E-1,4.15E0,8E0,1.2E0,1.5555556E-1,5.7151E5,4.85E0,-2.0383517E-3,-3.439548E-2,-6.483393E-4,-4.2027306E-2,-4.6013523E-2,1.3856549E-3,1.7231796E-2,-1.9556677E-2,-3.876147E-2,1.793012E-2,-1.7072557E-2,3.1065738E-2,9.937185E-3,-7.349157E-3,-3.3283893E-2,7.950109E-3,-2.968606E-2,-1.6038581E-3,-1.6090361E-2,1.9418245E-2,2.2487972E-2,-1.1233042E-2,3.2010537E-2,2.1902965E-3,-9.7487634E-4,1.5537705E-2,2.2519014E-3,2.516093E-2,4.269337E-2,1.1667406E-2],"split_indices":[3,18,18,3,3,3,3,10,19,10,5,17,17,11,12,5,5,8,19,2,18,0,13,15,18,10,5,16,19,1,13,0,0,0,0,0,0,0,0,0,0,0,0,0,0,0,0,0,0,0,0,0,0,0,0,0,0,0,0,0,0],"split_type":[0,0,0,0,0,0,0,0,0,0,0,0,0,0,0,0,0,0,0,0,0,0,0,0,0,0,0,0,0,0,0,0,0,0,0,0,0,0,0,0,0,0,0,0,0,0,0,0,0,0,0,0,0,0,0,0,0,0,0,0,0],"sum_hessian":[6.767893E2,2.7959937E2,3.9718994E2,7.3940765E1,2.056586E2,2.0253766E2,1.946523E2,4.4968967E1,2.89718E1,5.372428E1,1.5193431E2,1.1414979E2,8.838787E1,1.4011383E2,5.453847E1,5.2383614E0,3.9730606E1,8.674752E0,2.0297047E1,2.3660429E1,3.0063854E1,3.6476178E0,1.482867E2,1.8579569E1,9.557022E1,2.5447824E1,6.294005E1,2.5121653E1,1.1499217E2,3.155181E1,2.298666E1,3.989633E0,1.248728E0,1.4991008E0,3.8231506E1,6.946035E0,1.7287171E0,7.668375E0,1.2628673E1,2.2416245E1,1.2441858E0,2.8599388E1,1.4644643E0,1.693119E1,1.3135551E2,1.441076E1,4.1688094E0,4.679984E0,9.0890236E1,1.7420975E1,8.02685E0,5.43067E1,8.6333475E0,2.1141287E1,3.9803658E0,1.7707718E1,9.7284454E1,3.982035E0,2.7569775E1,2.182433E1,1.16233E0],"tree_param":{"num_deleted":"0","num_feature":"22","num_nodes":"61","size_leaf_vector":"1"}},{"base_weights":[-2.782082E-2,-5.381622E-1,3.346623E-1,-1.0338734E0,-3.608798E-1,1.1202964E-1,6.513511E-1,-1.2362907E0,-6.800244E-1,-8.2739276E-1,-1.7920105E-1,-1.0110782E-1,3.9289698E-1,5.2894187E-1,9.498624E-1,-1.523262E0,-9.6521294E-1,3.8675746E-1,-9.733354E-1,-3.9257196E-1,-9.7948825E-1,-3.6459768E-1,9.998429E-2,-2.411777E-1,3.236353E-1,1.508364E-2,5.9332985E-1,4.6531183E-1,4.299701E-2,3.7736344E-1,1.1224978E0,-4.785334E-2,-7.183527E-3,2.9006444E-3,-3.2843806E-2,-1.1587576E-2,3.8115956E-2,-3.364071E-2,-3.4642345E-3,-3.815328E-2,3.664037E-3,-3.2882497E-2,-7.0343716E-3,4.4808043E-3,-1.5622311E-2,1.4184568E-2,-5.9785834E-3,-1.1154609E-2,4.805346E-3,2.7596788E-2,4.356278E-3,8.920991E-3,-1.6468659E-2,2.2739792E-2,-3.8199138E-4,2.023993E-2,7.509158E-3,-2.7236884E-2,1.9919103E-2,3.496325E-2,-1.7575207E-3],"categories":[],"categories_nodes":[],"categories_segments":[],"categories_sizes":[],"default_left":[0,0,0,0,0,0,0,0,0,0,0,0,0,0,0,0,0,0,0,0,0,0,0,0,0,0,0,0,0,0,0,0,0,0,0,0,0,0,0,0,0,0,0,0,0,0,0,0,0,0,0,0,0,0,0,0,0,0,0,0,0],"id":9,"left_children":[1,3,5,7,9,11,13,15,17,19,21,23,25,27,29,31,33,35,37,39,41,43,45,47,49,51,53,55,-1,57,59,-1,-1,-1,-1,-1,-1,-1,-1,-1,-1,-1,-1,-1,-1,-1,-1,-1,-1,-1,-1,-1,-1,-1,-1,-1,-1,-1,-1,-1,-1],"loss_changes":[1.243536E2,2.4158875E1,2.76422E1,4.3878174E0,1.7408989E1,1.3929922E1,5.419403E0,2.0469208E0,9.383426E0,3.4370613E0,7.8194337E0,7.973905E0,7.587474E0,6.0761566E0,4.110203E0,1.4843559E0,3.6807423E0,5.220581E0,2.7736015E0,7.6870537E0,3.4035988E0,7.346755E0,6.877105E0,5.322763E0,3.413399E0,5.8628235E0,6.548012E0,4.8259354E0,0E0,5.0727186E0,1.8302345E0,0E0,0E0,0E0,0E0,0E0,0E0,0E0,0E0,0E0,0E0,0E0,0E0,0E0,0E0,0E0,0E0,0E0,0E0,0E0,0E0,0E0,0E0,0E0,0E0,0E0,0E0,0E0,0E0,0E0,0E0],"parents":[2147483647,0,0,1,1,2,2,3,3,4,4,5,5,6,6,7,7,8,8,9,9,10,10,11,11,12,12,13,13,14,14,15,15,16,16,17,17,18,18,19,19,20,20,21,21,22,22,23,23,24,24,25,25,26,26,27,27,29,29,30,30],"right_children":[2,4,6,8,10,12,14,16,18,20,22,24,26,28,30,32,34,36,38,40,42,44,46,48,50,52,54,56,-1,58,60,-1,-1,-1,-1,-1,-1,-1,-1,-1,-1,-1,-1,-1,-1,-1,-1,-1,-1,-1,-1,-1,-1,-1,-1,-1,-1,-1,-1,-1,-1],"split_conditions":[5E0,2.972973E-1,3.4042552E-1,4E0,3E0,7E0,8E0,2.76E-1,8.01E0,2.72E-1,4.857143E-1,4.5238096E-1,2.5641027E-1,1.8867925E-1,3.617021E-1,1.923077E-1,1.99E0,1E0,3.2608697E-1,2E0,3.61E0,7.89E0,7.5E-1,4.22E0,4.2857143E-1,2.86E-1,1.1627907E-1,8.89E0,4.299701E-2,5.79328E5,6.76974E5,-4.785334E-2,-7.183527E-3,2.9006444E-3,-3.2843806E-2,-1.1587576E-2,3.8115956E-2,-3.364071E-2,-3.4642345E-3,-3.815328E-2,3.664037E-3,-3.2882497E-2,-7.0343716E-3,4.4808043E-3,-1.5622311E-2,1.4184568E-2,-5.9785834E-3,-1.1154609E-2,4.805346E-3,2.7596788E-2,4.356278E-3,8.920991E-3,-1.6468659E-2,2.2739792E-2,-3.8199138E-4,2.023993E-2,7.509158E-3,-2.7236884E-2,1.9919103E-2,3.496325E-2,-1.7575207E-3],"split_indices":[3,18,17,3,3,3,3,14,11,14,18,18,17,20,17,20,12,7,19,3,12,11,16,13,16,14,20,11,0,1,1,0,0,0,0,0,0,0,0,0,0,0,0,0,0,0,0,0,0,0,0,0,0,0,0,0,0,0,0,0,0],"split_type":[0,0,0,0,0,0,0,0,0,0,0,0,0,0,0,0,0,0,0,0,0,0,0,0,0,0,0,0,0,0,0,0,0,0,0,0,0,0,0,0,0,0,0,0,0,0,0,0,0,0,0,0,0,0,0,0,0,0,0,0,0],"sum_hessian":[6.7024396E2,2.7815036E2,3.920936E2,7.199855E1,2.0615181E2,2.3103174E2,1.6106186E2,4.421295E1,2.7785597E1,5.6785187E1,1.4936661E2,1.317174E2,9.931434E1,1.1618879E2,4.4873074E1,1.9233004E1,2.4979946E1,5.9234004E0,2.1862196E1,1.564352E1,4.1141666E1,8.957635E1,5.9790268E1,9.9377365E1,3.234004E1,3.4797245E1,6.45171E1,1.0996567E2,6.2231207E0,1.1134472E1,3.37386E1,1.7984035E1,1.2489693E0,2.7443218E0,2.2235624E1,3.4599984E0,2.4634018E0,1.8383087E1,3.479108E0,5.2333007E0,1.041022E1,3.5166782E1,5.974886E0,2.0882996E1,6.869335E1,2.636479E1,3.3425476E1,7.502883E1,2.434853E1,6.4914727E0,2.5848564E1,2.3506042E1,1.1291202E1,5.0536095E1,1.3981005E1,5.4632225E1,5.5333447E1,1.634951E0,9.49952E0,3.2567684E1,1.170916E0],"tree_param":{"num_deleted":"0","num_feature":"22","num_nodes":"61","size_leaf_vector":"1"}},{"base_weights":[8.370929E-3,-4.3305862E-1,3.1632254E-1,-8.736956E-1,-2.613394E-1,2.2944184E-1,8.7647897E-1,2.2986344E-1,-9.334775E-1,-4.0109855E-1,-2.4713216E-2,1.2297994E0,1.8821584E-1,9.599199E-1,1.0214522E-1,-7.353287E-3,1.7660296E-2,-1.2865828E0,-6.811923E-1,-6.2981665E-1,-2.200969E-1,7.3428804E-1,-1.601607E-1,3.759922E-1,1.3859692E0,-4.3772298E-1,2.4226563E-1,1.0195347E0,-9.177543E-3,6.9447935E-1,-6.0042036E-1,-2.1444138E-2,-4.4859502E-2,-4.1204346E-3,-2.577168E-2,-2.1648193E-4,-2.3952216E-2,5.837334E-3,-1.1736444E-2,-7.1504014E-4,3.3834737E-2,-2.372806E-2,-3.241356E-4,1.6559234E-2,8.3760254E-4,4.3824118E-2,1.2442279E-2,-2.9655304E-2,-3.7252796E-3,2.579848E-4,1.09472815E-2,3.9391298E-2,2.4109522E-2,3.0698951E-2,-7.749627E-4,1.219924E-2,-3.9565977E-2],"categories":[],"categories_nodes":[],"categories_segments":[],"categories_sizes":[],"default_left":[0,0,0,0,0,0,0,0,0,0,0,0,0,0,0,0,0,0,0,0,0,0,0,0,0,0,0,0,0,0,0,0,0,0,0,0,0,0,0,0,0,0,0,0,0,0,0,0,0,0,0,0,0,0,0,0,0],"id":10,"left_children":[1,3,5,7,9,11,13,15,17,19,21,23,25,27,29,-1,-1,31,33,35,37,39,41,43,45,47,49,51,-1,53,55,-1,-1,-1,-1,-1,-1,-1,-1,-1,-1,-1,-1,-1,-1,-1,-1,-1,-1,-1,-1,-1,-1,-1,-1,-1,-1],"loss_changes":[9.078224E1,2.0537495E1,1.8942825E1,5.2636833E0,6.568115E0,1.3868849E1,3.2917557E0,9.5131123E-1,5.6086464E0,5.035513E0,7.8201632E0,1.2592068E0,1.1255361E1,3.8769035E0,3.0065534E0,0E0,0E0,2.4175606E0,4.194809E0,5.733383E0,5.135953E0,3.4653277E0,6.058509E0,1.9511047E-1,1.8746185E-1,4.4625564E0,8.708792E0,1.8181953E0,0E0,9.359126E-1,2.9838116E0,0E0,0E0,0E0,0E0,0E0,0E0,0E0,0E0,0E0,0E0,0E0,0E0,0E0,0E0,0E0,0E0,0E0,0E0,0E0,0E0,0E0,0E0,0E0,0E0,0E0,0E0],"parents":[2147483647,0,0,1,1,2,2,3,3,4,4,5,5,6,6,7,7,8,8,9,9,10,10,11,11,12,12,13,13,14,14,17,17,18,18,19,19,20,20,21,21,22,22,23,23,24,24,25,25,26,26,27,27,29,29,30,30],"right_children":[2,4,6,8,10,12,14,16,18,20,22,24,26,28,30,-1,-1,32,34,36,38,40,42,44,46,48,50,52,-1,54,56,-1,-1,-1,-1,-1,-1,-1,-1,-1,-1,-1,-1,-1,-1,-1,-1,-1,-1,-1,-1,-1,-1,-1,-1,-1,-1],"split_conditions":[5E0,3E0,9E0,2.39E0,5.555556E-1,2E0,3.3333334E-1,3.3333334E-1,3.63E0,4E0,3.23E0,2.2222222E-1,1.64E0,3.02E-1,3.82E0,-7.353287E-3,1.7660296E-2,2.0408164E-1,5E0,3.07E0,5.6603774E-2,1.04E0,6.25E-2,2.55E0,6.82847E5,3.13E0,6E0,2.31E0,-9.177543E-3,3.8E0,6.40455E5,-2.1444138E-2,-4.4859502E-2,-4.1204346E-3,-2.577168E-2,-2.1648193E-4,-2.3952216E-2,5.837334E-3,-1.1736444E-2,-7.1504014E-4,3.3834737E-2,-2.372806E-2,-3.241356E-4,1.6559234E-2,8.3760254E-4,4.3824118E-2,1.2442279E-2,-2.9655304E-2,-3.7252796E-3,2.579848E-4,1.09472815E-2,3.9391298E-2,2.4109522E-2,3.0698951E-2,-7.749627E-4,1.219924E-2,-3.9565977E-2],"split_indices":[3,3,3,8,16,5,19,16,10,3,13,16,12,14,13,0,0,19,5,8,20,9,20,12,1,13,3,12,0,10,1,0,0,0,0,0,0,0,0,0,0,0,0,0,0,0,0,0,0,0,0,0,0,0,0,0,0],"split_type":[0,0,0,0,0,0,0,0,0,0,0,0,0,0,0,0,0,0,0,0,0,0,0,0,0,0,0,0,0,0,0,0,0,0,0,0,0,0,0,0,0,0,0,0,0,0,0,0,0,0,0,0,0,0,0,0,0],"sum_hessian":[6.658086E2,2.7344125E2,3.9236734E2,7.5533066E1,1.9790819E2,3.4090265E2,5.1464676E1,3.7353015E0,7.179776E1,1.2398408E2,7.392411E1,1.2351843E1,3.285508E2,4.6242035E1,5.22264E0,1.7438269E0,1.9914747E0,2.8211899E1,4.358586E1,5.367695E1,7.030713E1,1.0524912E1,6.33992E1,2.4368339E0,9.915009E0,2.5551056E1,3.0299976E2,4.4348034E1,1.893999E0,2.8398595E0,2.3827803E0,8.728011E0,1.9483889E1,1.1178415E1,3.2407448E1,1.165993E1,4.2017017E1,2.049761E1,4.9809517E1,3.9175122E0,6.6073995E0,1.1315388E1,5.208381E1,1.2294365E0,1.2073975E0,8.737673E0,1.1773357E0,8.4880295E0,1.7063026E1,1.0466246E2,1.983373E2,1.664114E1,2.7706896E1,1.6609912E0,1.1788684E0,1.1728157E0,1.2099646E0],"tree_param":{"num_deleted":"0","num_feature":"22","num_nodes":"57","size_leaf_vector":"1"}},{"base_weights":[2.2449348E-2,-4.654854E-1,3.6661527E-1,-6.9156444E-1,-1.4644733E-1,-9.546709E-2,5.076079E-1,-9.478513E-1,-2.751124E-1,-6.1819583E-1,-2.2629842E-2,1.1688525E-1,-5.32219E-1,3.1600624E-1,7.263416E-1,-2.0123912E-1,-1.0900016E0,-6.956496E-1,1.349964E-1,9.980236E-2,-1.0667229E0,4.18174E-1,-1.989784E-1,-4.5392495E-1,3.8063937E-1,-1.5184779E-2,-7.102244E-1,1.3695252E-1,6.757289E-1,6.520301E-1,1.1792166E0,-1.8292783E-2,9.573143E-3,-3.5599142E-2,-1.8713752E-2,-2.3388295E-3,-3.1046754E-2,2.726772E-2,-2.9115146E-3,-3.4545675E-2,1.7961647E-2,-1.23804705E-2,-4.206162E-2,3.367884E-2,3.7022203E-3,-1.2397796E-3,-3.1150913E-2,-1.9654498E-2,1.6660132E-2,1.6646145E-2,-1.0569241E-2,1.3469891E-2,-2.1116955E-2,-2.562815E-2,2.0379066E-2,-2.0146947E-3,1.6869662E-2,1.32835405E-2,2.9634722E-2,1.4007857E-2,2.491187E-2,1.7079797E-2,4.0476844E-2],"categories":[],"categories_nodes":[],"categories_segments":[],"categories_sizes":[],"default_left":[0,0,0,0,0,0,0,0,0,0,0,0,0,0,0,0,0,0,0,0,0,0,0,0,0,0,0,0,0,0,0,0,0,0,0,0,0,0,0,0,0,0,0,0,0,0,0,0,0,0,0,0,0,0,0,0,0,0,0,0,0,0,0],"id":11,"left_children":[1,3,5,7,9,11,13,15,17,19,21,23,25,27,29,31,33,35,37,39,41,43,45,47,49,51,53,55,57,59,61,-1,-1,-1,-1,-1,-1,-1,-1,-1,-1,-1,-1,-1,-1,-1,-1,-1,-1,-1,-1,-1,-1,-1,-1,-1,-1,-1,-1,-1,-1,-1,-1],"loss_changes":[1.1237019E2,1.9862759E1,2.5609745E1,1.7000328E1,6.7652607E0,8.647417E0,1.2375931E1,1.0362488E1,1.0962679E1,7.8648024E0,7.3102922E0,9.673364E0,2.7928982E0,1.0348413E1,3.931694E0,3.845157E0,3.02314E0,6.4732533E0,5.9684386E0,7.0433173E0,2.6922646E0,5.4448166E0,8.834165E0,4.506735E0,5.7767286E0,3.1368916E0,5.111782E0,9.54339E0,3.4606667E0,3.6475296E0,1.1450481E0,0E0,0E0,0E0,0E0,0E0,0E0,0E0,0E0,0E0,0E0,0E0,0E0,0E0,0E0,0E0,0E0,0E0,0E0,0E0,0E0,0E0,0E0,0E0,0E0,0E0,0E0,0E0,0E0,0E0,0E0,0E0,0E0],"parents":[2147483647,0,0,1,1,2,2,3,3,4,4,5,5,6,6,7,7,8,8,9,9,10,10,11,11,12,12,13,13,14,14,15,15,16,16,17,17,18,18,19,19,20,20,21,21,22,22,23,23,24,24,25,25,26,26,27,27,28,28,29,29,30,30],"right_children":[2,4,6,8,10,12,14,16,18,20,22,24,26,28,30,32,34,36,38,40,42,44,46,48,50,52,54,56,58,60,62,-1,-1,-1,-1,-1,-1,-1,-1,-1,-1,-1,-1,-1,-1,-1,-1,-1,-1,-1,-1,-1,-1,-1,-1,-1,-1,-1,-1,-1,-1,-1,-1],"split_conditions":[5E0,4E0,2.682927E-1,4.4444445E-1,2.7272728E-1,2.86E-1,7E0,2.94E0,1.19E0,7.54717E-2,5E0,6E0,5E0,5.2380955E-1,1E1,3.4285715E-1,4.49E0,5.555556E-1,4.2857143E-1,1.08E0,2.49E0,2.61E-1,4.46E0,3.46E0,1.3E0,3.65E0,4.390244E-1,3E0,3.9215687E-1,2E0,1E0,-1.8292783E-2,9.573143E-3,-3.5599142E-2,-1.8713752E-2,-2.3388295E-3,-3.1046754E-2,2.726772E-2,-2.9115146E-3,-3.4545675E-2,1.7961647E-2,-1.23804705E-2,-4.206162E-2,3.367884E-2,3.7022203E-3,-1.2397796E-3,-3.1150913E-2,-1.9654498E-2,1.6660132E-2,1.6646145E-2,-1.0569241E-2,1.3469891E-2,-2.1116955E-2,-2.562815E-2,2.0379066E-2,-2.0146947E-3,1.6869662E-2,1.32835405E-2,2.9634722E-2,1.4007857E-2,2.491187E-2,1.7079797E-2,4.0476844E-2],"split_indices":[3,3,17,18,18,14,3,8,9,20,5,3,5,18,3,18,15,16,16,9,12,14,8,12,9,15,18,4,17,4,4,0,0,0,0,0,0,0,0,0,0,0,0,0,0,0,0,0,0,0,0,0,0,0,0,0,0,0,0,0,0,0,0],"split_type":[0,0,0,0,0,0,0,0,0,0,0,0,0,0,0,0,0,0,0,0,0,0,0,0,0,0,0,0,0,0,0,0,0,0,0,0,0,0,0,0,0,0,0,0,0,0,0,0,0,0,0,0,0,0,0,0,0,0,0,0,0,0,0],"sum_hessian":[6.671308E2,2.757868E2,3.9134402E2,1.6072502E2,1.1506177E2,9.156761E1,2.9977643E2,9.870525E1,6.2019775E1,2.309111E1,9.197066E1,6.2104343E1,2.9463264E1,1.6110228E2,1.3867413E2,1.6173458E1,8.253179E1,3.0276814E1,3.1742964E1,9.177438E0,1.3913672E1,2.5888365E1,6.608229E1,1.939947E1,4.2704876E1,7.8237414E0,2.1639524E1,1.0848437E2,5.2617912E1,1.2122267E2,1.7451462E1,8.964006E0,7.2094517E0,6.708171E1,1.5450081E1,1.1169434E1,1.9107378E1,6.6492524E0,2.509371E1,2.243228E0,6.93421E0,5.4718575E0,8.441815E0,6.8084707E0,1.9079895E1,5.6516636E1,9.565655E0,1.6467144E1,2.9323268E0,3.469931E1,8.005565E0,4.8816557E0,2.942086E0,1.9955965E1,1.6835577E0,7.387727E1,3.4607094E1,3.151456E1,2.1103352E1,6.1263424E1,5.995925E1,4.7522497E0,1.2699212E1],"tree_param":{"num_deleted":"0","num_feature":"22","num_nodes":"63","size_leaf_vector":"1"}},{"base_weights":[-2.5685646E-2,-3.7974077E-1,2.2745556E-1,-8.82857E-2,-5.5858773E-1,-1.97022E-2,5.3128135E-1,-1.6372778E-1,3.5618063E-2,-7.631279E-1,-3.6426955E-1,-2.976017E-1,9.0707555E-2,7.739645E-1,3.356879E-1,-3.8703847E-1,1.0118519E-1,-4.7760463E-1,-1.0112617E0,-4.2651108E-1,8.1356186E-1,1.664658E-1,-5.2729934E-1,-8.641215E-2,2.8844392E-1,4.4169185E-1,1.0525326E0,-7.754123E-1,4.1416276E-1,-8.740249E-3,-4.5151595E-2,-5.8845147E-3,1.7833354E-2,-3.6816426E-2,-8.221951E-3,-3.4786202E-2,1.0716634E-2,-2.4748247E-2,-5.94154E-3,1.678172E-3,3.6115684E-2,2.2657413E-2,-8.109939E-3,-1.908199E-2,2.2923319E-2,1.574733E-2,-6.633695E-3,1.1118303E-2,-1.731322E-2,1.7612506E-2,-1.0518526E-2,-4.624624E-3,3.3648178E-2,7.894601E-3,-4.1274313E-2,-5.944968E-3,1.6329639E-2],"categories":[],"categories_nodes":[],"categories_segments":[],"categories_sizes":[],"default_left":[0,0,0,0,0,0,0,0,0,0,0,0,0,0,0,0,0,0,0,0,0,0,0,0,0,0,0,0,0,0,0,0,0,0,0,0,0,0,0,0,0,0,0,0,0,0,0,0,0,0,0,0,0,0,0,0,0],"id":12,"left_children":[1,3,5,7,9,11,13,15,-1,17,19,21,23,25,27,29,31,33,35,37,39,41,43,45,47,49,51,53,55,-1,-1,-1,-1,-1,-1,-1,-1,-1,-1,-1,-1,-1,-1,-1,-1,-1,-1,-1,-1,-1,-1,-1,-1,-1,-1,-1,-1],"loss_changes":[6.04044E1,1.459536E1,2.9525661E1,1.0589885E1,6.634674E0,6.7066774E0,8.110943E0,6.124938E0,0E0,5.4554024E0,7.0257254E0,6.7109175E0,5.508391E0,6.7487526E0,8.989356E0,5.555869E0,7.133945E0,5.8991146E0,9.332535E0,7.7727566E0,1.3864591E0,5.6902256E0,6.3576193E0,6.9808292E0,5.4915404E0,4.4985113E0,3.646099E0,4.668527E0,7.5603676E0,0E0,0E0,0E0,0E0,0E0,0E0,0E0,0E0,0E0,0E0,0E0,0E0,0E0,0E0,0E0,0E0,0E0,0E0,0E0,0E0,0E0,0E0,0E0,0E0,0E0,0E0,0E0,0E0],"parents":[2147483647,0,0,1,1,2,2,3,3,4,4,5,5,6,6,7,7,9,9,10,10,11,11,12,12,13,13,14,14,15,15,16,16,17,17,18,18,19,19,20,20,21,21,22,22,23,23,24,24,25,25,26,26,27,27,28,28],"right_children":[2,4,6,8,10,12,14,16,-1,18,20,22,24,26,28,30,32,34,36,38,40,42,44,46,48,50,52,54,56,-1,-1,-1,-1,-1,-1,-1,-1,-1,-1,-1,-1,-1,-1,-1,-1,-1,-1,-1,-1,-1,-1,-1,-1,-1,-1,-1,-1],"split_conditions":[3.846154E-1,8.42E0,3E0,6E0,2.8947368E-1,1E0,2.0454545E-1,2.6E-1,3.5618063E-2,2E-1,3.14E-1,2.28E0,2.2E-1,2.024E3,2.1276596E-1,3.783784E-1,4.26E0,2.01E0,5E0,2.28E0,2.2807017E-1,5.555556E-1,4.03E0,7.48E0,3.02E-1,1.5789473E-1,2.7777778E-2,5.555556E-1,3.29E0,-8.740249E-3,-4.5151595E-2,-5.8845147E-3,1.7833354E-2,-3.6816426E-2,-8.221951E-3,-3.4786202E-2,1.0716634E-2,-2.4748247E-2,-5.94154E-3,1.678172E-3,3.6115684E-2,2.2657413E-2,-8.109939E-3,-1.908199E-2,2.2923319E-2,1.574733E-2,-6.633695E-3,1.1118303E-2,-1.731322E-2,1.7612506E-2,-1.0518526E-2,-4.624624E-3,3.3648178E-2,7.894601E-3,-4.1274313E-2,-5.944968E-3,1.6329639E-2],"split_indices":[18,11,7,7,18,7,19,19,0,16,14,12,19,2,19,18,13,12,7,12,19,16,12,11,14,20,20,16,10,0,0,0,0,0,0,0,0,0,0,0,0,0,0,0,0,0,0,0,0,0,0,0,0,0,0,0,0],"split_type":[0,0,0,0,0,0,0,0,0,0,0,0,0,0,0,0,0,0,0,0,0,0,0,0,0,0,0,0,0,0,0,0,0,0,0,0,0,0,0,0,0,0,0,0,0,0,0,0,0,0,0,0,0,0,0,0,0],"sum_hessian":[6.7199744E2,2.799484E2,3.9204904E2,1.0702706E2,1.7292133E2,2.167011E2,1.7534795E2,1.0187344E2,5.1536164E0,8.2818726E1,9.010259E1,6.1133553E1,1.5556755E2,7.693439E1,9.841356E1,5.5026978E1,4.684647E1,3.986804E1,4.295069E1,8.618605E1,3.9165459E0,2.0331758E1,4.0801792E1,8.235877E1,7.320878E1,3.6264317E1,4.0670067E1,5.906355E0,9.25072E1,5.184949E1,3.1774862E0,2.960375E1,1.7242718E1,7.4395995E0,3.2428436E1,3.888959E1,4.0611E0,3.0457582E1,5.5728466E1,1.720367E0,2.196179E0,8.348853E0,1.1982904E1,3.810032E1,2.7014759E0,1.4348452E1,6.8010315E1,6.738389E1,5.824886E0,3.0860352E1,5.4039664E0,2.1353064E0,3.853476E1,2.3694296E0,3.5369253E0,1.6124994E1,7.638221E1],"tree_param":{"num_deleted":"0","num_feature":"22","num_nodes":"57","size_leaf_vector":"1"}},{"base_weights":[5.069331E-3,-1.448877E-1,4.3496683E-1,-6.072582E-1,-1.7472995E-2,-4.7877762E-1,4.972943E-1,-1.6303244E-1,-8.0906975E-1,-1.2537992E-1,4.07615E-1,-1.2068675E-2,-8.858461E-1,7.4785495E-1,3.3398408E-1,-5.630788E-1,1.970835E-1,-4.2016532E-2,-7.2159064E-1,-4.4657952E-1,-1.5068356E-2,1.1608995E-1,7.060037E-1,-6.9825715E-1,2.6967507E-2,1.5298201E-3,-1.1259382E0,-3.1584358E-1,8.459027E-1,-6.751831E-1,4.1051248E-1,1.4898296E-2,-2.0328777E-2,-1.8687386E-2,1.3062619E-2,-3.16642E-2,-1.7062422E-2,2.461956E-2,-1.6214432E-2,-2.1287592E-3,1.82342E-2,1.6509153E-2,-6.2788012E-3,2.3749933E-2,-1.9157883E-2,-3.2773428E-2,4.1477615E-3,-1.2168763E-2,-4.413644E-2,-2.9918555E-2,1.1025507E-2,1.3536738E-2,3.2040533E-2,-2.1422142E-3,-3.898383E-2,7.319927E-3,2.2286082E-2],"categories":[],"categories_nodes":[],"categories_segments":[],"categories_sizes":[],"default_left":[0,0,0,0,0,0,0,0,0,0,0,0,0,0,0,0,0,0,0,0,0,0,0,0,0,0,0,0,0,0,0,0,0,0,0,0,0,0,0,0,0,0,0,0,0,0,0,0,0,0,0,0,0,0,0,0,0],"id":13,"left_children":[1,3,5,7,9,11,13,15,17,19,21,23,25,27,29,31,33,-1,35,37,39,41,43,45,-1,-1,47,49,51,53,55,-1,-1,-1,-1,-1,-1,-1,-1,-1,-1,-1,-1,-1,-1,-1,-1,-1,-1,-1,-1,-1,-1,-1,-1,-1,-1],"loss_changes":[4.3317463E1,2.9339447E1,1.0134468E1,9.514267E0,1.8013618E1,2.194163E0,6.4267235E0,5.133633E0,2.8045425E0,1.108637E1,6.834918E0,4.641193E0,1.4486051E0,6.8977127E0,8.045518E0,2.372826E0,4.001817E0,0E0,2.7829323E0,9.963286E0,8.192075E0,5.966851E0,5.0088825E0,1.5441902E0,0E0,0E0,6.3847446E-1,3.2041929E0,4.644863E0,2.722188E0,5.0275116E0,0E0,0E0,0E0,0E0,0E0,0E0,0E0,0E0,0E0,0E0,0E0,0E0,0E0,0E0,0E0,0E0,0E0,0E0,0E0,0E0,0E0,0E0,0E0,0E0,0E0,0E0],"parents":[2147483647,0,0,1,1,2,2,3,3,4,4,5,5,6,6,7,7,8,8,9,9,10,10,11,11,12,12,13,13,14,14,15,15,16,16,18,18,19,19,20,20,21,21,22,22,23,23,26,26,27,27,28,28,29,29,30,30],"right_children":[2,4,6,8,10,12,14,16,18,20,22,24,26,28,30,32,34,-1,36,38,40,42,44,46,-1,-1,48,50,52,54,56,-1,-1,-1,-1,-1,-1,-1,-1,-1,-1,-1,-1,-1,-1,-1,-1,-1,-1,-1,-1,-1,-1,-1,-1,-1,-1],"split_conditions":[4E0,2.857143E-1,2.0512821E-1,8.08E0,3.809524E-1,2.29E0,2.0454545E-1,1.24E0,1.8367347E-1,1E0,3.98E0,2.3684211E-1,5.71945E5,5.19242E5,3.04E0,1.5555556E-1,1.5625E-1,-4.2016532E-2,1.09E0,2.55E0,4.71E0,2.23E0,5.28E0,3.043478E-1,2.6967507E-2,1.5298201E-3,1.875E-1,6.896552E-2,3.64E0,3.488372E-1,4.888889E-1,1.4898296E-2,-2.0328777E-2,-1.8687386E-2,1.3062619E-2,-3.16642E-2,-1.7062422E-2,2.461956E-2,-1.6214432E-2,-2.1287592E-3,1.82342E-2,1.6509153E-2,-6.2788012E-3,2.3749933E-2,-1.9157883E-2,-3.2773428E-2,4.1477615E-3,-1.2168763E-2,-4.413644E-2,-2.9918555E-2,1.1025507E-2,1.3536738E-2,3.2040533E-2,-2.1422142E-3,-3.898383E-2,7.319927E-3,2.2286082E-2],"split_indices":[7,18,17,11,17,12,19,9,19,7,15,18,1,1,10,19,18,0,9,8,10,12,10,19,0,0,17,20,8,17,18,0,0,0,0,0,0,0,0,0,0,0,0,0,0,0,0,0,0,0,0,0,0,0,0,0,0],"split_type":[0,0,0,0,0,0,0,0,0,0,0,0,0,0,0,0,0,0,0,0,0,0,0,0,0,0,0,0,0,0,0,0,0,0,0,0,0,0,0,0,0,0,0,0,0,0,0,0,0,0,0,0,0,0,0,0,0],"sum_hessian":[6.699637E2,4.971949E2,1.7276877E2,1.0659829E2,3.9059662E2,1.0605564E1,1.6216321E2,3.386431E1,7.273398E1,3.120811E2,7.851551E1,5.42052E0,5.185044E0,6.2575947E1,9.958726E1,1.5775731E1,1.8088581E1,7.437297E0,6.529668E1,7.900116E1,2.3307994E2,4.041713E1,3.809838E1,3.2249107E0,2.195609E0,1.2184103E0,3.9666336E0,5.0937395E0,5.748221E1,6.468292E0,9.3118965E1,1.2135566E0,1.4562175E1,3.710177E0,1.4378404E1,1.865018E1,4.66465E1,4.9161854E0,7.408498E1,2.1470099E2,1.8378942E1,1.7017067E1,2.3400064E1,3.62032E1,1.8951787E0,1.9840293E0,1.2408816E0,1.9899669E0,1.9766668E0,2.320436E0,2.7733037E0,2.179175E1,3.569046E1,3.8546329E0,2.6136591E0,6.3192764E1,2.9926199E1],"tree_param":{"num_deleted":"0","num_feature":"22","num_nodes":"57","size_leaf_vector":"1"}},{"base_weights":[-1.47201335E-2,-4.3855393E-1,2.943645E-1,-9.218323E-1,-2.53517E-1,2.1517415E-1,8.369808E-1,-9.667034E-1,1.2477283E-2,-3.1207082E-1,8.12956E-1,1.153803E-1,5.0586784E-1,9.267756E-1,-2.3392225E-2,-1.2677491E0,-8.11201E-1,-2.2109802E-1,-6.127044E-1,3.5429117E-1,3.6864985E-2,-1.5965402E-1,2.439583E-1,7.1338356E-1,1.8836749E-1,9.671377E-1,-3.6622386E-3,-4.150643E-2,-2.7655181E-3,-3.2932207E-2,-1.5088977E-2,5.397021E-3,-9.352318E-3,-2.7190216E-2,4.710723E-3,2.9836763E-2,-7.6345047E-3,2.962373E-2,-6.882811E-3,-6.953428E-3,9.340615E-3,1.4274581E-2,3.453938E-2,-4.0236325E-3,2.2008296E-2,5.9535075E-3,3.0582214E-2],"categories":[],"categories_nodes":[],"categories_segments":[],"categories_sizes":[],"default_left":[0,0,0,0,0,0,0,0,0,0,0,0,0,0,0,0,0,0,0,0,0,0,0,0,0,0,0,0,0,0,0,0,0,0,0,0,0,0,0,0,0,0,0,0,0,0,0],"id":14,"left_children":[1,3,5,7,9,11,13,15,-1,17,19,21,23,25,-1,27,29,31,33,35,-1,37,39,41,43,45,-1,-1,-1,-1,-1,-1,-1,-1,-1,-1,-1,-1,-1,-1,-1,-1,-1,-1,-1,-1,-1],"loss_changes":[8.8350464E1,2.5198975E1,1.6579853E1,5.105942E0,1.3182563E1,9.854481E0,7.8836594E0,2.5350952E0,0E0,5.252035E0,1.6730018E0,9.0805855E0,5.599901E0,2.1157455E0,0E0,3.1600418E0,4.1263504E0,5.6098466E0,1.0357725E1,2.8495297E0,0E0,6.7940464E0,5.6710453E0,4.890562E0,6.386069E0,1.6279297E0,0E0,0E0,0E0,0E0,0E0,0E0,0E0,0E0,0E0,0E0,0E0,0E0,0E0,0E0,0E0,0E0,0E0,0E0,0E0,0E0,0E0],"parents":[2147483647,0,0,1,1,2,2,3,3,4,4,5,5,6,6,7,7,9,9,10,10,11,11,12,12,13,13,15,15,16,16,17,17,18,18,19,19,21,21,22,22,23,23,24,24,25,25],"right_children":[2,4,6,8,10,12,14,16,-1,18,20,22,24,26,-1,28,30,32,34,36,-1,38,40,42,44,46,-1,-1,-1,-1,-1,-1,-1,-1,-1,-1,-1,-1,-1,-1,-1,-1,-1,-1,-1,-1,-1],"split_conditions":[5E0,3E0,9E0,2.025E3,4.03E0,3E0,3.02E-1,2E0,1.2477283E-2,2.8846154E-1,4.2857143E-1,6E0,9.36E0,9E0,-2.3392225E-2,3.7142858E-1,2.55E0,7.65E0,9.62E0,9.375E-2,3.6864985E-2,3.02E0,3.3898305E-2,7E0,2.97E-1,2E0,-3.6622386E-3,-4.150643E-2,-2.7655181E-3,-3.2932207E-2,-1.5088977E-2,5.397021E-3,-9.352318E-3,-2.7190216E-2,4.710723E-3,2.9836763E-2,-7.6345047E-3,2.962373E-2,-6.882811E-3,-6.953428E-3,9.340615E-3,1.4274581E-2,3.453938E-2,-4.0236325E-3,2.2008296E-2,5.9535075E-3,3.0582214E-2],"split_indices":[3,3,3,2,12,4,14,3,0,19,16,3,11,5,0,19,12,11,11,20,0,15,20,3,14,5,0,0,0,0,0,0,0,0,0,0,0,0,0,0,0,0,0,0,0,0,0],"split_type":[0,0,0,0,0,0,0,0,0,0,0,0,0,0,0,0,0,0,0,0,0,0,0,0,0,0,0,0,0,0,0,0,0,0,0,0,0,0,0,0,0,0,0,0,0,0,0],"sum_hessian":[6.724429E2,2.834044E2,3.8903848E2,7.736391E1,2.0604047E2,3.4071106E2,4.832742E1,7.5121506E1,2.2423966E0,1.9598734E2,1.0053144E1,2.546781E2,8.603294E1,4.6188793E1,2.1386273E0,2.315053E1,5.1970978E1,1.5179044E2,4.419689E1,5.6612945E0,4.39185E0,8.105531E1,1.7362279E2,5.1273872E1,3.475907E1,4.455223E1,1.6365622E0,2.0913528E1,2.237002E0,2.5605967E1,2.6365011E1,2.7804491E1,1.2398595E2,3.1863949E1,1.2332944E1,2.450412E0,3.2108822E0,3.8933759E0,7.716194E1,2.1241535E1,1.5238126E2,3.4594086E1,1.6679789E1,2.2314798E1,1.2444274E1,3.1419907E0,4.141024E1],"tree_param":{"num_deleted":"0","num_feature":"22","num_nodes":"47","size_leaf_vector":"1"}},{"base_weights":[-1.8089266E-2,-2.5567597E-1,2.935169E-1,-3.578022E-1,9.247181E-2,7.776738E-2,5.7168645E-1,-6.2389416E-1,-2.0874377E-1,4.0005216E-1,-1.8997832E-1,-3.815761E-2,5.419138E-1,9.448495E-2,6.558673E-1,-3.583395E-1,-8.780648E-1,2.5708172E-1,-2.7457973E-1,5.906759E-1,-1.6747457E-1,-8.232429E-2,-4.838725E-2,6.81751E-1,-9.74009E-2,2.0314449E-1,8.457546E-1,3.9139217E-1,-8.391857E-1,2.4514611E-1,7.685946E-1,-3.512631E-2,-5.6934035E-3,-3.1721726E-2,-3.5727795E-3,1.1481064E-2,-2.283179E-2,-1.54583445E-2,-2.1682708E-3,1.1235549E-2,3.5875063E-2,2.165602E-2,-1.8199101E-2,1.1818355E-2,-7.814786E-3,-2.3514938E-2,2.9076165E-2,3.6218252E-2,-3.9995816E-3,3.3551447E-2,-5.079536E-3,-5.9967847E-3,3.0980626E-2,1.6737327E-2,-2.721606E-2,-7.0623546E-3,-3.5022702E-2,2.0232433E-2,-5.359794E-3,2.8002674E-3,2.5589993E-2],"categories":[],"categories_nodes":[],"categories_segments":[],"categories_sizes":[],"default_left":[0,0,0,0,0,0,0,0,0,0,0,0,0,0,0,0,0,0,0,0,0,0,0,0,0,0,0,0,0,0,0,0,0,0,0,0,0,0,0,0,0,0,0,0,0,0,0,0,0,0,0,0,0,0,0,0,0,0,0,0,0],"id":15,"left_children":[1,3,5,7,9,11,13,15,17,19,21,23,25,27,29,31,33,35,37,39,41,43,-1,45,47,49,51,53,55,57,59,-1,-1,-1,-1,-1,-1,-1,-1,-1,-1,-1,-1,-1,-1,-1,-1,-1,-1,-1,-1,-1,-1,-1,-1,-1,-1,-1,-1,-1,-1],"loss_changes":[4.9722607E1,1.3580652E1,1.7394587E1,1.1563095E1,7.6529827E0,8.888357E0,5.0305634E0,6.796055E0,5.9117994E0,4.6505113E0,6.935644E0,5.730541E0,3.2251482E0,5.9220376E0,4.793064E0,7.0655456E0,7.106495E0,3.373879E0,8.112404E0,3.7007847E0,4.873769E0,3.8321886E0,0E0,5.066518E0,5.952293E0,5.9573183E0,3.545329E0,3.9641292E0,7.5303626E-1,4.60297E0,4.705303E0,0E0,0E0,0E0,0E0,0E0,0E0,0E0,0E0,0E0,0E0,0E0,0E0,0E0,0E0,0E0,0E0,0E0,0E0,0E0,0E0,0E0,0E0,0E0,0E0,0E0,0E0,0E0,0E0,0E0,0E0],"parents":[2147483647,0,0,1,1,2,2,3,3,4,4,5,5,6,6,7,7,8,8,9,9,10,10,11,11,12,12,13,13,14,14,15,15,16,16,17,17,18,18,19,19,20,20,21,21,23,23,24,24,25,25,26,26,27,27,28,28,29,29,30,30],"right_children":[2,4,6,8,10,12,14,16,18,20,22,24,26,28,30,32,34,36,38,40,42,44,-1,46,48,50,52,54,56,58,60,-1,-1,-1,-1,-1,-1,-1,-1,-1,-1,-1,-1,-1,-1,-1,-1,-1,-1,-1,-1,-1,-1,-1,-1,-1,-1,-1,-1,-1,-1],"split_conditions":[4.4444445E-1,4E0,3E0,2.857143E-1,2.75E-1,1.3333334E-1,4.7368422E-1,2E-1,2.94E0,1.33E0,3.58E0,3.3333334E-1,1E0,4.46E0,1.11E0,2.01E0,4.35E0,4E0,3.9E0,2.72E-1,2.024E3,2.0512821E-1,-4.838725E-2,3.1E0,1.8518519E-2,2.11E0,3.52E0,8.5714287E-1,2.3404256E-1,8.571429E-2,5.19242E5,-3.512631E-2,-5.6934035E-3,-3.1721726E-2,-3.5727795E-3,1.1481064E-2,-2.283179E-2,-1.54583445E-2,-2.1682708E-3,1.1235549E-2,3.5875063E-2,2.165602E-2,-1.8199101E-2,1.1818355E-2,-7.814786E-3,-2.3514938E-2,2.9076165E-2,3.6218252E-2,-3.9995816E-3,3.3551447E-2,-5.079536E-3,-5.9967847E-3,3.0980626E-2,1.6737327E-2,-2.721606E-2,-7.0623546E-3,-3.5022702E-2,2.0232433E-2,-5.359794E-3,2.8002674E-3,2.5589993E-2],"split_indices":[18,7,7,18,14,20,18,16,8,9,12,16,21,8,9,12,13,4,15,14,2,19,0,13,20,12,15,16,19,20,1,0,0,0,0,0,0,0,0,0,0,0,0,0,0,0,0,0,0,0,0,0,0,0,0,0,0,0,0,0,0],"split_type":[0,0,0,0,0,0,0,0,0,0,0,0,0,0,0,0,0,0,0,0,0,0,0,0,0,0,0,0,0,0,0,0,0,0,0,0,0,0,0,0,0,0,0,0,0,0,0,0,0,0,0,0,0,0,0,0,0,0,0,0,0],"sum_hessian":[6.696095E2,3.800311E2,2.8957837E2,2.9381516E2,8.621594E1,1.6380785E2,1.2577053E2,1.0434965E2,1.8946552E2,4.1072628E1,4.5143314E1,1.3180586E2,3.200198E1,1.9177898E1,1.0659263E2,5.2210518E1,5.213913E1,2.3101917E1,1.663636E2,3.0715096E1,1.0357532E1,4.29516E1,2.191716E0,9.222985E0,1.22582886E2,1.59202175E1,1.6081762E1,1.4991427E1,4.1864705E0,2.363896E1,8.2953674E1,7.9485064E0,4.4262012E1,4.185634E1,1.0282793E1,2.1120182E1,1.9817352E0,7.526607E1,9.109753E1,2.3824184E1,6.8909106E0,3.2110784E0,7.1464534E0,1.1363718E1,3.1587881E1,1.2291881E0,7.9937973E0,2.4105978E0,1.2017229E2,4.0255995E0,1.1894618E1,2.428443E0,1.3653319E1,1.379311E1,1.1983178E0,2.0791664E0,2.107304E0,1.1450026E1,1.2188934E1,9.450926E0,7.350275E1],"tree_param":{"num_deleted":"0","num_feature":"22","num_nodes":"61","size_leaf_vector":"1"}},{"base_weights":[-1.1135944E-2,-3.2011995E-1,4.1724727E-1,-7.863232E-1,-2.0344554E-1,2.2503655E-1,6.985016E-1,-1.2119226E0,-5.885727E-1,-7.2576964E-1,-1.0398879E-1,3.7181044E-1,-2.0133844E-1,2.4027862E-1,7.6417917E-1,-1.3330941E0,1.7777459E-3,-1.3881881E0,-4.2685822E-1,-8.0631626E-1,3.9905712E-1,-1.659364E-1,3.1024966E-1,4.581091E-1,-1.3065782E-1,6.0988396E-1,-4.5225468E-1,-2.1646762E-1,6.5775096E-1,8.0676997E-1,-3.5182543E-2,-4.5392737E-3,-4.2909686E-2,-4.6389267E-2,-1.9259354E-2,-2.2568546E-2,-1.7519841E-3,-4.542205E-2,-1.857949E-2,-9.300054E-3,3.2418407E-2,4.657467E-3,-8.840439E-3,-1.6377782E-2,1.866939E-2,8.941486E-3,2.5600921E-2,-1.6350698E-2,2.8448774E-2,2.5093561E-2,-1.0829982E-2,-1.9879326E-2,1.1225814E-2,1.822976E-2,-2.2456001E-2,3.591561E-2,-1.8183848E-4,2.5948185E-2,8.245016E-3,2.0833345E-2,-1.6420085E-2],"categories":[],"categories_nodes":[],"categories_segments":[],"categories_sizes":[],"default_left":[0,0,0,0,0,0,0,0,0,0,0,0,0,0,0,0,0,0,0,0,0,0,0,0,0,0,0,0,0,0,0,0,0,0,0,0,0,0,0,0,0,0,0,0,0,0,0,0,0,0,0,0,0,0,0,0,0,0,0,0,0],"id":16,"left_children":[1,3,5,7,9,11,13,15,17,19,21,23,25,27,29,31,-1,33,35,37,39,41,43,45,47,49,51,53,55,57,59,-1,-1,-1,-1,-1,-1,-1,-1,-1,-1,-1,-1,-1,-1,-1,-1,-1,-1,-1,-1,-1,-1,-1,-1,-1,-1,-1,-1,-1,-1],"loss_changes":[8.7507744E1,2.0730804E1,1.4819813E1,5.727562E0,1.5952514E1,1.0466295E1,3.1868706E0,3.6731033E0,6.41539E0,4.77792E0,6.7323627E0,5.4314747E0,9.063227E0,3.0976431E0,3.3476868E0,2.236271E0,0E0,3.0601501E-2,5.5344143E0,5.1806755E0,2.2465806E0,9.437916E0,9.482086E0,6.4480114E0,8.982504E0,2.6390145E0,6.080911E0,4.030105E0,2.9954903E0,2.6277466E0,2.58113E0,0E0,0E0,0E0,0E0,0E0,0E0,0E0,0E0,0E0,0E0,0E0,0E0,0E0,0E0,0E0,0E0,0E0,0E0,0E0,0E0,0E0,0E0,0E0,0E0,0E0,0E0,0E0,0E0,0E0,0E0],"parents":[2147483647,0,0,1,1,2,2,3,3,4,4,5,5,6,6,7,7,8,8,9,9,10,10,11,11,12,12,13,13,14,14,15,15,17,17,18,18,19,19,20,20,21,21,22,22,23,23,24,24,25,25,26,26,27,27,28,28,29,29,30,30],"right_children":[2,4,6,8,10,12,14,16,18,20,22,24,26,28,30,32,-1,34,36,38,40,42,44,46,48,50,52,54,56,58,60,-1,-1,-1,-1,-1,-1,-1,-1,-1,-1,-1,-1,-1,-1,-1,-1,-1,-1,-1,-1,-1,-1,-1,-1,-1,-1,-1,-1,-1,-1],"split_conditions":[6E0,3E0,4.722222E-1,2E0,2.5714287E-1,7E0,1.86E0,3.7142858E-1,2.4324325E-1,5E0,3.55E0,1.33E0,3.23E0,1.9607843E-1,1.093E1,1.87E0,1.7777459E-3,8E0,2.59E0,1.09E0,2.8E-1,5E0,5E0,2.76E0,4.51E0,2.82E0,4.52E0,8.571429E-2,2.69E-1,1.5789473E-1,5.1282054E-1,-4.5392737E-3,-4.2909686E-2,-4.6389267E-2,-1.9259354E-2,-2.2568546E-2,-1.7519841E-3,-4.542205E-2,-1.857949E-2,-9.300054E-3,3.2418407E-2,4.657467E-3,-8.840439E-3,-1.6377782E-2,1.866939E-2,8.941486E-3,2.5600921E-2,-1.6350698E-2,2.8448774E-2,2.5093561E-2,-1.0829982E-2,-1.9879326E-2,1.1225814E-2,1.822976E-2,-2.2456001E-2,3.591561E-2,-1.8183848E-4,2.5948185E-2,8.245016E-3,2.0833345E-2,-1.6420085E-2],"split_indices":[3,3,18,3,18,5,12,19,18,4,12,9,8,19,11,12,0,5,12,9,14,5,5,12,13,12,15,20,14,20,18,0,0,0,0,0,0,0,0,0,0,0,0,0,0,0,0,0,0,0,0,0,0,0,0,0,0,0,0,0,0],"split_type":[0,0,0,0,0,0,0,0,0,0,0,0,0,0,0,0,0,0,0,0,0,0,0,0,0,0,0,0,0,0,0,0,0,0,0,0,0,0,0,0,0,0,0,0,0,0,0,0,0,0,0,0,0,0,0,0,0,0,0,0,0],"sum_hessian":[6.591075E2,3.8306403E2,2.760435E2,7.5528915E1,3.075351E2,1.6504852E2,1.1099495E2,2.23337E1,5.3195217E1,4.8184387E1,2.593507E2,1.2287754E2,4.217098E1,1.4498625E1,9.649632E1,2.0345613E1,1.988088E0,7.6726646E0,4.5522552E1,4.5228806E1,2.9555802E0,2.261329E2,3.3217804E1,1.0494208E2,1.7935465E1,9.624371E0,3.2546608E1,7.1535654E0,7.3450594E0,9.1606186E1,4.8901396E0,1.7409651E0,1.8604647E1,5.446369E0,2.2262957E0,2.3619688E1,2.1902864E1,7.969487E0,3.725932E1,1.7157508E0,1.2398294E0,6.4647705E1,1.614852E2,8.673049E0,2.4544754E1,7.594287E1,2.8999208E1,1.3316275E1,4.61919E0,7.915621E0,1.7087492E0,2.6100412E1,6.4461966E0,2.7507715E0,4.402794E0,3.6088696E0,3.7361898E0,8.201182E1,9.594369E0,1.8700653E0,3.0200744E0],"tree_param":{"num_deleted":"0","num_feature":"22","num_nodes":"61","size_leaf_vector":"1"}},{"base_weights":[-1.5137495E-2,-4.4751593E-1,2.9979068E-1,-6.561981E-1,-1.5494378E-1,2.232266E-1,8.344595E-1,-1.18794E0,-5.5557406E-1,8.591319E-1,-1.9250342E-1,1.1158394E-1,5.424909E-1,-1.9231308E-2,8.941618E-1,8.511218E-3,-1.2764112E0,6.0240996E-1,-5.917468E-1,3.4815364E-2,1.1707086E-3,-1.638271E-2,-3.641612E-1,-1.6238506E-1,2.4232964E-1,7.008698E-1,2.8147155E-1,-6.0592845E-2,9.49318E-1,-1.4240088E-2,-4.4276662E-2,2.1958987E-3,2.6618144E-2,-2.6118018E-2,-1.4657259E-2,9.657531E-3,-8.976621E-3,-1.5281909E-2,1.06165605E-2,3.8336158E-2,-6.948772E-3,1.231905E-2,-2.7850207E-3,1.5268172E-2,2.8860709E-2,3.412535E-2,-1.3899028E-4,-2.9480789E-2,2.493944E-2,3.0402932E-2,6.886651E-3],"categories":[],"categories_nodes":[],"categories_segments":[],"categories_sizes":[],"default_left":[0,0,0,0,0,0,0,0,0,0,0,0,0,0,0,0,0,0,0,0,0,0,0,0,0,0,0,0,0,0,0,0,0,0,0,0,0,0,0,0,0,0,0,0,0,0,0,0,0,0,0],"id":17,"left_children":[1,3,5,7,9,11,13,15,17,19,21,23,25,-1,27,-1,29,31,33,-1,-1,35,37,39,41,43,45,47,49,-1,-1,-1,-1,-1,-1,-1,-1,-1,-1,-1,-1,-1,-1,-1,-1,-1,-1,-1,-1,-1,-1],"loss_changes":[9.025776E1,1.6952003E1,1.5514343E1,8.046707E0,4.644381E0,1.194632E1,4.7731323E0,3.6189766E0,6.166649E0,1.0380368E0,3.446947E0,9.024586E0,3.4000072E0,0E0,2.4925804E0,0E0,3.1022186E0,6.43175E-1,3.4589043E0,0E0,0E0,5.590538E0,6.207135E0,8.436982E0,9.639483E0,2.1912613E0,8.462675E0,3.666997E0,1.787426E0,0E0,0E0,0E0,0E0,0E0,0E0,0E0,0E0,0E0,0E0,0E0,0E0,0E0,0E0,0E0,0E0,0E0,0E0,0E0,0E0,0E0,0E0],"parents":[2147483647,0,0,1,1,2,2,3,3,4,4,5,5,6,6,7,7,8,8,9,9,10,10,11,11,12,12,14,14,16,16,17,17,18,18,21,21,22,22,23,23,24,24,25,25,26,26,27,27,28,28],"right_children":[2,4,6,8,10,12,14,16,18,20,22,24,26,-1,28,-1,30,32,34,-1,-1,36,38,40,42,44,46,48,50,-1,-1,-1,-1,-1,-1,-1,-1,-1,-1,-1,-1,-1,-1,-1,-1,-1,-1,-1,-1,-1,-1],"split_conditions":[5E0,4E0,9E0,2E0,2E0,3E0,2.92E0,1E-1,2.26E0,3E0,8.96E0,6E0,9.36E0,-1.9231308E-2,2E0,8.511218E-3,1.9444445E-1,1E0,3E-1,3.4815364E-2,1.1707086E-3,4.07E0,3.07E-1,3.02E0,2.84E-1,8.42E0,3.3E0,4.14E0,8E0,-1.4240088E-2,-4.4276662E-2,2.1958987E-3,2.6618144E-2,-2.6118018E-2,-1.4657259E-2,9.657531E-3,-8.976621E-3,-1.5281909E-2,1.06165605E-2,3.8336158E-2,-6.948772E-3,1.231905E-2,-2.7850207E-3,1.5268172E-2,2.8860709E-2,3.412535E-2,-1.3899028E-4,-2.9480789E-2,2.493944E-2,3.0402932E-2,6.886651E-3],"split_indices":[3,3,3,3,5,4,13,16,8,4,11,3,11,0,5,0,19,21,16,0,0,15,14,15,14,11,13,13,5,0,0,0,0,0,0,0,0,0,0,0,0,0,0,0,0,0,0,0,0,0,0],"split_type":[0,0,0,0,0,0,0,0,0,0,0,0,0,0,0,0,0,0,0,0,0,0,0,0,0,0,0,0,0,0,0,0,0,0,0,0,0,0,0,0,0,0,0,0,0,0,0,0,0,0,0],"sum_hessian":[6.608551E2,2.7831857E2,3.8253656E2,1.6172359E2,1.16595E2,3.358593E2,4.6677246E1,2.4014517E1,1.3770906E2,3.3830109E0,1.1321199E2,2.4984218E2,8.601712E1,1.4365501E0,4.5240696E1,1.2366736E0,2.2777843E1,3.697237E0,1.3401183E2,2.1703577E0,1.212653E0,5.642028E1,5.679171E1,8.063495E1,1.6920723E2,5.24854E1,3.3531723E1,2.4654336E0,4.2775265E1,5.211461E0,1.7566383E1,1.7335734E0,1.9636636E0,3.4183006E1,9.982882E1,2.5628296E1,3.0791985E1,4.7478954E1,9.312755E0,2.8980415E0,7.773691E1,1.12492805E2,5.671442E1,3.195178E1,2.0533619E1,7.6541715E0,2.587755E1,1.1621525E0,1.3032811E0,3.8902046E1,3.8732176E0],"tree_param":{"num_deleted":"0","num_feature":"22","num_nodes":"51","size_leaf_vector":"1"}},{"base_weights":[-2.290032E-2,-6.7858756E-1,1.894944E-1,-8.411715E-1,-2.502325E-1,-3.26402E-2,4.7253996E-1,2.4129029E-1,-8.7842333E-1,3.5606024E-1,-5.1843905E-1,-1.9985949E-1,3.2213223E-1,3.620544E-1,8.5878384E-1,2.6533367E-2,-1.6317232E-2,-1.588664E-1,-9.286873E-1,-4.413612E-2,1.009272E0,-9.854483E-1,-1.8435003E-1,-4.8645285E-1,-6.334897E-2,-1.1350703E0,3.8830167E-1,5.363534E-1,1.6906118E-1,6.33083E-1,1.1797153E0,1.3424696E-2,-1.6593914E-2,-3.3067122E-2,-2.1966865E-2,2.1830203E-2,-1.5245166E-2,8.862202E-3,3.9439492E-2,1.4449203E-2,-3.736393E-2,1.7086312E-2,-1.2936433E-2,-1.7429812E-2,1.0797569E-2,-1.172828E-2,4.882249E-3,-4.1612454E-2,-8.662235E-3,2.0128747E-2,4.125401E-3,9.63005E-3,2.8996244E-2,2.8767979E-2,3.445807E-3,2.6952153E-2,1.2381471E-3,3.915718E-2,1.6538285E-2],"categories":[],"categories_nodes":[],"categories_segments":[],"categories_sizes":[],"default_left":[0,0,0,0,0,0,0,0,0,0,0,0,0,0,0,0,0,0,0,0,0,0,0,0,0,0,0,0,0,0,0,0,0,0,0,0,0,0,0,0,0,0,0,0,0,0,0,0,0,0,0,0,0,0,0,0,0,0,0],"id":18,"left_children":[1,3,5,7,9,11,13,15,17,19,21,23,25,27,29,-1,-1,31,33,35,37,39,41,43,45,47,49,51,53,55,57,-1,-1,-1,-1,-1,-1,-1,-1,-1,-1,-1,-1,-1,-1,-1,-1,-1,-1,-1,-1,-1,-1,-1,-1,-1,-1,-1,-1],"loss_changes":[9.313688E1,1.1184807E1,3.1781406E1,4.9774933E0,7.736396E0,1.6913172E1,9.17223E0,2.8628175E0,3.9924316E0,3.9228888E0,4.9053926E0,7.5451355E0,9.250354E0,5.7800007E0,2.7806244E0,0E0,0E0,2.3226442E0,2.833809E0,4.0077963E0,8.494859E-1,5.6990347E0,4.011961E0,5.1963816E0,9.863766E0,5.0028706E-1,6.1558084E0,8.142588E0,3.498041E0,4.7912464E0,7.752571E-1,0E0,0E0,0E0,0E0,0E0,0E0,0E0,0E0,0E0,0E0,0E0,0E0,0E0,0E0,0E0,0E0,0E0,0E0,0E0,0E0,0E0,0E0,0E0,0E0,0E0,0E0,0E0,0E0],"parents":[2147483647,0,0,1,1,2,2,3,3,4,4,5,5,6,6,7,7,8,8,9,9,10,10,11,11,12,12,13,13,14,14,17,17,18,18,19,19,20,20,21,21,22,22,23,23,24,24,25,25,26,26,27,27,28,28,29,29,30,30],"right_children":[2,4,6,8,10,12,14,16,18,20,22,24,26,28,30,-1,-1,32,34,36,38,40,42,44,46,48,50,52,54,56,58,-1,-1,-1,-1,-1,-1,-1,-1,-1,-1,-1,-1,-1,-1,-1,-1,-1,-1,-1,-1,-1,-1,-1,-1,-1,-1,-1,-1],"split_conditions":[4E0,3.4285715E-1,3.265306E-1,2.26E0,2E0,7E0,8E0,8E0,5.19242E5,3.67E0,1.8367347E-1,2.5E-1,1.5789473E-1,8.95E0,2.68E0,2.6533367E-2,-1.6317232E-2,6E0,2.53E0,5.555556E-1,3E0,2.95E0,2.0930232E-1,4.66E0,2.024E3,2.826087E-1,5E0,3.962264E-1,2.67E0,2.3913044E-1,4.58E0,1.3424696E-2,-1.6593914E-2,-3.3067122E-2,-2.1966865E-2,2.1830203E-2,-1.5245166E-2,8.862202E-3,3.9439492E-2,1.4449203E-2,-3.736393E-2,1.7086312E-2,-1.2936433E-2,-1.7429812E-2,1.0797569E-2,-1.172828E-2,4.882249E-3,-4.1612454E-2,-8.662235E-3,2.0128747E-2,4.125401E-3,9.63005E-3,2.8996244E-2,2.8767979E-2,3.445807E-3,2.6952153E-2,1.2381471E-3,3.915718E-2,1.6538285E-2],"split_indices":[3,17,17,8,4,3,3,5,1,10,19,17,17,11,12,0,0,5,12,16,3,8,19,10,2,19,5,17,10,19,10,0,0,0,0,0,0,0,0,0,0,0,0,0,0,0,0,0,0,0,0,0,0,0,0,0,0,0,0],"split_type":[0,0,0,0,0,0,0,0,0,0,0,0,0,0,0,0,0,0,0,0,0,0,0,0,0,0,0,0,0,0,0,0,0,0,0,0,0,0,0,0,0,0,0,0,0,0,0,0,0,0,0,0,0,0,0,0,0,0,0],"sum_hessian":[6.668535E2,1.6262286E2,5.0423065E2,1.1718216E2,4.5440704E1,2.8300925E2,2.212214E2,3.7163181E0,1.1346584E2,1.3836079E1,3.1604626E1,1.9264442E2,9.036483E1,1.7352246E2,4.769895E1,1.97346E0,1.7428583E0,7.6801844E0,1.0578566E2,9.157861E0,4.6782174E0,1.236727E1,1.9237356E1,6.1327835E1,1.3131659E2,3.2234347E0,8.7141396E1,9.024231E1,8.328015E1,2.9749624E1,1.7949326E1,2.9729507E0,4.7072334E0,5.3719566E1,5.2066093E1,3.225274E0,5.932587E0,1.9910929E0,2.6871247E0,1.7335758E0,1.0633695E1,4.4229856E0,1.481437E1,5.544779E1,5.880047E0,5.332388E1,7.799271E1,1.9914895E0,1.2319453E0,4.0180107E1,4.6961285E1,6.1301174E1,2.8941132E1,4.275857E0,7.9004295E1,2.0183056E1,9.566568E0,1.4063361E1,3.8859637E0],"tree_param":{"num_deleted":"0","num_feature":"22","num_nodes":"59","size_leaf_vector":"1"}},{"base_weights":[1.8045837E-2,-2.9156545E-1,2.4065144E-1,9.07805E-2,-4.6055073E-1,5.7531744E-1,1.4965013E-1,8.5763085E-1,3.801627E-5,-9.205096E-1,-3.1499037E-1,1.7981505E-1,8.030116E-1,2.200781E-1,-9.023139E-2,1.0818697E0,-5.9417533E-3,-6.689538E-1,9.3368396E-2,1.2059753E-1,-1.0348334E0,1.5640627E-3,-4.9263614E-1,-2.8761038E-1,4.7645748E-1,9.4541484E-1,1.3365129E-1,9.7128466E-2,4.220251E-1,-7.129905E-1,1.00276574E-1,1.6926972E-3,4.1056108E-2,-3.0703388E-2,3.187229E-3,6.5082493E-3,-1.2467239E-2,1.6828926E-2,-2.2911299E-2,-2.1311074E-2,-3.922792E-2,4.1198893E-3,-2.8366657E-2,-1.632451E-2,2.4943257E-2,-2.0786092E-2,1.8213997E-2,1.768978E-2,-1.374054E-2,3.093913E-2,-1.3963374E-2,-1.1548694E-2,2.7952066E-2,1.3383833E-2,-2.923714E-4,2.6052382E-2,8.231289E-3,-2.6718112E-2,9.192007E-3,8.893732E-3,-8.493933E-3],"categories":[],"categories_nodes":[],"categories_segments":[],"categories_sizes":[],"default_left":[0,0,0,0,0,0,0,0,0,0,0,0,0,0,0,0,0,0,0,0,0,0,0,0,0,0,0,0,0,0,0,0,0,0,0,0,0,0,0,0,0,0,0,0,0,0,0,0,0,0,0,0,0,0,0,0,0,0,0,0,0],"id":19,"left_children":[1,3,5,7,9,11,13,15,17,19,21,23,25,27,29,31,-1,33,35,37,39,41,43,45,47,49,51,53,55,57,59,-1,-1,-1,-1,-1,-1,-1,-1,-1,-1,-1,-1,-1,-1,-1,-1,-1,-1,-1,-1,-1,-1,-1,-1,-1,-1,-1,-1,-1,-1],"loss_changes":[4.5605526E1,1.792556E1,1.1635906E1,5.961613E0,1.2572731E1,7.2339954E0,5.1551037E0,2.3602223E0,4.908096E0,5.55978E0,8.292872E0,4.466511E0,4.8025208E0,5.8004875E0,8.340336E0,2.1662016E0,0E0,2.7534037E0,4.4286885E0,2.536635E0,2.7217789E0,7.0736876E0,6.8950367E0,5.0424232E0,2.3305469E0,5.626869E0,4.595162E0,5.507206E0,5.609915E0,3.2512255E0,4.1642394E0,0E0,0E0,0E0,0E0,0E0,0E0,0E0,0E0,0E0,0E0,0E0,0E0,0E0,0E0,0E0,0E0,0E0,0E0,0E0,0E0,0E0,0E0,0E0,0E0,0E0,0E0,0E0,0E0,0E0,0E0],"parents":[2147483647,0,0,1,1,2,2,3,3,4,4,5,5,6,6,7,7,8,8,9,9,10,10,11,11,12,12,13,13,14,14,15,15,17,17,18,18,19,19,20,20,21,21,22,22,23,23,24,24,25,25,26,26,27,27,28,28,29,29,30,30],"right_children":[2,4,6,8,10,12,14,16,18,20,22,24,26,28,30,32,-1,34,36,38,40,42,44,46,48,50,52,54,56,58,60,-1,-1,-1,-1,-1,-1,-1,-1,-1,-1,-1,-1,-1,-1,-1,-1,-1,-1,-1,-1,-1,-1,-1,-1,-1,-1,-1,-1,-1,-1],"split_conditions":[3.809524E-1,5E0,7.65E0,2E0,2.2222222E-1,3.3962265E-1,8E0,4E0,1.764706E-1,5.19242E5,2.2222222E-1,4E0,1.2E0,3.6734694E-1,4.390244E-1,5.1282052E-2,-5.9417533E-3,3.255814E-1,4.2857143E-1,1.2962963E-1,2.826087E-1,6.76664E5,3.14E-1,3E0,3.255814E-1,5E0,4.5614034E-1,4.25E-1,6.666667E-1,3.7037036E-1,8.888889E-1,1.6926972E-3,4.1056108E-2,-3.0703388E-2,3.187229E-3,6.5082493E-3,-1.2467239E-2,1.6828926E-2,-2.2911299E-2,-2.1311074E-2,-3.922792E-2,4.1198893E-3,-2.8366657E-2,-1.632451E-2,2.4943257E-2,-2.0786092E-2,1.8213997E-2,1.768978E-2,-1.374054E-2,3.093913E-2,-1.3963374E-2,-1.1548694E-2,2.7952066E-2,1.3383833E-2,-2.923714E-4,2.6052382E-2,8.231289E-3,-2.6718112E-2,9.192007E-3,8.893732E-3,-8.493933E-3],"split_indices":[18,5,11,5,18,17,5,4,18,1,16,5,16,17,18,20,0,19,16,20,19,1,14,4,19,4,17,18,16,17,16,0,0,0,0,0,0,0,0,0,0,0,0,0,0,0,0,0,0,0,0,0,0,0,0,0,0,0,0,0,0],"split_type":[0,0,0,0,0,0,0,0,0,0,0,0,0,0,0,0,0,0,0,0,0,0,0,0,0,0,0,0,0,0,0,0,0,0,0,0,0,0,0,0,0,0,0,0,0,0,0,0,0,0,0,0,0,0,0,0,0,0,0,0,0],"sum_hessian":[6.5968713E2,2.7579187E2,3.8389526E2,8.467319E1,1.911187E2,8.09333E1,3.0296198E2,8.065094E0,7.660809E1,4.4663086E1,1.4645561E2,3.022409E1,5.0709206E1,2.3426541E2,6.8696556E1,6.6316633E0,1.4334309E0,8.623964E0,6.798413E1,4.413751E0,4.0249332E1,5.30014E1,9.3454216E1,1.174605E1,1.847804E1,4.14735E1,9.235706E0,1.4653362E2,8.7731804E1,1.5449732E1,5.3246826E1,1.7103475E0,4.9213157E0,5.6980376E0,2.9259267E0,5.5163876E1,1.2820252E1,3.190563E0,1.2231882E0,2.002869E1,2.0220642E1,4.710421E1,5.8971887E0,9.0521454E1,2.9327652E0,8.239656E0,3.506394E0,1.6810606E1,1.667433E0,3.9347176E1,2.1263268E0,5.9117846E0,3.3239217E0,3.36089E1,1.1292471E2,2.0592564E1,6.7139244E1,1.3264869E1,2.1848629E0,3.5373684E1,1.7873144E1],"tree_param":{"num_deleted":"0","num_feature":"22","num_nodes":"61","size_leaf_vector":"1"}},{"base_weights":[1.0329707E-2,-3.7600872E-1,2.9163405E-1,-7.674755E-1,-2.2702609E-1,-1.5845159E-1,4.3895933E-1,-8.1052876E-1,1.7188402E-2,-4.1999343E-1,6.1063938E-2,-1.0493048E0,-5.4828715E-2,3.2701054E-1,7.2857374E-1,3.4649876E-1,-8.589981E-1,3.0836958E-1,-5.044161E-1,-5.596362E-1,2.4216065E-1,-1.9628909E-1,-1.4286091E0,-2.5967252E-1,4.629879E-1,1.3629696E-1,5.006327E-1,5.7678366E-1,1.0561814E0,2.2212991E-2,-7.3224013E-3,-3.653143E-2,-1.801049E-2,2.1691844E-2,-2.8765544E-2,-1.7180232E-2,1.7039772E-2,-4.5762444E-3,-3.0477937E-2,2.9396033E-2,2.6982347E-3,1.429432E-2,-2.5809214E-2,-4.8461996E-2,-1.374606E-2,-4.5312834E-3,-2.835699E-2,-4.58606E-3,2.1251667E-2,-4.613932E-3,1.1508855E-2,2.102682E-2,7.314646E-3,9.739459E-3,2.7177567E-2,3.4588404E-2,-6.90083E-4],"categories":[],"categories_nodes":[],"categories_segments":[],"categories_sizes":[],"default_left":[0,0,0,0,0,0,0,0,0,0,0,0,0,0,0,0,0,0,0,0,0,0,0,0,0,0,0,0,0,0,0,0,0,0,0,0,0,0,0,0,0,0,0,0,0,0,0,0,0,0,0,0,0,0,0,0,0],"id":20,"left_children":[1,3,5,7,9,11,13,15,-1,17,19,21,23,25,27,29,31,33,35,37,39,41,43,45,47,49,51,53,55,-1,-1,-1,-1,-1,-1,-1,-1,-1,-1,-1,-1,-1,-1,-1,-1,-1,-1,-1,-1,-1,-1,-1,-1,-1,-1,-1,-1],"loss_changes":[7.247532E1,1.6213795E1,2.5656506E1,4.9103203E0,1.141942E1,8.794696E0,9.195927E0,4.5068436E0,0E0,7.7106915E0,9.474998E0,2.9346752E0,9.343888E0,6.9407635E0,3.3842354E0,1.0485909E0,5.9794617E0,7.725953E0,8.412823E0,3.3870525E0,7.212987E0,2.294139E0,4.7773552E-1,4.545186E0,3.8877935E0,7.3951454E0,5.508356E0,4.4429417E0,2.5561657E0,0E0,0E0,0E0,0E0,0E0,0E0,0E0,0E0,0E0,0E0,0E0,0E0,0E0,0E0,0E0,0E0,0E0,0E0,0E0,0E0,0E0,0E0,0E0,0E0,0E0,0E0,0E0,0E0],"parents":[2147483647,0,0,1,1,2,2,3,3,4,4,5,5,6,6,7,7,9,9,10,10,11,11,12,12,13,13,14,14,15,15,16,16,17,17,18,18,19,19,20,20,21,21,22,22,23,23,24,24,25,25,26,26,27,27,28,28],"right_children":[2,4,6,8,10,12,14,16,-1,18,20,22,24,26,28,30,32,34,36,38,40,42,44,46,48,50,52,54,56,-1,-1,-1,-1,-1,-1,-1,-1,-1,-1,-1,-1,-1,-1,-1,-1,-1,-1,-1,-1,-1,-1,-1,-1,-1,-1,-1,-1],"split_conditions":[5E0,3E0,2.682927E-1,6.923077E-1,3.2786885E-1,1.5789473E-1,8E0,2.26E0,1.7188402E-2,1.7021276E-1,1.6666667E-1,2.024E3,4.13E0,3.4042552E-1,6.63436E5,1.14285715E-1,3.63E0,4.31E0,4.03E0,1E0,7.49E0,1.3513513E-1,2.93E0,1.077E1,2.53E-1,2E0,9.03E0,3.617021E-1,4.56E0,2.2212991E-2,-7.3224013E-3,-3.653143E-2,-1.801049E-2,2.1691844E-2,-2.8765544E-2,-1.7180232E-2,1.7039772E-2,-4.5762444E-3,-3.0477937E-2,2.9396033E-2,2.6982347E-3,1.429432E-2,-2.5809214E-2,-4.8461996E-2,-1.374606E-2,-4.5312834E-3,-2.835699E-2,-4.58606E-3,2.1251667E-2,-4.613932E-3,1.1508855E-2,2.102682E-2,7.314646E-3,9.739459E-3,2.7177567E-2,3.4588404E-2,-6.90083E-4],"split_indices":[3,3,17,18,17,17,3,8,0,19,19,2,13,17,1,20,10,8,12,21,11,18,12,11,14,4,11,17,8,0,0,0,0,0,0,0,0,0,0,0,0,0,0,0,0,0,0,0,0,0,0,0,0,0,0,0,0],"split_type":[0,0,0,0,0,0,0,0,0,0,0,0,0,0,0,0,0,0,0,0,0,0,0,0,0,0,0,0,0,0,0,0,0,0,0,0,0,0,0,0,0,0,0,0,0,0,0,0,0,0,0,0,0,0,0,0,0],"sum_hessian":[6.648681E2,2.799934E2,3.8487466E2,7.6039795E1,2.0395361E2,9.4893875E1,2.899808E2,7.405648E1,1.9833139E0,1.21867165E2,8.208645E1,8.936859E0,8.5957016E1,2.1067479E2,7.9306E1,2.730363E0,7.132612E1,1.23826065E1,1.0948456E2,1.8068226E1,6.401823E1,3.2178178E0,5.719041E0,6.194903E1,2.400798E1,1.0124654E2,1.0942826E2,5.6082127E1,2.3223871E1,1.4856484E0,1.2447144E0,2.8329004E1,4.2997116E1,9.653091E0,2.7295153E0,1.0337103E2,6.113521E0,1.0254092E1,7.8141327E0,1.0020122E1,5.39981E1,1.7386721E0,1.4791456E0,4.2385187E0,1.4805224E0,5.452902E1,7.4200134E0,6.948114E0,1.7059866E1,4.67692E1,5.4477333E1,6.0511887E1,4.8916374E1,3.288038E1,2.3201748E1,2.1250122E1,1.9737505E0],"tree_param":{"num_deleted":"0","num_feature":"22","num_nodes":"57","size_leaf_vector":"1"}},{"base_weights":[3.208319E-2,-3.6062047E-1,3.2543114E-1,-7.767799E-1,-2.0739432E-1,1.0756272E-1,5.6760037E-1,-1.0045594E0,-4.1239202E-1,-5.391407E-1,-8.419281E-2,-7.62954E-2,3.5427794E-1,5.020729E-1,8.974761E-1,-2.4649642E-1,-1.0949688E0,-9.1165766E-2,-9.1296023E-1,-1.0847533E0,-3.0382198E-1,-2.1204172E-1,2.2803384E-1,1.2954931E-1,-4.0001908E-1,5.485389E-1,-3.410645E-1,6.4724785E-1,3.2036245E-1,-3.605557E-2,1.0200436E0,1.0119755E-2,-3.3503365E-2,3.291563E-3,-3.4297876E-2,-2.4340253E-2,4.6612374E-3,-3.2605648E-2,2.1846201E-3,5.286524E-3,-3.7346322E-2,7.567609E-4,-2.2379208E-2,5.190984E-3,-1.0697886E-2,2.9036807E-2,-1.0719912E-3,-7.5550396E-3,9.365004E-3,-3.9442338E-2,-6.5034195E-3,7.5354883E-3,2.5263362E-2,-2.5290418E-2,4.219265E-3,1.5123698E-2,3.1721417E-2,2.999012E-2,6.388933E-3,2.3124307E-2,-1.6641706E-2,3.2441456E-2,-5.0117844E-3],"categories":[],"categories_nodes":[],"categories_segments":[],"categories_sizes":[],"default_left":[0,0,0,0,0,0,0,0,0,0,0,0,0,0,0,0,0,0,0,0,0,0,0,0,0,0,0,0,0,0,0,0,0,0,0,0,0,0,0,0,0,0,0,0,0,0,0,0,0,0,0,0,0,0,0,0,0,0,0,0,0,0,0],"id":21,"left_children":[1,3,5,7,9,11,13,15,17,19,21,23,25,27,29,31,33,35,37,39,41,43,45,47,49,51,53,55,57,59,61,-1,-1,-1,-1,-1,-1,-1,-1,-1,-1,-1,-1,-1,-1,-1,-1,-1,-1,-1,-1,-1,-1,-1,-1,-1,-1,-1,-1,-1,-1,-1,-1],"loss_changes":[7.630192E1,1.7900894E1,1.9939545E1,5.8822136E0,8.471891E0,9.134779E0,3.4249992E0,2.8816833E0,4.881606E0,6.8922653E0,6.1614904E0,7.7731185E0,1.17921915E1,3.7984238E0,3.2912807E0,3.5220034E0,2.498787E0,3.6626267E0,2.129056E0,3.5630665E0,5.9384317E0,6.1386094E0,8.810952E0,5.064475E0,7.305194E0,5.6841335E0,4.8039002E0,4.3643646E0,4.851674E0,2.2132654E0,2.0138721E0,0E0,0E0,0E0,0E0,0E0,0E0,0E0,0E0,0E0,0E0,0E0,0E0,0E0,0E0,0E0,0E0,0E0,0E0,0E0,0E0,0E0,0E0,0E0,0E0,0E0,0E0,0E0,0E0,0E0,0E0,0E0,0E0],"parents":[2147483647,0,0,1,1,2,2,3,3,4,4,5,5,6,6,7,7,8,8,9,9,10,10,11,11,12,12,13,13,14,14,15,15,16,16,17,17,18,18,19,19,20,20,21,21,22,22,23,23,24,24,25,25,26,26,27,27,28,28,29,29,30,30],"right_children":[2,4,6,8,10,12,14,16,18,20,22,24,26,28,30,32,34,36,38,40,42,44,46,48,50,52,54,56,58,60,62,-1,-1,-1,-1,-1,-1,-1,-1,-1,-1,-1,-1,-1,-1,-1,-1,-1,-1,-1,-1,-1,-1,-1,-1,-1,-1,-1,-1,-1,-1,-1,-1],"split_conditions":[5E0,2.972973E-1,4.390244E-1,4E0,3E0,7E0,9E0,3.04E0,2.2222222E-1,3.39E0,5.277778E-1,6.56427E5,9.69E0,9.03E0,5.43475E5,1E1,3E0,3.64E0,1.28E0,5.43243E5,5.555556E-1,4E-1,6.666667E-1,6.557377E-2,7.82E0,2E0,1E0,6.1904764E-1,3.1E0,4.761905E-2,6.76974E5,1.0119755E-2,-3.3503365E-2,3.291563E-3,-3.4297876E-2,-2.4340253E-2,4.6612374E-3,-3.2605648E-2,2.1846201E-3,5.286524E-3,-3.7346322E-2,7.567609E-4,-2.2379208E-2,5.190984E-3,-1.0697886E-2,2.9036807E-2,-1.0719912E-3,-7.5550396E-3,9.365004E-3,-3.9442338E-2,-6.5034195E-3,7.5354883E-3,2.5263362E-2,-2.5290418E-2,4.219265E-3,1.5123698E-2,3.1721417E-2,2.999012E-2,6.388933E-3,2.3124307E-2,-1.6641706E-2,3.2441456E-2,-5.0117844E-3],"split_indices":[3,18,18,3,3,3,3,10,16,10,18,1,11,11,1,5,5,15,9,1,16,16,16,20,11,4,21,18,15,20,1,0,0,0,0,0,0,0,0,0,0,0,0,0,0,0,0,0,0,0,0,0,0,0,0,0,0,0,0,0,0,0,0],"split_type":[0,0,0,0,0,0,0,0,0,0,0,0,0,0,0,0,0,0,0,0,0,0,0,0,0,0,0,0,0,0,0,0,0,0,0,0,0,0,0,0,0,0,0,0,0,0,0,0,0,0,0,0,0,0,0,0,0,0,0,0,0,0,0],"sum_hessian":[6.603311E2,2.822521E2,3.7807904E2,7.486114E1,2.0739096E2,1.9978549E2,1.7829355E2,4.4984444E1,2.9876692E1,5.5247955E1,1.52143E2,1.1487134E2,8.491415E1,1.5085023E2,2.7443321E1,5.1904144E0,3.979403E1,1.8918425E1,1.0958268E1,1.5560194E1,3.968776E1,1.0817071E2,4.3972298E1,7.05872E1,4.4284145E1,6.653662E1,1.8377518E1,8.24311E1,6.8419136E1,3.2669013E0,2.417642E1,3.4729867E0,1.7174277E0,1.4847599E0,3.830927E1,4.2404923E0,1.4677932E1,9.227906E0,1.730362E0,1.7419447E0,1.381825E1,2.3294813E1,1.6392948E1,2.9469843E1,7.870087E1,1.0854941E1,3.3117355E1,2.2732632E1,4.785456E1,6.3600006E0,3.7924145E1,3.3977207E1,3.2559418E1,8.632352E0,9.745167E0,6.2759125E1,1.9671972E1,8.206121E0,6.0213013E1,1.0880861E0,2.1788154E0,2.307327E1,1.1031499E0],"tree_param":{"num_deleted":"0","num_feature":"22","num_nodes":"63","size_leaf_vector":"1"}},{"base_weights":[7.862277E-3,-5.411805E-1,1.8900047E-1,-9.9357706E-1,-3.305881E-1,2.1353286E-2,5.1235515E-1,-1.2237308E0,-6.263437E-1,-8.7495077E-1,-2.3451887E-1,-5.9724126E-2,5.358289E-1,4.1519683E-2,6.1809117E-1,9.234708E-3,-1.2994071E0,8.004054E-2,-1.0924716E0,-9.8969626E-1,9.134104E-3,-4.0669355E-1,9.987344E-2,-4.2271432E-1,2.4964951E-2,7.283321E-1,4.071856E-2,-1.7613739E-1,5.9403E-1,5.462311E-1,1.0712811E0,-4.359527E-2,-2.1003006E-2,2.5130946E-2,-1.772518E-2,-2.5472569E-3,-3.7113965E-2,-6.432366E-3,-3.661472E-2,-7.863981E-3,-2.3032103E-2,3.0239144E-2,-2.4277351E-3,-1.6427768E-2,2.2046378E-2,3.6840888E-3,-6.954008E-3,8.226383E-3,2.847122E-2,1.5260009E-2,-1.9089503E-2,-1.08712055E-2,1.430827E-2,2.8262205E-2,-2.9296165E-2,1.6998498E-2,-1.8095974E-2,3.319208E-2,8.167072E-3],"categories":[],"categories_nodes":[],"categories_segments":[],"categories_sizes":[],"default_left":[0,0,0,0,0,0,0,0,0,0,0,0,0,0,0,0,0,0,0,0,0,0,0,0,0,0,0,0,0,0,0,0,0,0,0,0,0,0,0,0,0,0,0,0,0,0,0,0,0,0,0,0,0,0,0,0,0,0,0],"id":22,"left_children":[1,3,5,7,9,11,13,15,17,19,21,23,25,27,29,-1,31,33,35,37,-1,39,41,43,45,47,49,51,53,55,57,-1,-1,-1,-1,-1,-1,-1,-1,-1,-1,-1,-1,-1,-1,-1,-1,-1,-1,-1,-1,-1,-1,-1,-1,-1,-1,-1,-1],"loss_changes":[6.525623E1,1.5179588E1,2.6733196E1,3.5614853E0,5.6819077E0,1.3627854E1,8.358238E0,3.9268608E0,7.2577124E0,2.5370817E0,5.6282363E0,8.694036E0,4.2091312E0,3.9475076E0,3.8910484E0,0E0,1.6724739E0,5.368974E0,1.8171186E0,2.4743214E0,0E0,3.1527653E0,5.629146E0,8.135039E0,5.8058357E0,2.943407E0,4.603866E0,3.0548732E0,5.981512E0,3.1694794E0,1.9752884E-1,0E0,0E0,0E0,0E0,0E0,0E0,0E0,0E0,0E0,0E0,0E0,0E0,0E0,0E0,0E0,0E0,0E0,0E0,0E0,0E0,0E0,0E0,0E0,0E0,0E0,0E0,0E0,0E0],"parents":[2147483647,0,0,1,1,2,2,3,3,4,4,5,5,6,6,7,7,8,8,9,9,10,10,11,11,12,12,13,13,14,14,16,16,17,17,18,18,19,19,21,21,22,22,23,23,24,24,25,25,26,26,27,27,28,28,29,29,30,30],"right_children":[2,4,6,8,10,12,14,16,18,20,22,24,26,28,30,-1,32,34,36,38,-1,40,42,44,46,48,50,52,54,56,58,-1,-1,-1,-1,-1,-1,-1,-1,-1,-1,-1,-1,-1,-1,-1,-1,-1,-1,-1,-1,-1,-1,-1,-1,-1,-1,-1,-1],"split_conditions":[4E0,3.0769232E-1,7E0,2.81E-1,2E0,3.888889E-1,2.5641027E-1,3E0,2E-1,3.4285715E-1,1.22E0,2.3809524E-1,2.89E-1,4.27E0,1E1,9.234708E-3,2.888889E-1,9.98E0,3.12E0,1.75E-1,9.134104E-3,7.5E-1,3.88E0,4.66E0,7E-1,2.66E-1,3.64E0,9E0,4.2857143E-1,9E0,3.243243E-1,-4.359527E-2,-2.1003006E-2,2.5130946E-2,-1.772518E-2,-2.5472569E-3,-3.7113965E-2,-6.432366E-3,-3.661472E-2,-7.863981E-3,-2.3032103E-2,3.0239144E-2,-2.4277351E-3,-1.6427768E-2,2.2046378E-2,3.6840888E-3,-6.954008E-3,8.226383E-3,2.847122E-2,1.5260009E-2,-1.9089503E-2,-1.08712055E-2,1.430827E-2,2.8262205E-2,-2.9296165E-2,1.6998498E-2,-1.8095974E-2,3.319208E-2,8.167072E-3],"split_indices":[3,18,3,14,3,17,17,5,16,19,9,17,14,10,3,0,17,11,10,19,0,16,15,10,16,14,15,3,16,7,19,0,0,0,0,0,0,0,0,0,0,0,0,0,0,0,0,0,0,0,0,0,0,0,0,0,0,0,0],"split_type":[0,0,0,0,0,0,0,0,0,0,0,0,0,0,0,0,0,0,0,0,0,0,0,0,0,0,0,0,0,0,0,0,0,0,0,0,0,0,0,0,0,0,0,0,0,0,0,0,0,0,0,0,0,0,0,0,0,0,0],"sum_hessian":[6.541256E2,1.6177783E2,4.9234778E2,5.0206257E1,1.1157157E2,3.2494308E2,1.6740468E2,2.9429684E1,2.0776573E1,1.5520328E1,9.605125E1,2.8146954E2,4.3473534E1,3.0955328E1,1.3644936E2,1.2412553E0,2.8188429E1,8.588932E0,1.2187641E1,1.4290838E1,1.2294887E0,6.3262108E1,3.2789135E1,5.2491535E1,2.2897803E2,3.0963575E1,1.2509958E1,2.269573E1,8.259598E0,1.19677925E2,1.6771431E1,2.1298866E1,6.889563E0,3.916819E0,4.6721125E0,1.7293875E0,1.0458254E1,3.720836E0,1.0570003E1,4.640693E1,1.685518E1,4.684593E0,2.8104544E1,4.7855927E1,4.635607E0,1.6617883E2,6.2799183E1,1.0860321E1,2.0103254E1,7.544257E0,4.9657006E0,1.8006126E1,4.689604E0,7.088854E0,1.1707442E0,1.1809059E2,1.5873321E0,1.5696831E1,1.0745991E0],"tree_param":{"num_deleted":"0","num_feature":"22","num_nodes":"59","size_leaf_vector":"1"}},{"base_weights":[-1.4140129E-2,-3.899952E-1,1.1530222E-1,2.399481E-2,-5.542077E-1,1.8060924E-2,4.0553865E-1,-3.2079287E-2,9.117782E-2,-6.4351594E-1,-6.2536E-2,8.917559E-1,-1.8833643E-2,8.0304396E-1,2.892654E-1,5.1975656E-1,-8.895406E-2,-5.21098E-1,-9.00897E-1,-3.312077E-2,9.486618E-2,3.6467066E-1,1.0688431E0,1.4162141E-1,-1.3047335E-1,4.7544938E-1,1.3257314E0,5.485675E-1,5.8369182E-2,6.171507E-3,3.399756E-2,3.2357655E-2,-5.2019544E-3,-2.2483459E-3,-1.854454E-2,-1.8732866E-2,-4.1695856E-2,-1.6657151E-2,1.2151112E-2,2.2639973E-2,-1.7347867E-2,3.9564345E-2,1.42666055E-2,7.223097E-3,-7.0102313E-3,-3.8167577E-2,-2.6777373E-3,3.5597112E-2,4.0273825E-3,1.3186205E-2,4.184501E-2,1.8649092E-2,-3.0265663E-2,2.4377437E-2,-2.9190497E-3],"categories":[],"categories_nodes":[],"categories_segments":[],"categories_sizes":[],"default_left":[0,0,0,0,0,0,0,0,0,0,0,0,0,0,0,0,0,0,0,0,0,0,0,0,0,0,0,0,0,0,0,0,0,0,0,0,0,0,0,0,0,0,0,0,0,0,0,0,0,0,0,0,0,0,0],"id":23,"left_children":[1,3,5,7,9,11,13,-1,15,17,19,21,23,25,27,29,31,33,35,-1,37,39,41,43,45,47,49,51,53,-1,-1,-1,-1,-1,-1,-1,-1,-1,-1,-1,-1,-1,-1,-1,-1,-1,-1,-1,-1,-1,-1,-1,-1,-1,-1],"loss_changes":[3.2526367E1,1.1655689E1,1.403013E1,3.7404072E0,5.3458023E0,1.2059704E1,5.534708E0,0E0,3.7245655E0,2.79784E0,3.3773165E0,1.025073E0,6.457254E0,4.108429E0,5.841421E0,2.511497E0,3.5786586E0,3.0992565E0,3.4650116E0,0E0,3.9074855E0,2.3963892E0,9.7869015E-1,5.5617943E0,9.885788E0,4.346836E0,5.6171417E-3,5.871991E0,6.303083E0,0E0,0E0,0E0,0E0,0E0,0E0,0E0,0E0,0E0,0E0,0E0,0E0,0E0,0E0,0E0,0E0,0E0,0E0,0E0,0E0,0E0,0E0,0E0,0E0,0E0,0E0],"parents":[2147483647,0,0,1,1,2,2,3,3,4,4,5,5,6,6,8,8,9,9,10,10,11,11,12,12,13,13,14,14,15,15,16,16,17,17,18,18,20,20,21,21,22,22,23,23,24,24,25,25,26,26,27,27,28,28],"right_children":[2,4,6,8,10,12,14,-1,16,18,20,22,24,26,28,30,32,34,36,-1,38,40,42,44,46,48,50,52,54,-1,-1,-1,-1,-1,-1,-1,-1,-1,-1,-1,-1,-1,-1,-1,-1,-1,-1,-1,-1,-1,-1,-1,-1,-1,-1],"split_conditions":[3.0769232E-1,5E0,3.7777779E-1,1.3207547E-1,4.26E0,2E0,6.666667E-1,-3.2079287E-2,2.0408164E-1,1.14285715E-1,1.7073171E-1,7.48E0,4.4444445E-1,3.93E0,1.0909091E-1,1.875E-1,2.82E0,7.98E0,2.7906978E-1,-3.312077E-2,2.3255815E-1,7.16E0,2.3404256E-1,4.31E0,2.4444444E-1,3.14E0,3.809524E-1,5E0,7.49E0,6.171507E-3,3.399756E-2,3.2357655E-2,-5.2019544E-3,-2.2483459E-3,-1.854454E-2,-1.8732866E-2,-4.1695856E-2,-1.6657151E-2,1.2151112E-2,2.2639973E-2,-1.7347867E-2,3.9564345E-2,1.42666055E-2,7.223097E-3,-7.0102313E-3,-3.8167577E-2,-2.6777373E-3,3.5597112E-2,4.0273825E-3,1.3186205E-2,4.184501E-2,1.8649092E-2,-3.0265663E-2,2.4377437E-2,-2.9190497E-3],"split_indices":[18,5,17,19,13,5,16,0,19,20,17,11,16,8,20,19,8,11,19,0,19,11,19,8,17,8,18,4,11,0,0,0,0,0,0,0,0,0,0,0,0,0,0,0,0,0,0,0,0,0,0,0,0,0,0],"split_type":[0,0,0,0,0,0,0,0,0,0,0,0,0,0,0,0,0,0,0,0,0,0,0,0,0,0,0,0,0,0,0,0,0,0,0,0,0,0,0,0,0,0,0,0,0,0,0,0,0,0,0,0,0,0,0],"sum_hessian":[6.666331E2,1.7025618E2,4.9637695E2,4.8596138E1,1.2166005E2,3.72602E2,1.2377497E2,1.9497912E0,4.6646347E1,1.026971E2,1.896295E1,1.4158002E1,3.58444E2,2.6674812E1,9.710016E1,1.3245817E1,3.340053E1,7.164519E1,3.1051908E1,1.7000582E0,1.7262892E1,4.329849E0,9.828154E0,1.4695836E2,2.1148563E2,1.7571495E1,9.103316E0,4.5088665E1,5.2011494E1,9.644337E0,3.6014802E0,1.4587564E0,3.1941774E1,1.3117302E1,5.8527885E1,2.1290806E1,9.761105E0,5.3207436E0,1.1942148E1,3.2042418E0,1.1256068E0,6.054398E0,3.7737556E0,1.16530815E2,3.0427546E1,6.327531E0,2.051581E2,4.8940096E0,1.2677485E1,1.1909453E0,7.9123716E0,4.364199E1,1.4466747E0,8.176616E0,4.3834877E1],"tree_param":{"num_deleted":"0","num_feature":"22","num_nodes":"55","size_leaf_vector":"1"}},{"base_weights":[1.8715728E-2,-3.558946E-1,2.903267E-1,-5.487599E-1,-3.9321374E-2,2.1163341E-1,8.123638E-1,-7.2974145E-1,-2.8760502E-1,-1.4699449E-1,7.532211E-1,-4.3592268E-1,2.716672E-1,8.62174E-1,-8.779784E-3,4.6742946E-1,-7.962724E-1,-7.028768E-1,-1.1030307E-1,4.5336184E-1,-2.578373E-1,1.7141035E-2,3.9616052E-2,-6.3850194E-1,5.52328E-1,2.1606813E-1,6.0344756E-1,9.6160674E-1,4.6347283E-2,2.4132019E-2,-6.7148963E-3,-1.3435112E-2,-2.6614312E-2,-2.5566196E-2,2.9077921E-2,1.9124055E-2,-1.20524485E-2,-1.5214491E-2,2.1154635E-2,1.7386664E-2,-1.1361931E-2,-1.5319678E-2,1.3440912E-2,-2.4235612E-2,1.1202519E-2,3.697615E-2,-1.2518628E-2,7.1144267E-3,-3.3730038E-2,2.387305E-2,-3.917824E-3,3.169535E-2,8.820704E-3,2.9403882E-2,-1.6510295E-2],"categories":[],"categories_nodes":[],"categories_segments":[],"categories_sizes":[],"default_left":[0,0,0,0,0,0,0,0,0,0,0,0,0,0,0,0,0,0,0,0,0,0,0,0,0,0,0,0,0,0,0,0,0,0,0,0,0,0,0,0,0,0,0,0,0,0,0,0,0,0,0,0,0,0,0],"id":24,"left_children":[1,3,5,7,9,11,13,15,17,19,21,23,25,27,-1,29,31,33,35,37,39,41,-1,43,45,47,49,51,53,-1,-1,-1,-1,-1,-1,-1,-1,-1,-1,-1,-1,-1,-1,-1,-1,-1,-1,-1,-1,-1,-1,-1,-1,-1,-1],"loss_changes":[6.707501E1,1.6896973E1,1.552549E1,7.9250755E0,9.154784E0,1.30797415E1,2.9880295E0,8.417767E0,5.2313576E0,6.3816423E0,5.3390546E0,6.092599E0,5.5094433E0,3.833969E0,0E0,1.5655893E0,2.6443787E0,6.166543E0,1.1526788E1,3.9938326E0,8.329249E0,1.7301673E0,0E0,4.4586897E0,4.0848255E0,7.70936E0,6.2199554E0,2.386303E0,4.0189433E0,0E0,0E0,0E0,0E0,0E0,0E0,0E0,0E0,0E0,0E0,0E0,0E0,0E0,0E0,0E0,0E0,0E0,0E0,0E0,0E0,0E0,0E0,0E0,0E0,0E0,0E0],"parents":[2147483647,0,0,1,1,2,2,3,3,4,4,5,5,6,6,7,7,8,8,9,9,10,10,11,11,12,12,13,13,15,15,16,16,17,17,18,18,19,19,20,20,21,21,23,23,24,24,25,25,26,26,27,27,28,28],"right_children":[2,4,6,8,10,12,14,16,18,20,22,24,26,28,-1,30,32,34,36,38,40,42,-1,44,46,48,50,52,54,-1,-1,-1,-1,-1,-1,-1,-1,-1,-1,-1,-1,-1,-1,-1,-1,-1,-1,-1,-1,-1,-1,-1,-1,-1,-1],"split_conditions":[5E0,4.4444445E-1,9E0,4E0,3.64E0,2.0930232E-1,3.08E-1,2.49E0,2.3809524E-1,4.2857143E-1,1E0,3E0,3.962264E-1,3.3333334E-1,-8.779784E-3,3E0,3.15E0,3.7E0,2.7083334E-1,3.21E0,3.23E0,1.7021276E-1,3.9616052E-2,4.71E0,6E0,1.2E0,2.3076923E-1,4.1666666E-1,3.6E0,2.4132019E-2,-6.7148963E-3,-1.3435112E-2,-2.6614312E-2,-2.5566196E-2,2.9077921E-2,1.9124055E-2,-1.20524485E-2,-1.5214491E-2,2.1154635E-2,1.7386664E-2,-1.1361931E-2,-1.5319678E-2,1.3440912E-2,-2.4235612E-2,1.1202519E-2,3.697615E-2,-1.2518628E-2,7.1144267E-3,-3.3730038E-2,2.387305E-2,-3.917824E-3,3.169535E-2,8.820704E-3,2.9403882E-2,-1.6510295E-2],"split_indices":[3,18,3,3,12,17,14,8,17,16,21,4,17,19,0,4,8,12,17,8,13,19,0,15,5,16,19,17,8,0,0,0,0,0,0,0,0,0,0,0,0,0,0,0,0,0,0,0,0,0,0,0,0,0,0],"split_type":[0,0,0,0,0,0,0,0,0,0,0,0,0,0,0,0,0,0,0,0,0,0,0,0,0,0,0,0,0,0,0,0,0,0,0,0,0,0,0,0,0,0,0,0,0,0,0,0,0,0,0,0,0,0,0],"sum_hessian":[6.572096E2,2.76099E2,3.811106E2,1.7111656E2,1.0498243E2,3.3240793E2,4.8702675E1,1.0001287E2,7.11037E1,9.314278E1,1.1839649E1,2.767114E1,3.047368E2,4.6812325E1,1.8903507E0,4.9481993E0,9.506467E1,2.0387758E1,5.0715942E1,1.4035012E1,7.9107765E1,5.6017237E0,6.2379255E0,2.3257538E1,4.4136033E0,2.6241333E2,4.232345E1,4.1567406E1,5.2449164E0,3.2165432E0,1.7316562E0,2.0890566E1,7.41741E1,1.9166456E1,1.221301E0,1.3890168E1,3.6825775E1,2.7044E0,1.1330612E1,9.501306E0,6.960646E1,2.434536E0,3.1671875E0,2.0095993E1,3.1615443E0,2.434545E0,1.9790583E0,2.591608E2,3.2525368E0,3.3470108E1,8.853342E0,3.5883537E1,5.683869E0,1.7943168E0,3.4505997E0],"tree_param":{"num_deleted":"0","num_feature":"22","num_nodes":"55","size_leaf_vector":"1"}},{"base_weights":[3.6698167E-4,-5.493132E-1,1.7900053E-1,-7.278201E-1,-2.1874495E-1,1.0837068E-1,8.5305524E-1,-7.6676524E-1,2.2180758E-2,-4.001843E-2,-1.3587818E-1,2.1442603E-2,6.05672E-1,-1.7792505E-1,9.288122E-1,-8.0478E-1,1.0651159E-1,6.3119614E-1,-2.9435584E-1,8.0201924E-1,-8.819484E-3,9.569685E-1,1.0958689E-1,2.7022768E-2,-3.166497E-2,9.622359E-1,-4.530379E-3,-2.4901524E-2,1.2275236E-2,1.974952E-2,-2.2924054E-2,3.2636143E-2,-5.1776133E-3,-1.929397E-2,-2.6055766E-4,-3.589429E-3,2.8687889E-2,-1.4788296E-2,1.0571588E-3,-1.0825346E-2,3.0945446E-2,-1.493779E-2,1.0155056E-2,2.2605432E-2,3.6066525E-2],"categories":[],"categories_nodes":[],"categories_segments":[],"categories_sizes":[],"default_left":[0,0,0,0,0,0,0,0,0,0,0,0,0,0,0,0,0,0,0,0,0,0,0,0,0,0,0,0,0,0,0,0,0,0,0,0,0,0,0,0,0,0,0,0,0],"id":25,"left_children":[1,3,5,7,9,11,13,15,-1,-1,17,19,21,23,25,27,29,31,33,35,37,39,41,-1,-1,43,-1,-1,-1,-1,-1,-1,-1,-1,-1,-1,-1,-1,-1,-1,-1,-1,-1,-1,-1],"loss_changes":[6.533747E1,9.471325E0,2.3816637E1,6.5978622E0,5.239479E0,1.9687414E1,3.8741074E0,3.5153236E0,0E0,0E0,6.9585943E0,9.1947365E0,1.1705587E1,4.822155E0,1.7476578E0,3.3803024E0,2.9977617E0,3.806171E0,4.6629357E0,2.179616E0,8.024922E0,4.257084E0,4.232766E0,0E0,0E0,1.257927E0,0E0,0E0,0E0,0E0,0E0,0E0,0E0,0E0,0E0,0E0,0E0,0E0,0E0,0E0,0E0,0E0,0E0,0E0,0E0],"parents":[2147483647,0,0,1,1,2,2,3,3,4,4,5,5,6,6,7,7,10,10,11,11,12,12,13,13,14,14,15,15,16,16,17,17,18,18,19,19,20,20,21,21,22,22,25,25],"right_children":[2,4,6,8,10,12,14,16,-1,-1,18,20,22,24,26,28,30,32,34,36,38,40,42,-1,-1,44,-1,-1,-1,-1,-1,-1,-1,-1,-1,-1,-1,-1,-1,-1,-1,-1,-1,-1,-1],"split_conditions":[4E0,4.4444445E-1,9E0,2.025E3,1E0,3.888889E-1,2.25E-1,3.14E-1,2.2180758E-2,-4.001843E-2,4.2857143E-1,2E0,9.14E0,2.79E-1,8E-1,4.75E-1,3.7142858E-1,6.67755E5,3E0,2.2727273E-1,1.64E0,1.06E0,1.5555556E-1,2.7022768E-2,-3.166497E-2,3.488372E-1,-4.530379E-3,-2.4901524E-2,1.2275236E-2,1.974952E-2,-2.2924054E-2,3.2636143E-2,-5.1776133E-3,-1.929397E-2,-2.6055766E-4,-3.589429E-3,2.8687889E-2,-1.4788296E-2,1.0571588E-3,-1.0825346E-2,3.0945446E-2,-1.493779E-2,1.0155056E-2,2.2605432E-2,3.6066525E-2],"split_indices":[3,18,3,2,3,17,17,14,0,0,16,5,11,14,18,19,18,1,3,17,12,9,19,0,0,17,0,0,0,0,0,0,0,0,0,0,0,0,0,0,0,0,0,0,0],"split_type":[0,0,0,0,0,0,0,0,0,0,0,0,0,0,0,0,0,0,0,0,0,0,0,0,0,0,0,0,0,0,0,0,0,0,0,0,0,0,0,0,0,0,0,0,0],"sum_hessian":[6.634085E2,1.6220528E2,5.0120322E2,1.0454776E2,5.7657524E1,4.547171E2,4.6486103E1,1.0230942E2,2.2383394E0,2.9437459E0,5.471378E1,3.879472E2,6.67699E1,3.0896919E0,4.339641E1,9.8116714E1,4.1927E0,8.857626E0,4.585615E1,1.3527148E1,3.7442007E2,3.854541E1,2.8224491E1,1.3741788E0,1.7155131E0,4.219912E1,1.19729E0,9.6425674E1,1.691041E0,2.7155142E0,1.4771857E0,5.4230447E0,3.4345813E0,2.008409E1,2.5772064E1,1.9714229E0,1.1555725E1,3.0382256E1,3.440378E2,1.8580837E0,3.6687325E1,7.402903E0,2.0821587E1,2.4783665E1,1.7415455E1],"tree_param":{"num_deleted":"0","num_feature":"22","num_nodes":"45","size_leaf_vector":"1"}},{"base_weights":[-3.5205036E-2,-2.3437712E-1,2.139954E-1,6.0814057E-2,-3.9027792E-1,-2.1719003E-2,5.0950146E-1,-1.1231344E0,1.3307224E-1,-3.2339853E-1,-9.011947E-1,-1.3335194E-1,4.2863253E-1,-4.3100765E-1,5.5201447E-1,-4.6399785E-3,-1.2924557E0,3.1766543E-1,-2.3025854E-1,-2.3658478E-1,-8.332241E-1,1.3934913E-1,-1.0100751E0,3.1143542E-2,-1.6993923E-1,6.8448627E-1,-8.081887E-2,4.7021484E-1,-1.0843327E0,1.4153755E-1,6.3409203E-1,-4.5308754E-2,-6.4535285E-3,5.338935E-3,2.5044866E-2,-3.977784E-2,-1.0811685E-3,-9.233084E-3,8.624137E-3,1.0309675E-2,-3.0226868E-2,1.5501314E-2,-8.960341E-3,-1.3447363E-2,-3.590236E-2,-6.266667E-3,1.9519841E-2,-1.1218376E-3,3.0538108E-2,2.1240544E-2,-1.44027565E-2,-3.7112895E-3,2.5231792E-2,-4.6522498E-2,-5.7230674E-4,1.884185E-2,-1.055278E-2,1.1328513E-2,2.4840128E-2],"categories":[],"categories_nodes":[],"categories_segments":[],"categories_sizes":[],"default_left":[0,0,0,0,0,0,0,0,0,0,0,0,0,0,0,0,0,0,0,0,0,0,0,0,0,0,0,0,0,0,0,0,0,0,0,0,0,0,0,0,0,0,0,0,0,0,0,0,0,0,0,0,0,0,0,0,0,0,0],"id":26,"left_children":[1,3,5,7,9,11,13,15,17,19,21,23,25,27,29,-1,31,33,35,37,39,41,43,-1,45,47,49,51,53,55,57,-1,-1,-1,-1,-1,-1,-1,-1,-1,-1,-1,-1,-1,-1,-1,-1,-1,-1,-1,-1,-1,-1,-1,-1,-1,-1,-1,-1],"loss_changes":[3.2401E1,1.6717014E1,2.0214901E1,1.0948371E1,7.824093E0,8.21717E0,5.385643E0,1.0081196E0,8.112132E0,9.167143E0,3.1919422E0,5.783987E0,4.2887635E0,4.118816E0,4.0749817E0,0E0,1.1147814E0,5.624178E0,8.66872E0,6.884885E0,6.58123E0,7.21269E-1,2.0332088E0,0E0,4.2183976E0,5.2678137E0,4.0415163E0,8.250513E-1,1.8862362E0,